digraph Tree {
node [shape=box, style="filled, rounded", color="black", fontname=helvetica] ;
edge [fontname=helvetica] ;
0 [label=<0 &le; 3044.5<br/>gini = 0.623<br/>samples = 581012<br/>value = [211840, 283301, 35754, 2747, 9493, 17367, 20510]<br/>class = Lodgepole Pine>, fillcolor="#f1fad9"] ;
1 [label=<0 &le; 2510.5<br/>gini = 0.553<br/>samples = 336915<br/>value = [57597, 213873, 35754, 2747, 9493, 17367, 84]<br/>class = Lodgepole Pine>, fillcolor="#d7f090"] ;
0 -> 1 [labeldistance=2.5, labelangle=45, headlabel="True"] ;
2 [label=<3 &le; 15.0<br/>gini = 0.581<br/>samples = 42801<br/>value = [11, 3321, 24583, 2744, 125, 12017, 0]<br/>class = Ponderosa Pine>, fillcolor="#aef4b6"] ;
1 -> 2 ;
3 [label=<12 &le; 0.5<br/>gini = 0.713<br/>samples = 3126<br/>value = [10, 260, 811, 1114, 14, 917, 0]<br/>class = Cottonwood/Willow>, fillcolor="#edfdfc"] ;
2 -> 3 ;
4 [label=<0 &le; 2340.5<br/>gini = 0.649<br/>samples = 2259<br/>value = [0, 187, 656, 1114, 14, 288, 0]<br/>class = Cottonwood/Willow>, fillcolor="#c6f8f7"] ;
3 -> 4 ;
5 [label=<6 &le; 194.5<br/>gini = 0.541<br/>samples = 1680<br/>value = [0, 8, 512, 1004, 0, 156, 0]<br/>class = Cottonwood/Willow>, fillcolor="#acf4f3"] ;
4 -> 5 ;
6 [label=<23 &le; 0.5<br/>gini = 0.588<br/>samples = 454<br/>value = [0, 2, 249, 135, 0, 68, 0]<br/>class = Ponderosa Pine>, fillcolor="#b8f6bf"] ;
5 -> 6 ;
7 [label=<5 &le; 540.5<br/>gini = 0.618<br/>samples = 242<br/>value = [0, 0, 91, 112, 0, 39, 0]<br/>class = Cottonwood/Willow>, fillcolor="#e3fbfb"] ;
6 -> 7 ;
8 [label=<0 &le; 1923.5<br/>gini = 0.532<br/>samples = 87<br/>value = [0, 0, 55, 14, 0, 18, 0]<br/>class = Ponderosa Pine>, fillcolor="#95f1a0"] ;
7 -> 8 ;
9 [label=<7 &le; 192.0<br/>gini = 0.165<br/>samples = 11<br/>value = [0, 0, 1, 0, 0, 10, 0]<br/>class = Douglas-fir>, fillcolor="#b94de8"] ;
8 -> 9 ;
10 [label=<gini = 0.0<br/>samples = 1<br/>value = [0, 0, 1, 0, 0, 0, 0]<br/>class = Ponderosa Pine>, fillcolor="#39e54d"] ;
9 -> 10 ;
11 [label=<gini = 0.0<br/>samples = 10<br/>value = [0, 0, 0, 0, 0, 10, 0]<br/>class = Douglas-fir>, fillcolor="#b139e5"] ;
9 -> 11 ;
12 [label=<14 &le; 0.5<br/>gini = 0.45<br/>samples = 76<br/>value = [0, 0, 54, 14, 0, 8, 0]<br/>class = Ponderosa Pine>, fillcolor="#7fee8c"] ;
8 -> 12 ;
13 [label=<gini = 0.376<br/>samples = 67<br/>value = [0, 0, 51, 14, 0, 2, 0]<br/>class = Ponderosa Pine>, fillcolor="#75ed83"] ;
12 -> 13 ;
14 [label=<gini = 0.444<br/>samples = 9<br/>value = [0, 0, 3, 0, 0, 6, 0]<br/>class = Douglas-fir>, fillcolor="#d89cf2"] ;
12 -> 14 ;
15 [label=<0 &le; 2264.5<br/>gini = 0.528<br/>samples = 155<br/>value = [0, 0, 36, 98, 0, 21, 0]<br/>class = Cottonwood/Willow>, fillcolor="#98f1f0"] ;
7 -> 15 ;
16 [label=<17 &le; 0.5<br/>gini = 0.442<br/>samples = 132<br/>value = [0, 0, 32, 93, 0, 7, 0]<br/>class = Cottonwood/Willow>, fillcolor="#86efed"] ;
15 -> 16 ;
17 [label=<gini = 0.356<br/>samples = 103<br/>value = [0, 0, 15, 81, 0, 7, 0]<br/>class = Cottonwood/Willow>, fillcolor="#6bece9"] ;
16 -> 17 ;
18 [label=<gini = 0.485<br/>samples = 29<br/>value = [0, 0, 17, 12, 0, 0, 0]<br/>class = Ponderosa Pine>, fillcolor="#c5f7cb"] ;
16 -> 18 ;
19 [label=<5 &le; 1194.0<br/>gini = 0.552<br/>samples = 23<br/>value = [0, 0, 4, 5, 0, 14, 0]<br/>class = Douglas-fir>, fillcolor="#d89cf2"] ;
15 -> 19 ;
20 [label=<gini = 0.58<br/>samples = 10<br/>value = [0, 0, 4, 5, 0, 1, 0]<br/>class = Cottonwood/Willow>, fillcolor="#defbfa"] ;
19 -> 20 ;
21 [label=<gini = 0.0<br/>samples = 13<br/>value = [0, 0, 0, 0, 0, 13, 0]<br/>class = Douglas-fir>, fillcolor="#b139e5"] ;
19 -> 21 ;
22 [label=<9 &le; 512.5<br/>gini = 0.414<br/>samples = 212<br/>value = [0, 2, 158, 23, 0, 29, 0]<br/>class = Ponderosa Pine>, fillcolor="#73ed82"] ;
6 -> 22 ;
23 [label=<0 &le; 2154.0<br/>gini = 0.602<br/>samples = 68<br/>value = [0, 0, 36, 12, 0, 20, 0]<br/>class = Ponderosa Pine>, fillcolor="#bdf6c4"] ;
22 -> 23 ;
24 [label=<5 &le; 152.0<br/>gini = 0.604<br/>samples = 32<br/>value = [0, 0, 9, 6, 0, 17, 0]<br/>class = Douglas-fir>, fillcolor="#e4baf6"] ;
23 -> 24 ;
25 [label=<gini = 0.0<br/>samples = 7<br/>value = [0, 0, 7, 0, 0, 0, 0]<br/>class = Ponderosa Pine>, fillcolor="#39e54d"] ;
24 -> 25 ;
26 [label=<gini = 0.474<br/>samples = 25<br/>value = [0, 0, 2, 6, 0, 17, 0]<br/>class = Douglas-fir>, fillcolor="#d28cf0"] ;
24 -> 26 ;
27 [label=<5 &le; 1154.5<br/>gini = 0.403<br/>samples = 36<br/>value = [0, 0, 27, 6, 0, 3, 0]<br/>class = Ponderosa Pine>, fillcolor="#74ed82"] ;
23 -> 27 ;
28 [label=<gini = 0.314<br/>samples = 33<br/>value = [0, 0, 27, 3, 0, 3, 0]<br/>class = Ponderosa Pine>, fillcolor="#61ea71"] ;
27 -> 28 ;
29 [label=<gini = 0.0<br/>samples = 3<br/>value = [0, 0, 0, 3, 0, 0, 0]<br/>class = Cottonwood/Willow>, fillcolor="#39e5e2"] ;
27 -> 29 ;
30 [label=<9 &le; 1021.0<br/>gini = 0.272<br/>samples = 144<br/>value = [0, 2, 122, 11, 0, 9, 0]<br/>class = Ponderosa Pine>, fillcolor="#5ae96a"] ;
22 -> 30 ;
31 [label=<5 &le; 962.5<br/>gini = 0.223<br/>samples = 139<br/>value = [0, 2, 122, 10, 0, 5, 0]<br/>class = Ponderosa Pine>, fillcolor="#53e864"] ;
30 -> 31 ;
32 [label=<gini = 0.083<br/>samples = 94<br/>value = [0, 2, 90, 1, 0, 1, 0]<br/>class = Ponderosa Pine>, fillcolor="#42e655"] ;
31 -> 32 ;
33 [label=<gini = 0.446<br/>samples = 45<br/>value = [0, 0, 32, 9, 0, 4, 0]<br/>class = Ponderosa Pine>, fillcolor="#80ee8d"] ;
31 -> 33 ;
34 [label=<6 &le; 190.5<br/>gini = 0.32<br/>samples = 5<br/>value = [0, 0, 0, 1, 0, 4, 0]<br/>class = Douglas-fir>, fillcolor="#c46aec"] ;
30 -> 34 ;
35 [label=<gini = 0.0<br/>samples = 4<br/>value = [0, 0, 0, 0, 0, 4, 0]<br/>class = Douglas-fir>, fillcolor="#b139e5"] ;
34 -> 35 ;
36 [label=<gini = 0.0<br/>samples = 1<br/>value = [0, 0, 0, 1, 0, 0, 0]<br/>class = Cottonwood/Willow>, fillcolor="#39e5e2"] ;
34 -> 36 ;
37 [label=<5 &le; 637.0<br/>gini = 0.446<br/>samples = 1226<br/>value = [0, 6, 263, 869, 0, 88, 0]<br/>class = Cottonwood/Willow>, fillcolor="#82efed"] ;
5 -> 37 ;
38 [label=<0 &le; 1987.0<br/>gini = 0.572<br/>samples = 489<br/>value = [0, 6, 201, 246, 0, 36, 0]<br/>class = Cottonwood/Willow>, fillcolor="#e0fbfa"] ;
37 -> 38 ;
39 [label=<1 &le; 25.0<br/>gini = 0.203<br/>samples = 61<br/>value = [0, 0, 54, 0, 0, 7, 0]<br/>class = Ponderosa Pine>, fillcolor="#53e864"] ;
38 -> 39 ;
40 [label=<23 &le; 0.5<br/>gini = 0.42<br/>samples = 10<br/>value = [0, 0, 3, 0, 0, 7, 0]<br/>class = Douglas-fir>, fillcolor="#d28ef0"] ;
39 -> 40 ;
41 [label=<gini = 0.0<br/>samples = 7<br/>value = [0, 0, 0, 0, 0, 7, 0]<br/>class = Douglas-fir>, fillcolor="#b139e5"] ;
40 -> 41 ;
42 [label=<gini = 0.0<br/>samples = 3<br/>value = [0, 0, 3, 0, 0, 0, 0]<br/>class = Ponderosa Pine>, fillcolor="#39e54d"] ;
40 -> 42 ;
43 [label=<gini = 0.0<br/>samples = 51<br/>value = [0, 0, 51, 0, 0, 0, 0]<br/>class = Ponderosa Pine>, fillcolor="#39e54d"] ;
39 -> 43 ;
44 [label=<1 &le; 148.5<br/>gini = 0.547<br/>samples = 428<br/>value = [0, 6, 147, 246, 0, 29, 0]<br/>class = Cottonwood/Willow>, fillcolor="#b9f6f5"] ;
38 -> 44 ;
45 [label=<8 &le; 74.5<br/>gini = 0.499<br/>samples = 310<br/>value = [0, 4, 73, 205, 0, 28, 0]<br/>class = Cottonwood/Willow>, fillcolor="#91f1ef"] ;
44 -> 45 ;
46 [label=<gini = 0.62<br/>samples = 40<br/>value = [0, 0, 20, 8, 0, 12, 0]<br/>class = Ponderosa Pine>, fillcolor="#c6f8cc"] ;
45 -> 46 ;
47 [label=<gini = 0.425<br/>samples = 270<br/>value = [0, 4, 53, 197, 0, 16, 0]<br/>class = Cottonwood/Willow>, fillcolor="#7ceeec"] ;
45 -> 47 ;
48 [label=<29 &le; 0.5<br/>gini = 0.486<br/>samples = 118<br/>value = [0, 2, 74, 41, 0, 1, 0]<br/>class = Ponderosa Pine>, fillcolor="#aaf4b3"] ;
44 -> 48 ;
49 [label=<gini = 0.452<br/>samples = 109<br/>value = [0, 2, 74, 32, 0, 1, 0]<br/>class = Ponderosa Pine>, fillcolor="#93f19e"] ;
48 -> 49 ;
50 [label=<gini = 0.0<br/>samples = 9<br/>value = [0, 0, 0, 9, 0, 0, 0]<br/>class = Cottonwood/Willow>, fillcolor="#39e5e2"] ;
48 -> 50 ;
51 [label=<0 &le; 2310.0<br/>gini = 0.273<br/>samples = 737<br/>value = [0, 0, 62, 623, 0, 52, 0]<br/>class = Cottonwood/Willow>, fillcolor="#5ae9e7"] ;
37 -> 51 ;
52 [label=<7 &le; 199.5<br/>gini = 0.221<br/>samples = 672<br/>value = [0, 0, 55, 590, 0, 27, 0]<br/>class = Cottonwood/Willow>, fillcolor="#53e8e6"] ;
51 -> 52 ;
53 [label=<2 &le; 24.5<br/>gini = 0.492<br/>samples = 61<br/>value = [0, 0, 19, 39, 0, 3, 0]<br/>class = Cottonwood/Willow>, fillcolor="#a1f3f1"] ;
52 -> 53 ;
54 [label=<gini = 0.394<br/>samples = 41<br/>value = [0, 0, 7, 31, 0, 3, 0]<br/>class = Cottonwood/Willow>, fillcolor="#73edeb"] ;
53 -> 54 ;
55 [label=<gini = 0.48<br/>samples = 20<br/>value = [0, 0, 12, 8, 0, 0, 0]<br/>class = Ponderosa Pine>, fillcolor="#bdf6c4"] ;
53 -> 55 ;
56 [label=<0 &le; 2037.0<br/>gini = 0.182<br/>samples = 611<br/>value = [0, 0, 36, 551, 0, 24, 0]<br/>class = Cottonwood/Willow>, fillcolor="#4ee8e5"] ;
52 -> 56 ;
57 [label=<gini = 0.0<br/>samples = 2<br/>value = [0, 0, 2, 0, 0, 0, 0]<br/>class = Ponderosa Pine>, fillcolor="#39e54d"] ;
56 -> 57 ;
58 [label=<gini = 0.177<br/>samples = 609<br/>value = [0, 0, 34, 551, 0, 24, 0]<br/>class = Cottonwood/Willow>, fillcolor="#4de8e5"] ;
56 -> 58 ;
59 [label=<6 &le; 212.0<br/>gini = 0.583<br/>samples = 65<br/>value = [0, 0, 7, 33, 0, 25, 0]<br/>class = Cottonwood/Willow>, fillcolor="#d7faf9"] ;
51 -> 59 ;
60 [label=<2 &le; 19.5<br/>gini = 0.526<br/>samples = 35<br/>value = [0, 0, 4, 9, 0, 22, 0]<br/>class = Douglas-fir>, fillcolor="#d89cf2"] ;
59 -> 60 ;
61 [label=<gini = 0.412<br/>samples = 31<br/>value = [0, 0, 0, 9, 0, 22, 0]<br/>class = Douglas-fir>, fillcolor="#d18af0"] ;
60 -> 61 ;
62 [label=<gini = 0.0<br/>samples = 4<br/>value = [0, 0, 4, 0, 0, 0, 0]<br/>class = Ponderosa Pine>, fillcolor="#39e54d"] ;
60 -> 62 ;
63 [label=<8 &le; 100.5<br/>gini = 0.34<br/>samples = 30<br/>value = [0, 0, 3, 24, 0, 3, 0]<br/>class = Cottonwood/Willow>, fillcolor="#65ebe8"] ;
59 -> 63 ;
64 [label=<gini = 0.375<br/>samples = 4<br/>value = [0, 0, 3, 0, 0, 1, 0]<br/>class = Ponderosa Pine>, fillcolor="#7bee88"] ;
63 -> 64 ;
65 [label=<gini = 0.142<br/>samples = 26<br/>value = [0, 0, 0, 24, 0, 2, 0]<br/>class = Cottonwood/Willow>, fillcolor="#49e7e4"] ;
63 -> 65 ;
66 [label=<0 &le; 2449.5<br/>gini = 0.754<br/>samples = 579<br/>value = [0, 179, 144, 110, 14, 132, 0]<br/>class = Lodgepole Pine>, fillcolor="#f9fdef"] ;
4 -> 66 ;
67 [label=<6 &le; 217.5<br/>gini = 0.733<br/>samples = 406<br/>value = [0, 66, 140, 93, 0, 107, 0]<br/>class = Ponderosa Pine>, fillcolor="#e9fceb"] ;
66 -> 67 ;
68 [label=<9 &le; 847.5<br/>gini = 0.702<br/>samples = 231<br/>value = [0, 53, 73, 19, 0, 86, 0]<br/>class = Douglas-fir>, fillcolor="#f9effd"] ;
67 -> 68 ;
69 [label=<0 &le; 2412.0<br/>gini = 0.532<br/>samples = 99<br/>value = [0, 21, 13, 2, 0, 63, 0]<br/>class = Douglas-fir>, fillcolor="#d594f1"] ;
68 -> 69 ;
70 [label=<5 &le; 947.5<br/>gini = 0.33<br/>samples = 70<br/>value = [0, 0, 12, 2, 0, 56, 0]<br/>class = Douglas-fir>, fillcolor="#c469eb"] ;
69 -> 70 ;
71 [label=<gini = 0.499<br/>samples = 25<br/>value = [0, 0, 12, 0, 0, 13, 0]<br/>class = Douglas-fir>, fillcolor="#f9f0fd"] ;
70 -> 71 ;
72 [label=<gini = 0.085<br/>samples = 45<br/>value = [0, 0, 0, 2, 0, 43, 0]<br/>class = Douglas-fir>, fillcolor="#b542e6"] ;
70 -> 72 ;
73 [label=<2 &le; 19.5<br/>gini = 0.416<br/>samples = 29<br/>value = [0, 21, 1, 0, 0, 7, 0]<br/>class = Lodgepole Pine>, fillcolor="#d1ee81"] ;
69 -> 73 ;
74 [label=<gini = 0.165<br/>samples = 22<br/>value = [0, 20, 0, 0, 0, 2, 0]<br/>class = Lodgepole Pine>, fillcolor="#bee84d"] ;
73 -> 74 ;
75 [label=<gini = 0.449<br/>samples = 7<br/>value = [0, 1, 1, 0, 0, 5, 0]<br/>class = Douglas-fir>, fillcolor="#cb7bee"] ;
73 -> 75 ;
76 [label=<9 &le; 1017.0<br/>gini = 0.688<br/>samples = 132<br/>value = [0, 32, 60, 17, 0, 23, 0]<br/>class = Ponderosa Pine>, fillcolor="#c8f8cd"] ;
68 -> 76 ;
77 [label=<0 &le; 2442.5<br/>gini = 0.123<br/>samples = 31<br/>value = [0, 1, 29, 0, 0, 1, 0]<br/>class = Ponderosa Pine>, fillcolor="#46e759"] ;
76 -> 77 ;
78 [label=<gini = 0.064<br/>samples = 30<br/>value = [0, 0, 29, 0, 0, 1, 0]<br/>class = Ponderosa Pine>, fillcolor="#40e653"] ;
77 -> 78 ;
79 [label=<gini = 0.0<br/>samples = 1<br/>value = [0, 1, 0, 0, 0, 0, 0]<br/>class = Lodgepole Pine>, fillcolor="#b7e539"] ;
77 -> 79 ;
80 [label=<5 &le; 922.0<br/>gini = 0.736<br/>samples = 101<br/>value = [0, 31, 31, 17, 0, 22, 0]<br/>class = Lodgepole Pine>, fillcolor="#ffffff"] ;
76 -> 80 ;
81 [label=<gini = 0.731<br/>samples = 86<br/>value = [0, 31, 16, 17, 0, 22, 0]<br/>class = Lodgepole Pine>, fillcolor="#f5fbe3"] ;
80 -> 81 ;
82 [label=<gini = 0.0<br/>samples = 15<br/>value = [0, 0, 15, 0, 0, 0, 0]<br/>class = Ponderosa Pine>, fillcolor="#39e54d"] ;
80 -> 82 ;
83 [label=<8 &le; 111.5<br/>gini = 0.655<br/>samples = 175<br/>value = [0, 13, 67, 74, 0, 21, 0]<br/>class = Cottonwood/Willow>, fillcolor="#f2fdfd"] ;
67 -> 83 ;
84 [label=<0 &le; 2433.5<br/>gini = 0.467<br/>samples = 54<br/>value = [0, 0, 13, 37, 0, 4, 0]<br/>class = Cottonwood/Willow>, fillcolor="#8bf0ee"] ;
83 -> 84 ;
85 [label=<8 &le; 77.0<br/>gini = 0.39<br/>samples = 46<br/>value = [0, 0, 7, 35, 0, 4, 0]<br/>class = Cottonwood/Willow>, fillcolor="#71ecea"] ;
84 -> 85 ;
86 [label=<gini = 0.375<br/>samples = 4<br/>value = [0, 0, 3, 1, 0, 0, 0]<br/>class = Ponderosa Pine>, fillcolor="#7bee88"] ;
85 -> 86 ;
87 [label=<gini = 0.327<br/>samples = 42<br/>value = [0, 0, 4, 34, 0, 4, 0]<br/>class = Cottonwood/Willow>, fillcolor="#63eae8"] ;
85 -> 87 ;
88 [label=<6 &le; 237.5<br/>gini = 0.375<br/>samples = 8<br/>value = [0, 0, 6, 2, 0, 0, 0]<br/>class = Ponderosa Pine>, fillcolor="#7bee88"] ;
84 -> 88 ;
89 [label=<gini = 0.0<br/>samples = 6<br/>value = [0, 0, 6, 0, 0, 0, 0]<br/>class = Ponderosa Pine>, fillcolor="#39e54d"] ;
88 -> 89 ;
90 [label=<gini = 0.0<br/>samples = 2<br/>value = [0, 0, 0, 2, 0, 0, 0]<br/>class = Cottonwood/Willow>, fillcolor="#39e5e2"] ;
88 -> 90 ;
91 [label=<9 &le; 774.0<br/>gini = 0.676<br/>samples = 121<br/>value = [0, 13, 54, 37, 0, 17, 0]<br/>class = Ponderosa Pine>, fillcolor="#d7fadb"] ;
83 -> 91 ;
92 [label=<0 &le; 2413.5<br/>gini = 0.69<br/>samples = 22<br/>value = [0, 6, 1, 8, 0, 7, 0]<br/>class = Cottonwood/Willow>, fillcolor="#f2fdfd"] ;
91 -> 92 ;
93 [label=<gini = 0.555<br/>samples = 16<br/>value = [0, 0, 1, 8, 0, 7, 0]<br/>class = Cottonwood/Willow>, fillcolor="#e9fcfc"] ;
92 -> 93 ;
94 [label=<gini = 0.0<br/>samples = 6<br/>value = [0, 6, 0, 0, 0, 0, 0]<br/>class = Lodgepole Pine>, fillcolor="#b7e539"] ;
92 -> 94 ;
95 [label=<29 &le; 0.5<br/>gini = 0.612<br/>samples = 99<br/>value = [0, 7, 53, 29, 0, 10, 0]<br/>class = Ponderosa Pine>, fillcolor="#bbf6c2"] ;
91 -> 95 ;
96 [label=<gini = 0.533<br/>samples = 79<br/>value = [0, 1, 46, 28, 0, 4, 0]<br/>class = Ponderosa Pine>, fillcolor="#b9f6c0"] ;
95 -> 96 ;
97 [label=<gini = 0.695<br/>samples = 20<br/>value = [0, 6, 7, 1, 0, 6, 0]<br/>class = Ponderosa Pine>, fillcolor="#f1fdf2"] ;
95 -> 97 ;
98 [label=<9 &le; 1173.5<br/>gini = 0.536<br/>samples = 173<br/>value = [0, 113, 4, 17, 14, 25, 0]<br/>class = Lodgepole Pine>, fillcolor="#d4f089"] ;
66 -> 98 ;
99 [label=<7 &le; 189.0<br/>gini = 0.083<br/>samples = 93<br/>value = [0, 89, 3, 1, 0, 0, 0]<br/>class = Lodgepole Pine>, fillcolor="#bae642"] ;
98 -> 99 ;
100 [label=<7 &le; 186.5<br/>gini = 0.444<br/>samples = 3<br/>value = [0, 0, 2, 1, 0, 0, 0]<br/>class = Ponderosa Pine>, fillcolor="#9cf2a6"] ;
99 -> 100 ;
101 [label=<gini = 0.0<br/>samples = 2<br/>value = [0, 0, 2, 0, 0, 0, 0]<br/>class = Ponderosa Pine>, fillcolor="#39e54d"] ;
100 -> 101 ;
102 [label=<gini = 0.0<br/>samples = 1<br/>value = [0, 0, 0, 1, 0, 0, 0]<br/>class = Cottonwood/Willow>, fillcolor="#39e5e2"] ;
100 -> 102 ;
103 [label=<15 &le; 0.5<br/>gini = 0.022<br/>samples = 90<br/>value = [0, 89, 1, 0, 0, 0, 0]<br/>class = Lodgepole Pine>, fillcolor="#b8e53b"] ;
99 -> 103 ;
104 [label=<gini = 0.0<br/>samples = 89<br/>value = [0, 89, 0, 0, 0, 0, 0]<br/>class = Lodgepole Pine>, fillcolor="#b7e539"] ;
103 -> 104 ;
105 [label=<gini = 0.0<br/>samples = 1<br/>value = [0, 0, 1, 0, 0, 0, 0]<br/>class = Ponderosa Pine>, fillcolor="#39e54d"] ;
103 -> 105 ;
106 [label=<10 &le; 0.5<br/>gini = 0.742<br/>samples = 80<br/>value = [0, 24, 1, 16, 14, 25, 0]<br/>class = Douglas-fir>, fillcolor="#fefbff"] ;
98 -> 106 ;
107 [label=<0 &le; 2485.5<br/>gini = 0.5<br/>samples = 42<br/>value = [0, 0, 1, 16, 0, 25, 0]<br/>class = Douglas-fir>, fillcolor="#e4baf6"] ;
106 -> 107 ;
108 [label=<5 &le; 552.5<br/>gini = 0.523<br/>samples = 29<br/>value = [0, 0, 1, 16, 0, 12, 0]<br/>class = Cottonwood/Willow>, fillcolor="#d0f9f8"] ;
107 -> 108 ;
109 [label=<gini = 0.446<br/>samples = 23<br/>value = [0, 0, 1, 16, 0, 6, 0]<br/>class = Cottonwood/Willow>, fillcolor="#8bf0ee"] ;
108 -> 109 ;
110 [label=<gini = 0.0<br/>samples = 6<br/>value = [0, 0, 0, 0, 0, 6, 0]<br/>class = Douglas-fir>, fillcolor="#b139e5"] ;
108 -> 110 ;
111 [label=<gini = 0.0<br/>samples = 13<br/>value = [0, 0, 0, 0, 0, 13, 0]<br/>class = Douglas-fir>, fillcolor="#b139e5"] ;
107 -> 111 ;
112 [label=<9 &le; 5239.5<br/>gini = 0.465<br/>samples = 38<br/>value = [0, 24, 0, 0, 14, 0, 0]<br/>class = Lodgepole Pine>, fillcolor="#e1f4ac"] ;
106 -> 112 ;
113 [label=<gini = 0.0<br/>samples = 18<br/>value = [0, 18, 0, 0, 0, 0, 0]<br/>class = Lodgepole Pine>, fillcolor="#b7e539"] ;
112 -> 113 ;
114 [label=<0 &le; 2499.5<br/>gini = 0.42<br/>samples = 20<br/>value = [0, 6, 0, 0, 14, 0, 0]<br/>class = Aspen>, fillcolor="#8e9ef0"] ;
112 -> 114 ;
115 [label=<gini = 0.0<br/>samples = 14<br/>value = [0, 0, 0, 0, 14, 0, 0]<br/>class = Aspen>, fillcolor="#3956e5"] ;
114 -> 115 ;
116 [label=<gini = 0.0<br/>samples = 6<br/>value = [0, 6, 0, 0, 0, 0, 0]<br/>class = Lodgepole Pine>, fillcolor="#b7e539"] ;
114 -> 116 ;
117 [label=<17 &le; 0.5<br/>gini = 0.434<br/>samples = 867<br/>value = [10, 73, 155, 0, 0, 629, 0]<br/>class = Douglas-fir>, fillcolor="#cb7bee"] ;
3 -> 117 ;
118 [label=<6 &le; 174.5<br/>gini = 0.354<br/>samples = 677<br/>value = [10, 59, 72, 0, 0, 536, 0]<br/>class = Douglas-fir>, fillcolor="#c367eb"] ;
117 -> 118 ;
119 [label=<9 &le; 1203.5<br/>gini = 0.712<br/>samples = 24<br/>value = [5, 4, 10, 0, 0, 5, 0]<br/>class = Ponderosa Pine>, fillcolor="#cbf8d0"] ;
118 -> 119 ;
120 [label=<0 &le; 2375.5<br/>gini = 0.444<br/>samples = 15<br/>value = [0, 0, 10, 0, 0, 5, 0]<br/>class = Ponderosa Pine>, fillcolor="#9cf2a6"] ;
119 -> 120 ;
121 [label=<gini = 0.0<br/>samples = 3<br/>value = [0, 0, 0, 0, 0, 3, 0]<br/>class = Douglas-fir>, fillcolor="#b139e5"] ;
120 -> 121 ;
122 [label=<1 &le; 234.0<br/>gini = 0.278<br/>samples = 12<br/>value = [0, 0, 10, 0, 0, 2, 0]<br/>class = Ponderosa Pine>, fillcolor="#61ea71"] ;
120 -> 122 ;
123 [label=<gini = 0.0<br/>samples = 1<br/>value = [0, 0, 0, 0, 0, 1, 0]<br/>class = Douglas-fir>, fillcolor="#b139e5"] ;
122 -> 123 ;
124 [label=<2 &le; 20.5<br/>gini = 0.165<br/>samples = 11<br/>value = [0, 0, 10, 0, 0, 1, 0]<br/>class = Ponderosa Pine>, fillcolor="#4de85f"] ;
122 -> 124 ;
125 [label=<gini = 0.0<br/>samples = 1<br/>value = [0, 0, 0, 0, 0, 1, 0]<br/>class = Douglas-fir>, fillcolor="#b139e5"] ;
124 -> 125 ;
126 [label=<gini = 0.0<br/>samples = 10<br/>value = [0, 0, 10, 0, 0, 0, 0]<br/>class = Ponderosa Pine>, fillcolor="#39e54d"] ;
124 -> 126 ;
127 [label=<9 &le; 1499.5<br/>gini = 0.494<br/>samples = 9<br/>value = [5, 4, 0, 0, 0, 0, 0]<br/>class = Spruce-Fir>, fillcolor="#fae6d7"] ;
119 -> 127 ;
128 [label=<gini = 0.0<br/>samples = 5<br/>value = [5, 0, 0, 0, 0, 0, 0]<br/>class = Spruce-Fir>, fillcolor="#e58139"] ;
127 -> 128 ;
129 [label=<gini = 0.0<br/>samples = 4<br/>value = [0, 4, 0, 0, 0, 0, 0]<br/>class = Lodgepole Pine>, fillcolor="#b7e539"] ;
127 -> 129 ;
130 [label=<16 &le; 0.5<br/>gini = 0.323<br/>samples = 653<br/>value = [5, 55, 62, 0, 0, 531, 0]<br/>class = Douglas-fir>, fillcolor="#c162ea"] ;
118 -> 130 ;
131 [label=<15 &le; 0.5<br/>gini = 0.282<br/>samples = 602<br/>value = [5, 48, 43, 0, 0, 506, 0]<br/>class = Douglas-fir>, fillcolor="#bf5bea"] ;
130 -> 131 ;
132 [label=<23 &le; 0.5<br/>gini = 0.258<br/>samples = 582<br/>value = [5, 47, 32, 0, 0, 498, 0]<br/>class = Douglas-fir>, fillcolor="#bd58e9"] ;
131 -> 132 ;
133 [label=<0 &le; 2509.5<br/>gini = 0.189<br/>samples = 452<br/>value = [5, 17, 24, 0, 0, 406, 0]<br/>class = Douglas-fir>, fillcolor="#b94ee8"] ;
132 -> 133 ;
134 [label=<gini = 0.178<br/>samples = 449<br/>value = [5, 14, 24, 0, 0, 406, 0]<br/>class = Douglas-fir>, fillcolor="#b94de8"] ;
133 -> 134 ;
135 [label=<gini = 0.0<br/>samples = 3<br/>value = [0, 3, 0, 0, 0, 0, 0]<br/>class = Lodgepole Pine>, fillcolor="#b7e539"] ;
133 -> 135 ;
136 [label=<9 &le; 669.0<br/>gini = 0.442<br/>samples = 130<br/>value = [0, 30, 8, 0, 0, 92, 0]<br/>class = Douglas-fir>, fillcolor="#cf84ef"] ;
132 -> 136 ;
137 [label=<gini = 0.561<br/>samples = 37<br/>value = [0, 21, 4, 0, 0, 12, 0]<br/>class = Lodgepole Pine>, fillcolor="#e5f6b8"] ;
136 -> 137 ;
138 [label=<gini = 0.249<br/>samples = 93<br/>value = [0, 9, 4, 0, 0, 80, 0]<br/>class = Douglas-fir>, fillcolor="#bd58e9"] ;
136 -> 138 ;
139 [label=<5 &le; 856.0<br/>gini = 0.535<br/>samples = 20<br/>value = [0, 1, 11, 0, 0, 8, 0]<br/>class = Ponderosa Pine>, fillcolor="#cef8d2"] ;
131 -> 139 ;
140 [label=<5 &le; 215.0<br/>gini = 0.153<br/>samples = 12<br/>value = [0, 0, 11, 0, 0, 1, 0]<br/>class = Ponderosa Pine>, fillcolor="#4be75d"] ;
139 -> 140 ;
141 [label=<gini = 0.0<br/>samples = 1<br/>value = [0, 0, 0, 0, 0, 1, 0]<br/>class = Douglas-fir>, fillcolor="#b139e5"] ;
140 -> 141 ;
142 [label=<gini = 0.0<br/>samples = 11<br/>value = [0, 0, 11, 0, 0, 0, 0]<br/>class = Ponderosa Pine>, fillcolor="#39e54d"] ;
140 -> 142 ;
143 [label=<0 &le; 2508.5<br/>gini = 0.219<br/>samples = 8<br/>value = [0, 1, 0, 0, 0, 7, 0]<br/>class = Douglas-fir>, fillcolor="#bc55e9"] ;
139 -> 143 ;
144 [label=<gini = 0.0<br/>samples = 7<br/>value = [0, 0, 0, 0, 0, 7, 0]<br/>class = Douglas-fir>, fillcolor="#b139e5"] ;
143 -> 144 ;
145 [label=<gini = 0.0<br/>samples = 1<br/>value = [0, 1, 0, 0, 0, 0, 0]<br/>class = Lodgepole Pine>, fillcolor="#b7e539"] ;
143 -> 145 ;
146 [label=<9 &le; 399.5<br/>gini = 0.602<br/>samples = 51<br/>value = [0, 7, 19, 0, 0, 25, 0]<br/>class = Douglas-fir>, fillcolor="#f0dafa"] ;
130 -> 146 ;
147 [label=<gini = 0.0<br/>samples = 12<br/>value = [0, 0, 0, 0, 0, 12, 0]<br/>class = Douglas-fir>, fillcolor="#b139e5"] ;
146 -> 147 ;
148 [label=<5 &le; 557.0<br/>gini = 0.619<br/>samples = 39<br/>value = [0, 7, 19, 0, 0, 13, 0]<br/>class = Ponderosa Pine>, fillcolor="#d1f9d6"] ;
146 -> 148 ;
149 [label=<0 &le; 2367.5<br/>gini = 0.512<br/>samples = 11<br/>value = [0, 7, 3, 0, 0, 1, 0]<br/>class = Lodgepole Pine>, fillcolor="#dbf29c"] ;
148 -> 149 ;
150 [label=<gini = 0.375<br/>samples = 4<br/>value = [0, 0, 3, 0, 0, 1, 0]<br/>class = Ponderosa Pine>, fillcolor="#7bee88"] ;
149 -> 150 ;
151 [label=<gini = 0.0<br/>samples = 7<br/>value = [0, 7, 0, 0, 0, 0, 0]<br/>class = Lodgepole Pine>, fillcolor="#b7e539"] ;
149 -> 151 ;
152 [label=<9 &le; 877.0<br/>gini = 0.49<br/>samples = 28<br/>value = [0, 0, 16, 0, 0, 12, 0]<br/>class = Ponderosa Pine>, fillcolor="#cef8d2"] ;
148 -> 152 ;
153 [label=<gini = 0.0<br/>samples = 9<br/>value = [0, 0, 9, 0, 0, 0, 0]<br/>class = Ponderosa Pine>, fillcolor="#39e54d"] ;
152 -> 153 ;
154 [label=<gini = 0.465<br/>samples = 19<br/>value = [0, 0, 7, 0, 0, 12, 0]<br/>class = Douglas-fir>, fillcolor="#deacf4"] ;
152 -> 154 ;
155 [label=<2 &le; 13.5<br/>gini = 0.564<br/>samples = 190<br/>value = [0, 14, 83, 0, 0, 93, 0]<br/>class = Douglas-fir>, fillcolor="#f8ecfd"] ;
117 -> 155 ;
156 [label=<0 &le; 2343.5<br/>gini = 0.517<br/>samples = 115<br/>value = [0, 7, 38, 0, 0, 70, 0]<br/>class = Douglas-fir>, fillcolor="#dfadf4"] ;
155 -> 156 ;
157 [label=<gini = 0.0<br/>samples = 7<br/>value = [0, 0, 7, 0, 0, 0, 0]<br/>class = Ponderosa Pine>, fillcolor="#39e54d"] ;
156 -> 157 ;
158 [label=<0 &le; 2486.5<br/>gini = 0.493<br/>samples = 108<br/>value = [0, 7, 31, 0, 0, 70, 0]<br/>class = Douglas-fir>, fillcolor="#d79bf2"] ;
156 -> 158 ;
159 [label=<6 &le; 240.0<br/>gini = 0.369<br/>samples = 77<br/>value = [0, 2, 16, 0, 0, 59, 0]<br/>class = Douglas-fir>, fillcolor="#c873ed"] ;
158 -> 159 ;
160 [label=<7 &le; 232.5<br/>gini = 0.346<br/>samples = 75<br/>value = [0, 2, 14, 0, 0, 59, 0]<br/>class = Douglas-fir>, fillcolor="#c56dec"] ;
159 -> 160 ;
161 [label=<gini = 0.074<br/>samples = 26<br/>value = [0, 0, 1, 0, 0, 25, 0]<br/>class = Douglas-fir>, fillcolor="#b441e6"] ;
160 -> 161 ;
162 [label=<gini = 0.446<br/>samples = 49<br/>value = [0, 2, 13, 0, 0, 34, 0]<br/>class = Douglas-fir>, fillcolor="#d28cf0"] ;
160 -> 162 ;
163 [label=<gini = 0.0<br/>samples = 2<br/>value = [0, 0, 2, 0, 0, 0, 0]<br/>class = Ponderosa Pine>, fillcolor="#39e54d"] ;
159 -> 163 ;
164 [label=<5 &le; 883.0<br/>gini = 0.614<br/>samples = 31<br/>value = [0, 5, 15, 0, 0, 11, 0]<br/>class = Ponderosa Pine>, fillcolor="#d7fadb"] ;
158 -> 164 ;
165 [label=<gini = 0.0<br/>samples = 5<br/>value = [0, 5, 0, 0, 0, 0, 0]<br/>class = Lodgepole Pine>, fillcolor="#b7e539"] ;
164 -> 165 ;
166 [label=<5 &le; 1678.5<br/>gini = 0.488<br/>samples = 26<br/>value = [0, 0, 15, 0, 0, 11, 0]<br/>class = Ponderosa Pine>, fillcolor="#caf8d0"] ;
164 -> 166 ;
167 [label=<gini = 0.332<br/>samples = 19<br/>value = [0, 0, 15, 0, 0, 4, 0]<br/>class = Ponderosa Pine>, fillcolor="#6eec7c"] ;
166 -> 167 ;
168 [label=<gini = 0.0<br/>samples = 7<br/>value = [0, 0, 0, 0, 0, 7, 0]<br/>class = Douglas-fir>, fillcolor="#b139e5"] ;
166 -> 168 ;
169 [label=<1 &le; 72.0<br/>gini = 0.537<br/>samples = 75<br/>value = [0, 7, 45, 0, 0, 23, 0]<br/>class = Ponderosa Pine>, fillcolor="#abf4b4"] ;
155 -> 169 ;
170 [label=<gini = 0.0<br/>samples = 5<br/>value = [0, 5, 0, 0, 0, 0, 0]<br/>class = Lodgepole Pine>, fillcolor="#b7e539"] ;
169 -> 170 ;
171 [label=<5 &le; 645.5<br/>gini = 0.478<br/>samples = 70<br/>value = [0, 2, 45, 0, 0, 23, 0]<br/>class = Ponderosa Pine>, fillcolor="#a2f3ac"] ;
169 -> 171 ;
172 [label=<7 &le; 249.0<br/>gini = 0.34<br/>samples = 10<br/>value = [0, 1, 1, 0, 0, 8, 0]<br/>class = Douglas-fir>, fillcolor="#c265eb"] ;
171 -> 172 ;
173 [label=<2 &le; 15.5<br/>gini = 0.198<br/>samples = 9<br/>value = [0, 1, 0, 0, 0, 8, 0]<br/>class = Douglas-fir>, fillcolor="#bb52e8"] ;
172 -> 173 ;
174 [label=<gini = 0.0<br/>samples = 1<br/>value = [0, 1, 0, 0, 0, 0, 0]<br/>class = Lodgepole Pine>, fillcolor="#b7e539"] ;
173 -> 174 ;
175 [label=<gini = 0.0<br/>samples = 8<br/>value = [0, 0, 0, 0, 0, 8, 0]<br/>class = Douglas-fir>, fillcolor="#b139e5"] ;
173 -> 175 ;
176 [label=<gini = 0.0<br/>samples = 1<br/>value = [0, 0, 1, 0, 0, 0, 0]<br/>class = Ponderosa Pine>, fillcolor="#39e54d"] ;
172 -> 176 ;
177 [label=<5 &le; 1338.5<br/>gini = 0.399<br/>samples = 60<br/>value = [0, 1, 44, 0, 0, 15, 0]<br/>class = Ponderosa Pine>, fillcolor="#7fee8c"] ;
171 -> 177 ;
178 [label=<2 &le; 18.5<br/>gini = 0.317<br/>samples = 47<br/>value = [0, 1, 38, 0, 0, 8, 0]<br/>class = Ponderosa Pine>, fillcolor="#67eb76"] ;
177 -> 178 ;
179 [label=<gini = 0.438<br/>samples = 30<br/>value = [0, 1, 21, 0, 0, 8, 0]<br/>class = Ponderosa Pine>, fillcolor="#8af096"] ;
178 -> 179 ;
180 [label=<gini = 0.0<br/>samples = 17<br/>value = [0, 0, 17, 0, 0, 0, 0]<br/>class = Ponderosa Pine>, fillcolor="#39e54d"] ;
178 -> 180 ;
181 [label=<0 &le; 2465.0<br/>gini = 0.497<br/>samples = 13<br/>value = [0, 0, 6, 0, 0, 7, 0]<br/>class = Douglas-fir>, fillcolor="#f4e3fb"] ;
177 -> 181 ;
182 [label=<gini = 0.0<br/>samples = 4<br/>value = [0, 0, 0, 0, 0, 4, 0]<br/>class = Douglas-fir>, fillcolor="#b139e5"] ;
181 -> 182 ;
183 [label=<gini = 0.444<br/>samples = 9<br/>value = [0, 0, 6, 0, 0, 3, 0]<br/>class = Ponderosa Pine>, fillcolor="#9cf2a6"] ;
181 -> 183 ;
184 [label=<10 &le; 0.5<br/>gini = 0.555<br/>samples = 39675<br/>value = [1, 3061, 23772, 1630, 111, 11100, 0]<br/>class = Ponderosa Pine>, fillcolor="#a7f3b0"] ;
2 -> 184 ;
185 [label=<6 &le; 234.5<br/>gini = 0.545<br/>samples = 39150<br/>value = [1, 2647, 23772, 1630, 0, 11100, 0]<br/>class = Ponderosa Pine>, fillcolor="#a6f3af"] ;
184 -> 185 ;
186 [label=<0 &le; 2378.5<br/>gini = 0.549<br/>samples = 30919<br/>value = [1, 2374, 18049, 527, 0, 9968, 0]<br/>class = Ponderosa Pine>, fillcolor="#b3f5ba"] ;
185 -> 186 ;
187 [label=<9 &le; 659.5<br/>gini = 0.485<br/>samples = 19009<br/>value = [0, 499, 12427, 507, 0, 5576, 0]<br/>class = Ponderosa Pine>, fillcolor="#9af2a4"] ;
186 -> 187 ;
188 [label=<5 &le; 1257.5<br/>gini = 0.398<br/>samples = 9635<br/>value = [0, 221, 7192, 198, 0, 2024, 0]<br/>class = Ponderosa Pine>, fillcolor="#79ed86"] ;
187 -> 188 ;
189 [label=<12 &le; 0.5<br/>gini = 0.352<br/>samples = 8643<br/>value = [0, 221, 6802, 186, 0, 1434, 0]<br/>class = Ponderosa Pine>, fillcolor="#6cec7a"] ;
188 -> 189 ;
190 [label=<1 &le; 63.5<br/>gini = 0.331<br/>samples = 8468<br/>value = [0, 183, 6800, 186, 0, 1299, 0]<br/>class = Ponderosa Pine>, fillcolor="#67eb76"] ;
189 -> 190 ;
191 [label=<gini = 0.443<br/>samples = 2800<br/>value = [0, 62, 1954, 50, 0, 734, 0]<br/>class = Ponderosa Pine>, fillcolor="#8af096"] ;
190 -> 191 ;
192 [label=<gini = 0.258<br/>samples = 5668<br/>value = [0, 121, 4846, 136, 0, 565, 0]<br/>class = Ponderosa Pine>, fillcolor="#59e96a"] ;
190 -> 192 ;
193 [label=<5 &le; 316.0<br/>gini = 0.358<br/>samples = 175<br/>value = [0, 38, 2, 0, 0, 135, 0]<br/>class = Douglas-fir>, fillcolor="#c873ed"] ;
189 -> 193 ;
194 [label=<gini = 0.139<br/>samples = 135<br/>value = [0, 8, 2, 0, 0, 125, 0]<br/>class = Douglas-fir>, fillcolor="#b749e7"] ;
193 -> 194 ;
195 [label=<gini = 0.375<br/>samples = 40<br/>value = [0, 30, 0, 0, 0, 10, 0]<br/>class = Lodgepole Pine>, fillcolor="#cfee7b"] ;
193 -> 195 ;
196 [label=<3 &le; 172.5<br/>gini = 0.492<br/>samples = 992<br/>value = [0, 0, 390, 12, 0, 590, 0]<br/>class = Douglas-fir>, fillcolor="#e5bdf6"] ;
188 -> 196 ;
197 [label=<6 &le; 211.5<br/>gini = 0.361<br/>samples = 730<br/>value = [0, 0, 156, 12, 0, 562, 0]<br/>class = Douglas-fir>, fillcolor="#c873ed"] ;
196 -> 197 ;
198 [label=<gini = 0.244<br/>samples = 607<br/>value = [0, 0, 85, 1, 0, 521, 0]<br/>class = Douglas-fir>, fillcolor="#be5ae9"] ;
197 -> 198 ;
199 [label=<gini = 0.548<br/>samples = 123<br/>value = [0, 0, 71, 11, 0, 41, 0]<br/>class = Ponderosa Pine>, fillcolor="#b7f5be"] ;
197 -> 199 ;
200 [label=<3 &le; 217.0<br/>gini = 0.191<br/>samples = 262<br/>value = [0, 0, 234, 0, 0, 28, 0]<br/>class = Ponderosa Pine>, fillcolor="#51e862"] ;
196 -> 200 ;
201 [label=<gini = 0.437<br/>samples = 87<br/>value = [0, 0, 59, 0, 0, 28, 0]<br/>class = Ponderosa Pine>, fillcolor="#97f1a1"] ;
200 -> 201 ;
202 [label=<gini = 0.0<br/>samples = 175<br/>value = [0, 0, 175, 0, 0, 0, 0]<br/>class = Ponderosa Pine>, fillcolor="#39e54d"] ;
200 -> 202 ;
203 [label=<18 &le; 0.5<br/>gini = 0.543<br/>samples = 9374<br/>value = [0, 278, 5235, 309, 0, 3552, 0]<br/>class = Ponderosa Pine>, fillcolor="#c6f7cc"] ;
187 -> 203 ;
204 [label=<9 &le; 1465.5<br/>gini = 0.534<br/>samples = 8898<br/>value = [0, 278, 5192, 305, 0, 3123, 0]<br/>class = Ponderosa Pine>, fillcolor="#b8f6bf"] ;
203 -> 204 ;
205 [label=<2 &le; 33.5<br/>gini = 0.55<br/>samples = 8086<br/>value = [0, 278, 4445, 285, 0, 3078, 0]<br/>class = Ponderosa Pine>, fillcolor="#c9f8ce"] ;
204 -> 205 ;
206 [label=<gini = 0.565<br/>samples = 7148<br/>value = [0, 264, 3676, 285, 0, 2923, 0]<br/>class = Ponderosa Pine>, fillcolor="#dcfadf"] ;
205 -> 206 ;
207 [label=<gini = 0.3<br/>samples = 938<br/>value = [0, 14, 769, 0, 0, 155, 0]<br/>class = Ponderosa Pine>, fillcolor="#64eb73"] ;
205 -> 207 ;
208 [label=<0 &le; 2339.5<br/>gini = 0.15<br/>samples = 812<br/>value = [0, 0, 747, 20, 0, 45, 0]<br/>class = Ponderosa Pine>, fillcolor="#4ae75c"] ;
204 -> 208 ;
209 [label=<gini = 0.054<br/>samples = 617<br/>value = [0, 0, 600, 17, 0, 0, 0]<br/>class = Ponderosa Pine>, fillcolor="#3fe652"] ;
208 -> 209 ;
210 [label=<gini = 0.378<br/>samples = 195<br/>value = [0, 0, 147, 3, 0, 45, 0]<br/>class = Ponderosa Pine>, fillcolor="#78ed86"] ;
208 -> 210 ;
211 [label=<2 &le; 18.5<br/>gini = 0.179<br/>samples = 476<br/>value = [0, 0, 43, 4, 0, 429, 0]<br/>class = Douglas-fir>, fillcolor="#b94ee8"] ;
203 -> 211 ;
212 [label=<9 &le; 780.5<br/>gini = 0.554<br/>samples = 50<br/>value = [0, 0, 24, 3, 0, 23, 0]<br/>class = Ponderosa Pine>, fillcolor="#f8fef8"] ;
211 -> 212 ;
213 [label=<gini = 0.277<br/>samples = 19<br/>value = [0, 0, 2, 1, 0, 16, 0]<br/>class = Douglas-fir>, fillcolor="#bf5cea"] ;
212 -> 213 ;
214 [label=<gini = 0.441<br/>samples = 31<br/>value = [0, 0, 22, 2, 0, 7, 0]<br/>class = Ponderosa Pine>, fillcolor="#83ef90"] ;
212 -> 214 ;
215 [label=<9 &le; 1482.0<br/>gini = 0.09<br/>samples = 426<br/>value = [0, 0, 19, 1, 0, 406, 0]<br/>class = Douglas-fir>, fillcolor="#b543e6"] ;
211 -> 215 ;
216 [label=<gini = 0.06<br/>samples = 419<br/>value = [0, 0, 12, 1, 0, 406, 0]<br/>class = Douglas-fir>, fillcolor="#b33fe6"] ;
215 -> 216 ;
217 [label=<gini = 0.0<br/>samples = 7<br/>value = [0, 0, 7, 0, 0, 0, 0]<br/>class = Ponderosa Pine>, fillcolor="#39e54d"] ;
215 -> 217 ;
218 [label=<17 &le; 0.5<br/>gini = 0.616<br/>samples = 11910<br/>value = [1, 1875, 5622, 20, 0, 4392, 0]<br/>class = Ponderosa Pine>, fillcolor="#dffbe2"] ;
186 -> 218 ;
219 [label=<3 &le; 151.5<br/>gini = 0.627<br/>samples = 10881<br/>value = [1, 1843, 4680, 20, 0, 4337, 0]<br/>class = Ponderosa Pine>, fillcolor="#f5fef6"] ;
218 -> 219 ;
220 [label=<0 &le; 2467.5<br/>gini = 0.652<br/>samples = 4851<br/>value = [1, 1283, 1463, 6, 0, 2098, 0]<br/>class = Douglas-fir>, fillcolor="#f0dafa"] ;
219 -> 220 ;
221 [label=<19 &le; 0.5<br/>gini = 0.627<br/>samples = 3177<br/>value = [0, 562, 1165, 3, 0, 1447, 0]<br/>class = Douglas-fir>, fillcolor="#f4e3fb"] ;
220 -> 221 ;
222 [label=<gini = 0.624<br/>samples = 2858<br/>value = [0, 561, 906, 1, 0, 1390, 0]<br/>class = Douglas-fir>, fillcolor="#eccef9"] ;
221 -> 222 ;
223 [label=<gini = 0.309<br/>samples = 319<br/>value = [0, 1, 259, 2, 0, 57, 0]<br/>class = Ponderosa Pine>, fillcolor="#66eb76"] ;
221 -> 223 ;
224 [label=<5 &le; 1143.0<br/>gini = 0.632<br/>samples = 1674<br/>value = [1, 721, 298, 3, 0, 651, 0]<br/>class = Lodgepole Pine>, fillcolor="#fafdf1"] ;
220 -> 224 ;
225 [label=<gini = 0.6<br/>samples = 1244<br/>value = [1, 646, 184, 3, 0, 410, 0]<br/>class = Lodgepole Pine>, fillcolor="#ebf8c7"] ;
224 -> 225 ;
226 [label=<gini = 0.585<br/>samples = 430<br/>value = [0, 75, 114, 0, 0, 241, 0]<br/>class = Douglas-fir>, fillcolor="#e0aff5"] ;
224 -> 226 ;
227 [label=<5 &le; 482.5<br/>gini = 0.569<br/>samples = 6030<br/>value = [0, 560, 3217, 14, 0, 2239, 0]<br/>class = Ponderosa Pine>, fillcolor="#ccf8d1"] ;
219 -> 227 ;
228 [label=<9 &le; 166.0<br/>gini = 0.357<br/>samples = 1315<br/>value = [0, 175, 1035, 1, 0, 104, 0]<br/>class = Ponderosa Pine>, fillcolor="#6aeb79"] ;
227 -> 228 ;
229 [label=<gini = 0.364<br/>samples = 35<br/>value = [0, 27, 1, 0, 0, 7, 0]<br/>class = Lodgepole Pine>, fillcolor="#ccec72"] ;
228 -> 229 ;
230 [label=<gini = 0.328<br/>samples = 1280<br/>value = [0, 148, 1034, 1, 0, 97, 0]<br/>class = Ponderosa Pine>, fillcolor="#64eb74"] ;
228 -> 230 ;
231 [label=<4 &le; 182.5<br/>gini = 0.574<br/>samples = 4715<br/>value = [0, 385, 2182, 13, 0, 2135, 0]<br/>class = Ponderosa Pine>, fillcolor="#fbfffc"] ;
227 -> 231 ;
232 [label=<gini = 0.577<br/>samples = 4065<br/>value = [0, 385, 1631, 5, 0, 2044, 0]<br/>class = Douglas-fir>, fillcolor="#f2ddfb"] ;
231 -> 232 ;
233 [label=<gini = 0.262<br/>samples = 650<br/>value = [0, 0, 551, 8, 0, 91, 0]<br/>class = Ponderosa Pine>, fillcolor="#5cea6d"] ;
231 -> 233 ;
234 [label=<1 &le; 275.0<br/>gini = 0.158<br/>samples = 1029<br/>value = [0, 32, 942, 0, 0, 55, 0]<br/>class = Ponderosa Pine>, fillcolor="#4be75d"] ;
218 -> 234 ;
235 [label=<1 &le; 158.5<br/>gini = 0.121<br/>samples = 1000<br/>value = [0, 14, 936, 0, 0, 50, 0]<br/>class = Ponderosa Pine>, fillcolor="#46e759"] ;
234 -> 235 ;
236 [label=<4 &le; 48.5<br/>gini = 0.424<br/>samples = 208<br/>value = [0, 13, 151, 0, 0, 44, 0]<br/>class = Ponderosa Pine>, fillcolor="#7eee8b"] ;
235 -> 236 ;
237 [label=<gini = 0.593<br/>samples = 103<br/>value = [0, 13, 52, 0, 0, 38, 0]<br/>class = Ponderosa Pine>, fillcolor="#d4f9d9"] ;
236 -> 237 ;
238 [label=<gini = 0.108<br/>samples = 105<br/>value = [0, 0, 99, 0, 0, 6, 0]<br/>class = Ponderosa Pine>, fillcolor="#45e758"] ;
236 -> 238 ;
239 [label=<5 &le; 106.0<br/>gini = 0.018<br/>samples = 792<br/>value = [0, 1, 785, 0, 0, 6, 0]<br/>class = Ponderosa Pine>, fillcolor="#3be54f"] ;
235 -> 239 ;
240 [label=<gini = 0.0<br/>samples = 2<br/>value = [0, 0, 0, 0, 0, 2, 0]<br/>class = Douglas-fir>, fillcolor="#b139e5"] ;
239 -> 240 ;
241 [label=<gini = 0.013<br/>samples = 790<br/>value = [0, 1, 785, 0, 0, 4, 0]<br/>class = Ponderosa Pine>, fillcolor="#3ae54e"] ;
239 -> 241 ;
242 [label=<5 &le; 686.0<br/>gini = 0.542<br/>samples = 29<br/>value = [0, 18, 6, 0, 0, 5, 0]<br/>class = Lodgepole Pine>, fillcolor="#d9f198"] ;
234 -> 242 ;
243 [label=<gini = 0.0<br/>samples = 16<br/>value = [0, 16, 0, 0, 0, 0, 0]<br/>class = Lodgepole Pine>, fillcolor="#b7e539"] ;
242 -> 243 ;
244 [label=<5 &le; 1015.0<br/>gini = 0.615<br/>samples = 13<br/>value = [0, 2, 6, 0, 0, 5, 0]<br/>class = Ponderosa Pine>, fillcolor="#e6fce9"] ;
242 -> 244 ;
245 [label=<gini = 0.245<br/>samples = 7<br/>value = [0, 0, 6, 0, 0, 1, 0]<br/>class = Ponderosa Pine>, fillcolor="#5ae96b"] ;
244 -> 245 ;
246 [label=<gini = 0.444<br/>samples = 6<br/>value = [0, 2, 0, 0, 0, 4, 0]<br/>class = Douglas-fir>, fillcolor="#d89cf2"] ;
244 -> 246 ;
247 [label=<9 &le; 1293.5<br/>gini = 0.479<br/>samples = 8231<br/>value = [0, 273, 5723, 1103, 0, 1132, 0]<br/>class = Ponderosa Pine>, fillcolor="#7fee8c"] ;
185 -> 247 ;
248 [label=<23 &le; 0.5<br/>gini = 0.411<br/>samples = 7092<br/>value = [0, 267, 5333, 732, 0, 760, 0]<br/>class = Ponderosa Pine>, fillcolor="#70ec7e"] ;
247 -> 248 ;
249 [label=<16 &le; 0.5<br/>gini = 0.354<br/>samples = 6494<br/>value = [0, 56, 5135, 708, 0, 595, 0]<br/>class = Ponderosa Pine>, fillcolor="#68eb77"] ;
248 -> 249 ;
250 [label=<5 &le; 1063.5<br/>gini = 0.284<br/>samples = 4617<br/>value = [0, 54, 3868, 171, 0, 524, 0]<br/>class = Ponderosa Pine>, fillcolor="#5dea6e"] ;
249 -> 250 ;
251 [label=<9 &le; 933.5<br/>gini = 0.229<br/>samples = 3888<br/>value = [0, 52, 3392, 67, 0, 377, 0]<br/>class = Ponderosa Pine>, fillcolor="#55e966"] ;
250 -> 251 ;
252 [label=<gini = 0.156<br/>samples = 2794<br/>value = [0, 31, 2562, 56, 0, 145, 0]<br/>class = Ponderosa Pine>, fillcolor="#4ae75d"] ;
251 -> 252 ;
253 [label=<gini = 0.379<br/>samples = 1094<br/>value = [0, 21, 830, 11, 0, 232, 0]<br/>class = Ponderosa Pine>, fillcolor="#76ed84"] ;
251 -> 253 ;
254 [label=<0 &le; 2328.5<br/>gini = 0.513<br/>samples = 729<br/>value = [0, 2, 476, 104, 0, 147, 0]<br/>class = Ponderosa Pine>, fillcolor="#8ff09a"] ;
250 -> 254 ;
255 [label=<gini = 0.66<br/>samples = 294<br/>value = [0, 0, 90, 86, 0, 118, 0]<br/>class = Douglas-fir>, fillcolor="#f4e4fb"] ;
254 -> 255 ;
256 [label=<gini = 0.206<br/>samples = 435<br/>value = [0, 2, 386, 18, 0, 29, 0]<br/>class = Ponderosa Pine>, fillcolor="#51e862"] ;
254 -> 256 ;
257 [label=<0 &le; 2300.5<br/>gini = 0.461<br/>samples = 1877<br/>value = [0, 2, 1267, 537, 0, 71, 0]<br/>class = Ponderosa Pine>, fillcolor="#93f19e"] ;
249 -> 257 ;
258 [label=<5 &le; 428.0<br/>gini = 0.512<br/>samples = 976<br/>value = [0, 0, 469, 495, 0, 12, 0]<br/>class = Cottonwood/Willow>, fillcolor="#f5fefe"] ;
257 -> 258 ;
259 [label=<gini = 0.188<br/>samples = 314<br/>value = [0, 0, 282, 21, 0, 11, 0]<br/>class = Ponderosa Pine>, fillcolor="#4fe860"] ;
258 -> 259 ;
260 [label=<gini = 0.408<br/>samples = 662<br/>value = [0, 0, 187, 474, 0, 1, 0]<br/>class = Cottonwood/Willow>, fillcolor="#87efed"] ;
258 -> 260 ;
261 [label=<4 &le; 178.0<br/>gini = 0.209<br/>samples = 901<br/>value = [0, 2, 798, 42, 0, 59, 0]<br/>class = Ponderosa Pine>, fillcolor="#51e863"] ;
257 -> 261 ;
262 [label=<gini = 0.177<br/>samples = 879<br/>value = [0, 2, 795, 23, 0, 59, 0]<br/>class = Ponderosa Pine>, fillcolor="#4de85f"] ;
261 -> 262 ;
263 [label=<gini = 0.236<br/>samples = 22<br/>value = [0, 0, 3, 19, 0, 0, 0]<br/>class = Cottonwood/Willow>, fillcolor="#58e9e7"] ;
261 -> 263 ;
264 [label=<5 &le; 897.5<br/>gini = 0.688<br/>samples = 598<br/>value = [0, 211, 198, 24, 0, 165, 0]<br/>class = Lodgepole Pine>, fillcolor="#fdfef9"] ;
248 -> 264 ;
265 [label=<0 &le; 2339.0<br/>gini = 0.644<br/>samples = 417<br/>value = [0, 202, 92, 11, 0, 112, 0]<br/>class = Lodgepole Pine>, fillcolor="#eaf7c5"] ;
264 -> 265 ;
266 [label=<3 &le; 191.5<br/>gini = 0.58<br/>samples = 88<br/>value = [0, 2, 50, 11, 0, 25, 0]<br/>class = Ponderosa Pine>, fillcolor="#b0f5b8"] ;
265 -> 266 ;
267 [label=<gini = 0.651<br/>samples = 60<br/>value = [0, 2, 23, 10, 0, 25, 0]<br/>class = Douglas-fir>, fillcolor="#fbf4fe"] ;
266 -> 267 ;
268 [label=<gini = 0.069<br/>samples = 28<br/>value = [0, 0, 27, 1, 0, 0, 0]<br/>class = Ponderosa Pine>, fillcolor="#40e654"] ;
266 -> 268 ;
269 [label=<9 &le; 892.0<br/>gini = 0.544<br/>samples = 329<br/>value = [0, 200, 42, 0, 0, 87, 0]<br/>class = Lodgepole Pine>, fillcolor="#ddf3a3"] ;
265 -> 269 ;
270 [label=<gini = 0.393<br/>samples = 260<br/>value = [0, 197, 21, 0, 0, 42, 0]<br/>class = Lodgepole Pine>, fillcolor="#cced72"] ;
269 -> 270 ;
271 [label=<gini = 0.48<br/>samples = 69<br/>value = [0, 3, 21, 0, 0, 45, 0]<br/>class = Douglas-fir>, fillcolor="#d89cf2"] ;
269 -> 271 ;
272 [label=<3 &le; 248.5<br/>gini = 0.564<br/>samples = 181<br/>value = [0, 9, 106, 13, 0, 53, 0]<br/>class = Ponderosa Pine>, fillcolor="#adf4b5"] ;
264 -> 272 ;
273 [label=<0 &le; 2225.0<br/>gini = 0.641<br/>samples = 129<br/>value = [0, 9, 54, 13, 0, 53, 0]<br/>class = Ponderosa Pine>, fillcolor="#fcfffd"] ;
272 -> 273 ;
274 [label=<gini = 0.0<br/>samples = 12<br/>value = [0, 0, 0, 12, 0, 0, 0]<br/>class = Cottonwood/Willow>, fillcolor="#39e5e2"] ;
273 -> 274 ;
275 [label=<gini = 0.576<br/>samples = 117<br/>value = [0, 9, 54, 1, 0, 53, 0]<br/>class = Ponderosa Pine>, fillcolor="#fcfffc"] ;
273 -> 275 ;
276 [label=<gini = 0.0<br/>samples = 52<br/>value = [0, 0, 52, 0, 0, 0, 0]<br/>class = Ponderosa Pine>, fillcolor="#39e54d"] ;
272 -> 276 ;
277 [label=<16 &le; 0.5<br/>gini = 0.67<br/>samples = 1139<br/>value = [0, 6, 390, 371, 0, 372, 0]<br/>class = Ponderosa Pine>, fillcolor="#fafefb"] ;
247 -> 277 ;
278 [label=<13 &le; 0.5<br/>gini = 0.59<br/>samples = 851<br/>value = [0, 5, 389, 85, 0, 372, 0]<br/>class = Ponderosa Pine>, fillcolor="#f8fef9"] ;
277 -> 278 ;
279 [label=<5 &le; 1355.0<br/>gini = 0.11<br/>samples = 174<br/>value = [0, 5, 164, 0, 0, 5, 0]<br/>class = Ponderosa Pine>, fillcolor="#45e758"] ;
278 -> 279 ;
280 [label=<9 &le; 1651.0<br/>gini = 0.047<br/>samples = 168<br/>value = [0, 1, 164, 0, 0, 3, 0]<br/>class = Ponderosa Pine>, fillcolor="#3ee651"] ;
279 -> 280 ;
281 [label=<gini = 0.024<br/>samples = 166<br/>value = [0, 1, 164, 0, 0, 1, 0]<br/>class = Ponderosa Pine>, fillcolor="#3be54f"] ;
280 -> 281 ;
282 [label=<gini = 0.0<br/>samples = 2<br/>value = [0, 0, 0, 0, 0, 2, 0]<br/>class = Douglas-fir>, fillcolor="#b139e5"] ;
280 -> 282 ;
283 [label=<4 &le; 1.5<br/>gini = 0.444<br/>samples = 6<br/>value = [0, 4, 0, 0, 0, 2, 0]<br/>class = Lodgepole Pine>, fillcolor="#dbf29c"] ;
279 -> 283 ;
284 [label=<gini = 0.0<br/>samples = 2<br/>value = [0, 0, 0, 0, 0, 2, 0]<br/>class = Douglas-fir>, fillcolor="#b139e5"] ;
283 -> 284 ;
285 [label=<gini = 0.0<br/>samples = 4<br/>value = [0, 4, 0, 0, 0, 0, 0]<br/>class = Lodgepole Pine>, fillcolor="#b7e539"] ;
283 -> 285 ;
286 [label=<9 &le; 1506.5<br/>gini = 0.58<br/>samples = 677<br/>value = [0, 0, 225, 85, 0, 367, 0]<br/>class = Douglas-fir>, fillcolor="#e6c1f7"] ;
278 -> 286 ;
287 [label=<4 &le; 142.5<br/>gini = 0.452<br/>samples = 513<br/>value = [0, 0, 126, 30, 0, 357, 0]<br/>class = Douglas-fir>, fillcolor="#d089ef"] ;
286 -> 287 ;
288 [label=<gini = 0.397<br/>samples = 485<br/>value = [0, 0, 120, 8, 0, 357, 0]<br/>class = Douglas-fir>, fillcolor="#cc7eee"] ;
287 -> 288 ;
289 [label=<gini = 0.337<br/>samples = 28<br/>value = [0, 0, 6, 22, 0, 0, 0]<br/>class = Cottonwood/Willow>, fillcolor="#6fecea"] ;
287 -> 289 ;
290 [label=<0 &le; 2412.5<br/>gini = 0.519<br/>samples = 164<br/>value = [0, 0, 99, 55, 0, 10, 0]<br/>class = Ponderosa Pine>, fillcolor="#aff5b7"] ;
286 -> 290 ;
291 [label=<gini = 0.359<br/>samples = 70<br/>value = [0, 0, 6, 55, 0, 9, 0]<br/>class = Cottonwood/Willow>, fillcolor="#6aebe9"] ;
290 -> 291 ;
292 [label=<gini = 0.021<br/>samples = 94<br/>value = [0, 0, 93, 0, 0, 1, 0]<br/>class = Ponderosa Pine>, fillcolor="#3be54f"] ;
290 -> 292 ;
293 [label=<12 &le; 0.5<br/>gini = 0.014<br/>samples = 288<br/>value = [0, 1, 1, 286, 0, 0, 0]<br/>class = Cottonwood/Willow>, fillcolor="#3ae5e2"] ;
277 -> 293 ;
294 [label=<1 &le; 77.5<br/>gini = 0.007<br/>samples = 287<br/>value = [0, 0, 1, 286, 0, 0, 0]<br/>class = Cottonwood/Willow>, fillcolor="#3ae5e2"] ;
293 -> 294 ;
295 [label=<6 &le; 240.0<br/>gini = 0.375<br/>samples = 4<br/>value = [0, 0, 1, 3, 0, 0, 0]<br/>class = Cottonwood/Willow>, fillcolor="#7beeec"] ;
294 -> 295 ;
296 [label=<gini = 0.0<br/>samples = 3<br/>value = [0, 0, 0, 3, 0, 0, 0]<br/>class = Cottonwood/Willow>, fillcolor="#39e5e2"] ;
295 -> 296 ;
297 [label=<gini = 0.0<br/>samples = 1<br/>value = [0, 0, 1, 0, 0, 0, 0]<br/>class = Ponderosa Pine>, fillcolor="#39e54d"] ;
295 -> 297 ;
298 [label=<gini = 0.0<br/>samples = 283<br/>value = [0, 0, 0, 283, 0, 0, 0]<br/>class = Cottonwood/Willow>, fillcolor="#39e5e2"] ;
294 -> 298 ;
299 [label=<gini = 0.0<br/>samples = 1<br/>value = [0, 1, 0, 0, 0, 0, 0]<br/>class = Lodgepole Pine>, fillcolor="#b7e539"] ;
293 -> 299 ;
300 [label=<9 &le; 5118.0<br/>gini = 0.333<br/>samples = 525<br/>value = [0, 414, 0, 0, 111, 0, 0]<br/>class = Lodgepole Pine>, fillcolor="#caec6e"] ;
184 -> 300 ;
301 [label=<3 &le; 300.5<br/>gini = 0.093<br/>samples = 428<br/>value = [0, 407, 0, 0, 21, 0, 0]<br/>class = Lodgepole Pine>, fillcolor="#bbe643"] ;
300 -> 301 ;
302 [label=<gini = 0.0<br/>samples = 317<br/>value = [0, 317, 0, 0, 0, 0, 0]<br/>class = Lodgepole Pine>, fillcolor="#b7e539"] ;
301 -> 302 ;
303 [label=<9 &le; 3766.5<br/>gini = 0.307<br/>samples = 111<br/>value = [0, 90, 0, 0, 21, 0, 0]<br/>class = Lodgepole Pine>, fillcolor="#c8eb67"] ;
301 -> 303 ;
304 [label=<4 &le; 30.5<br/>gini = 0.491<br/>samples = 37<br/>value = [0, 16, 0, 0, 21, 0, 0]<br/>class = Aspen>, fillcolor="#d0d7f9"] ;
303 -> 304 ;
305 [label=<3 &le; 405.0<br/>gini = 0.32<br/>samples = 25<br/>value = [0, 5, 0, 0, 20, 0, 0]<br/>class = Aspen>, fillcolor="#6a80ec"] ;
304 -> 305 ;
306 [label=<9 &le; 3573.5<br/>gini = 0.227<br/>samples = 23<br/>value = [0, 3, 0, 0, 20, 0, 0]<br/>class = Aspen>, fillcolor="#576fe9"] ;
305 -> 306 ;
307 [label=<gini = 0.0<br/>samples = 2<br/>value = [0, 2, 0, 0, 0, 0, 0]<br/>class = Lodgepole Pine>, fillcolor="#b7e539"] ;
306 -> 307 ;
308 [label=<gini = 0.091<br/>samples = 21<br/>value = [0, 1, 0, 0, 20, 0, 0]<br/>class = Aspen>, fillcolor="#435ee6"] ;
306 -> 308 ;
309 [label=<gini = 0.0<br/>samples = 2<br/>value = [0, 2, 0, 0, 0, 0, 0]<br/>class = Lodgepole Pine>, fillcolor="#b7e539"] ;
305 -> 309 ;
310 [label=<2 &le; 2.0<br/>gini = 0.153<br/>samples = 12<br/>value = [0, 11, 0, 0, 1, 0, 0]<br/>class = Lodgepole Pine>, fillcolor="#bee74b"] ;
304 -> 310 ;
311 [label=<gini = 0.0<br/>samples = 1<br/>value = [0, 0, 0, 0, 1, 0, 0]<br/>class = Aspen>, fillcolor="#3956e5"] ;
310 -> 311 ;
312 [label=<gini = 0.0<br/>samples = 11<br/>value = [0, 11, 0, 0, 0, 0, 0]<br/>class = Lodgepole Pine>, fillcolor="#b7e539"] ;
310 -> 312 ;
313 [label=<gini = 0.0<br/>samples = 74<br/>value = [0, 74, 0, 0, 0, 0, 0]<br/>class = Lodgepole Pine>, fillcolor="#b7e539"] ;
303 -> 313 ;
314 [label=<5 &le; 621.0<br/>gini = 0.134<br/>samples = 97<br/>value = [0, 7, 0, 0, 90, 0, 0]<br/>class = Aspen>, fillcolor="#4863e7"] ;
300 -> 314 ;
315 [label=<2 &le; 9.5<br/>gini = 0.219<br/>samples = 8<br/>value = [0, 7, 0, 0, 1, 0, 0]<br/>class = Lodgepole Pine>, fillcolor="#c1e955"] ;
314 -> 315 ;
316 [label=<gini = 0.0<br/>samples = 7<br/>value = [0, 7, 0, 0, 0, 0, 0]<br/>class = Lodgepole Pine>, fillcolor="#b7e539"] ;
315 -> 316 ;
317 [label=<gini = 0.0<br/>samples = 1<br/>value = [0, 0, 0, 0, 1, 0, 0]<br/>class = Aspen>, fillcolor="#3956e5"] ;
315 -> 317 ;
318 [label=<gini = 0.0<br/>samples = 89<br/>value = [0, 0, 0, 0, 89, 0, 0]<br/>class = Aspen>, fillcolor="#3956e5"] ;
314 -> 318 ;
319 [label=<17 &le; 0.5<br/>gini = 0.446<br/>samples = 294114<br/>value = [57586, 210552, 11171, 3, 9368, 5350, 84]<br/>class = Lodgepole Pine>, fillcolor="#d0ee7f"] ;
1 -> 319 ;
320 [label=<15 &le; 0.5<br/>gini = 0.429<br/>samples = 285070<br/>value = [57404, 207369, 6457, 3, 8783, 5048, 6]<br/>class = Lodgepole Pine>, fillcolor="#d0ee7d"] ;
319 -> 320 ;
321 [label=<0 &le; 2942.5<br/>gini = 0.415<br/>samples = 280725<br/>value = [57404, 206627, 3576, 3, 8519, 4590, 6]<br/>class = Lodgepole Pine>, fillcolor="#cfee7b"] ;
320 -> 321 ;
322 [label=<10 &le; 0.5<br/>gini = 0.381<br/>samples = 181122<br/>value = [24709, 140000, 3576, 3, 8238, 4590, 6]<br/>class = Lodgepole Pine>, fillcolor="#caec6d"] ;
321 -> 322 ;
323 [label=<0 &le; 2638.5<br/>gini = 0.48<br/>samples = 85801<br/>value = [12870, 60050, 3576, 3, 4706, 4590, 6]<br/>class = Lodgepole Pine>, fillcolor="#d0ee7f"] ;
322 -> 323 ;
324 [label=<9 &le; 2619.5<br/>gini = 0.614<br/>samples = 13942<br/>value = [732, 7814, 2387, 3, 231, 2775, 0]<br/>class = Lodgepole Pine>, fillcolor="#dff3a6"] ;
323 -> 324 ;
325 [label=<24 &le; 0.5<br/>gini = 0.595<br/>samples = 13306<br/>value = [389, 7671, 2385, 3, 230, 2628, 0]<br/>class = Lodgepole Pine>, fillcolor="#ddf3a1"] ;
324 -> 325 ;
326 [label=<16 &le; 0.5<br/>gini = 0.628<br/>samples = 10059<br/>value = [296, 5286, 1876, 3, 144, 2454, 0]<br/>class = Lodgepole Pine>, fillcolor="#e4f5b5"] ;
325 -> 326 ;
327 [label=<gini = 0.623<br/>samples = 8887<br/>value = [296, 4684, 1311, 3, 144, 2449, 0]<br/>class = Lodgepole Pine>, fillcolor="#e6f6ba"] ;
326 -> 327 ;
328 [label=<gini = 0.504<br/>samples = 1172<br/>value = [0, 602, 565, 0, 0, 5, 0]<br/>class = Lodgepole Pine>, fillcolor="#fbfdf3"] ;
326 -> 328 ;
329 [label=<3 &le; 373.5<br/>gini = 0.432<br/>samples = 3247<br/>value = [93, 2385, 509, 0, 86, 174, 0]<br/>class = Lodgepole Pine>, fillcolor="#ceed77"] ;
325 -> 329 ;
330 [label=<gini = 0.359<br/>samples = 2893<br/>value = [93, 2290, 286, 0, 60, 164, 0]<br/>class = Lodgepole Pine>, fillcolor="#c8eb67"] ;
329 -> 330 ;
331 [label=<gini = 0.525<br/>samples = 354<br/>value = [0, 95, 223, 0, 26, 10, 0]<br/>class = Ponderosa Pine>, fillcolor="#9df2a7"] ;
329 -> 331 ;
332 [label=<5 &le; 2621.5<br/>gini = 0.605<br/>samples = 636<br/>value = [343, 143, 2, 0, 1, 147, 0]<br/>class = Spruce-Fir>, fillcolor="#f5ccb0"] ;
324 -> 332 ;
333 [label=<24 &le; 0.5<br/>gini = 0.505<br/>samples = 256<br/>value = [2, 104, 2, 0, 1, 147, 0]<br/>class = Douglas-fir>, fillcolor="#e9c7f8"] ;
332 -> 333 ;
334 [label=<gini = 0.278<br/>samples = 172<br/>value = [0, 25, 2, 0, 1, 144, 0]<br/>class = Douglas-fir>, fillcolor="#c05fea"] ;
333 -> 334 ;
335 [label=<gini = 0.114<br/>samples = 84<br/>value = [2, 79, 0, 0, 0, 3, 0]<br/>class = Lodgepole Pine>, fillcolor="#bbe745"] ;
333 -> 335 ;
336 [label=<6 &le; 206.5<br/>gini = 0.184<br/>samples = 380<br/>value = [341, 39, 0, 0, 0, 0, 0]<br/>class = Spruce-Fir>, fillcolor="#e88f50"] ;
332 -> 336 ;
337 [label=<gini = 0.074<br/>samples = 26<br/>value = [1, 25, 0, 0, 0, 0, 0]<br/>class = Lodgepole Pine>, fillcolor="#bae641"] ;
336 -> 337 ;
338 [label=<gini = 0.076<br/>samples = 354<br/>value = [340, 14, 0, 0, 0, 0, 0]<br/>class = Spruce-Fir>, fillcolor="#e68641"] ;
336 -> 338 ;
339 [label=<36 &le; 0.5<br/>gini = 0.438<br/>samples = 71859<br/>value = [12138, 52236, 1189, 0, 4475, 1815, 6]<br/>class = Lodgepole Pine>, fillcolor="#cfee7a"] ;
323 -> 339 ;
340 [label=<35 &le; 0.5<br/>gini = 0.417<br/>samples = 67764<br/>value = [10217, 50521, 1189, 0, 4045, 1786, 6]<br/>class = Lodgepole Pine>, fillcolor="#cded74"] ;
339 -> 340 ;
341 [label=<33 &le; 0.5<br/>gini = 0.408<br/>samples = 66891<br/>value = [9477, 50388, 1189, 0, 4045, 1786, 6]<br/>class = Lodgepole Pine>, fillcolor="#ccec72"] ;
340 -> 341 ;
342 [label=<gini = 0.398<br/>samples = 65654<br/>value = [8726, 49971, 1189, 0, 4022, 1740, 6]<br/>class = Lodgepole Pine>, fillcolor="#cbec70"] ;
341 -> 342 ;
343 [label=<gini = 0.516<br/>samples = 1237<br/>value = [751, 417, 0, 0, 23, 46, 0]<br/>class = Spruce-Fir>, fillcolor="#f4ccae"] ;
341 -> 343 ;
344 [label=<5 &le; 1868.0<br/>gini = 0.258<br/>samples = 873<br/>value = [740, 133, 0, 0, 0, 0, 0]<br/>class = Spruce-Fir>, fillcolor="#ea985d"] ;
340 -> 344 ;
345 [label=<gini = 0.464<br/>samples = 172<br/>value = [63, 109, 0, 0, 0, 0, 0]<br/>class = Lodgepole Pine>, fillcolor="#e1f4ab"] ;
344 -> 345 ;
346 [label=<gini = 0.066<br/>samples = 701<br/>value = [677, 24, 0, 0, 0, 0, 0]<br/>class = Spruce-Fir>, fillcolor="#e68540"] ;
344 -> 346 ;
347 [label=<0 &le; 2879.5<br/>gini = 0.593<br/>samples = 4095<br/>value = [1921, 1715, 0, 0, 430, 29, 0]<br/>class = Spruce-Fir>, fillcolor="#fdf4ee"] ;
339 -> 347 ;
348 [label=<0 &le; 2682.5<br/>gini = 0.585<br/>samples = 2610<br/>value = [1414, 851, 0, 0, 316, 29, 0]<br/>class = Spruce-Fir>, fillcolor="#f7d7c0"] ;
347 -> 348 ;
349 [label=<gini = 0.434<br/>samples = 104<br/>value = [3, 73, 0, 0, 28, 0, 0]<br/>class = Lodgepole Pine>, fillcolor="#d4f08a"] ;
348 -> 349 ;
350 [label=<gini = 0.573<br/>samples = 2506<br/>value = [1411, 778, 0, 0, 288, 29, 0]<br/>class = Spruce-Fir>, fillcolor="#f5d1b6"] ;
348 -> 350 ;
351 [label=<5 &le; 1797.5<br/>gini = 0.539<br/>samples = 1485<br/>value = [507, 864, 0, 0, 114, 0, 0]<br/>class = Lodgepole Pine>, fillcolor="#e5f6b7"] ;
347 -> 351 ;
352 [label=<gini = 0.284<br/>samples = 703<br/>value = [92, 587, 0, 0, 24, 0, 0]<br/>class = Lodgepole Pine>, fillcolor="#c5ea5f"] ;
351 -> 352 ;
353 [label=<gini = 0.58<br/>samples = 782<br/>value = [415, 277, 0, 0, 90, 0, 0]<br/>class = Spruce-Fir>, fillcolor="#f8ddc9"] ;
351 -> 353 ;
354 [label=<5 &le; 360.5<br/>gini = 0.28<br/>samples = 95321<br/>value = [11839, 79950, 0, 0, 3532, 0, 0]<br/>class = Lodgepole Pine>, fillcolor="#c4ea5d"] ;
322 -> 354 ;
355 [label=<0 &le; 2661.5<br/>gini = 0.628<br/>samples = 6363<br/>value = [1518, 3133, 0, 0, 1712, 0, 0]<br/>class = Lodgepole Pine>, fillcolor="#e9f7c3"] ;
354 -> 355 ;
356 [label=<8 &le; 73.5<br/>gini = 0.058<br/>samples = 1441<br/>value = [20, 1398, 0, 0, 23, 0, 0]<br/>class = Lodgepole Pine>, fillcolor="#b9e63f"] ;
355 -> 356 ;
357 [label=<7 &le; 208.0<br/>gini = 0.124<br/>samples = 15<br/>value = [0, 1, 0, 0, 14, 0, 0]<br/>class = Aspen>, fillcolor="#4762e7"] ;
356 -> 357 ;
358 [label=<gini = 0.0<br/>samples = 14<br/>value = [0, 0, 0, 0, 14, 0, 0]<br/>class = Aspen>, fillcolor="#3956e5"] ;
357 -> 358 ;
359 [label=<gini = 0.0<br/>samples = 1<br/>value = [0, 1, 0, 0, 0, 0, 0]<br/>class = Lodgepole Pine>, fillcolor="#b7e539"] ;
357 -> 359 ;
360 [label=<9 &le; 6126.0<br/>gini = 0.04<br/>samples = 1426<br/>value = [20, 1397, 0, 0, 9, 0, 0]<br/>class = Lodgepole Pine>, fillcolor="#b8e63d"] ;
356 -> 360 ;
361 [label=<gini = 0.028<br/>samples = 1416<br/>value = [20, 1396, 0, 0, 0, 0, 0]<br/>class = Lodgepole Pine>, fillcolor="#b8e53c"] ;
360 -> 361 ;
362 [label=<gini = 0.18<br/>samples = 10<br/>value = [0, 1, 0, 0, 9, 0, 0]<br/>class = Aspen>, fillcolor="#4f69e8"] ;
360 -> 362 ;
363 [label=<0 &le; 2827.5<br/>gini = 0.665<br/>samples = 4922<br/>value = [1498, 1735, 0, 0, 1689, 0, 0]<br/>class = Lodgepole Pine>, fillcolor="#fefffc"] ;
355 -> 363 ;
364 [label=<6 &le; 218.5<br/>gini = 0.53<br/>samples = 2590<br/>value = [253, 747, 0, 0, 1590, 0, 0]<br/>class = Aspen>, fillcolor="#a4b2f3"] ;
363 -> 364 ;
365 [label=<gini = 0.523<br/>samples = 508<br/>value = [158, 311, 0, 0, 39, 0, 0]<br/>class = Lodgepole Pine>, fillcolor="#e0f4a8"] ;
364 -> 365 ;
366 [label=<gini = 0.399<br/>samples = 2082<br/>value = [95, 436, 0, 0, 1551, 0, 0]<br/>class = Aspen>, fillcolor="#798ded"] ;
364 -> 366 ;
367 [label=<4 &le; 51.5<br/>gini = 0.534<br/>samples = 2332<br/>value = [1245, 988, 0, 0, 99, 0, 0]<br/>class = Spruce-Fir>, fillcolor="#fae7d9"] ;
363 -> 367 ;
368 [label=<gini = 0.442<br/>samples = 1120<br/>value = [774, 316, 0, 0, 30, 0, 0]<br/>class = Spruce-Fir>, fillcolor="#f0b78e"] ;
367 -> 368 ;
369 [label=<gini = 0.538<br/>samples = 1212<br/>value = [471, 672, 0, 0, 69, 0, 0]<br/>class = Lodgepole Pine>, fillcolor="#ebf8c9"] ;
367 -> 369 ;
370 [label=<3 &le; 87.5<br/>gini = 0.24<br/>samples = 88958<br/>value = [10321, 76817, 0, 0, 1820, 0, 0]<br/>class = Lodgepole Pine>, fillcolor="#c2e958"] ;
354 -> 370 ;
371 [label=<0 &le; 2684.5<br/>gini = 0.349<br/>samples = 25125<br/>value = [4849, 19670, 0, 0, 606, 0, 0]<br/>class = Lodgepole Pine>, fillcolor="#caec6e"] ;
370 -> 371 ;
372 [label=<22 &le; 0.5<br/>gini = 0.089<br/>samples = 5068<br/>value = [140, 4833, 0, 0, 95, 0, 0]<br/>class = Lodgepole Pine>, fillcolor="#bae642"] ;
371 -> 372 ;
373 [label=<gini = 0.068<br/>samples = 4790<br/>value = [73, 4622, 0, 0, 95, 0, 0]<br/>class = Lodgepole Pine>, fillcolor="#bae640"] ;
372 -> 373 ;
374 [label=<gini = 0.366<br/>samples = 278<br/>value = [67, 211, 0, 0, 0, 0, 0]<br/>class = Lodgepole Pine>, fillcolor="#ceed78"] ;
372 -> 374 ;
375 [label=<5 &le; 1210.0<br/>gini = 0.397<br/>samples = 20057<br/>value = [4709, 14837, 0, 0, 511, 0, 0]<br/>class = Lodgepole Pine>, fillcolor="#cfee7c"] ;
371 -> 375 ;
376 [label=<gini = 0.556<br/>samples = 1908<br/>value = [851, 937, 0, 0, 120, 0, 0]<br/>class = Lodgepole Pine>, fillcolor="#f9fdef"] ;
375 -> 376 ;
377 [label=<gini = 0.368<br/>samples = 18149<br/>value = [3858, 13900, 0, 0, 391, 0, 0]<br/>class = Lodgepole Pine>, fillcolor="#cced74"] ;
375 -> 377 ;
378 [label=<9 &le; 5435.5<br/>gini = 0.191<br/>samples = 63833<br/>value = [5472, 57147, 0, 0, 1214, 0, 0]<br/>class = Lodgepole Pine>, fillcolor="#bfe850"] ;
370 -> 378 ;
379 [label=<0 &le; 2705.5<br/>gini = 0.165<br/>samples = 55620<br/>value = [3883, 50675, 0, 0, 1062, 0, 0]<br/>class = Lodgepole Pine>, fillcolor="#bee74c"] ;
378 -> 379 ;
380 [label=<gini = 0.035<br/>samples = 12082<br/>value = [167, 11869, 0, 0, 46, 0, 0]<br/>class = Lodgepole Pine>, fillcolor="#b8e53d"] ;
379 -> 380 ;
381 [label=<gini = 0.198<br/>samples = 43538<br/>value = [3716, 38806, 0, 0, 1016, 0, 0]<br/>class = Lodgepole Pine>, fillcolor="#c0e851"] ;
379 -> 381 ;
382 [label=<4 &le; 64.5<br/>gini = 0.341<br/>samples = 8213<br/>value = [1589, 6472, 0, 0, 152, 0, 0]<br/>class = Lodgepole Pine>, fillcolor="#caec6d"] ;
378 -> 382 ;
383 [label=<gini = 0.248<br/>samples = 7019<br/>value = [862, 6026, 0, 0, 131, 0, 0]<br/>class = Lodgepole Pine>, fillcolor="#c3e959"] ;
382 -> 383 ;
384 [label=<gini = 0.489<br/>samples = 1194<br/>value = [727, 446, 0, 0, 21, 0, 0]<br/>class = Spruce-Fir>, fillcolor="#f5d0b5"] ;
382 -> 384 ;
385 [label=<3 &le; 125.5<br/>gini = 0.445<br/>samples = 99603<br/>value = [32695, 66627, 0, 0, 281, 0, 0]<br/>class = Lodgepole Pine>, fillcolor="#daf29b"] ;
321 -> 385 ;
386 [label=<36 &le; 0.5<br/>gini = 0.503<br/>samples = 26117<br/>value = [13344, 12680, 0, 0, 93, 0, 0]<br/>class = Spruce-Fir>, fillcolor="#fef9f5"] ;
385 -> 386 ;
387 [label=<35 &le; 0.5<br/>gini = 0.5<br/>samples = 20063<br/>value = [9263, 10753, 0, 0, 47, 0, 0]<br/>class = Lodgepole Pine>, fillcolor="#f5fbe4"] ;
386 -> 387 ;
388 [label=<7 &le; 221.5<br/>gini = 0.491<br/>samples = 18157<br/>value = [7702, 10408, 0, 0, 47, 0, 0]<br/>class = Lodgepole Pine>, fillcolor="#ecf8cc"] ;
387 -> 388 ;
389 [label=<5 &le; 390.5<br/>gini = 0.499<br/>samples = 6907<br/>value = [3632, 3273, 0, 0, 2, 0, 0]<br/>class = Spruce-Fir>, fillcolor="#fcf3eb"] ;
388 -> 389 ;
390 [label=<gini = 0.106<br/>samples = 355<br/>value = [20, 335, 0, 0, 0, 0, 0]<br/>class = Lodgepole Pine>, fillcolor="#bbe745"] ;
389 -> 390 ;
391 [label=<gini = 0.495<br/>samples = 6552<br/>value = [3612, 2938, 0, 0, 2, 0, 0]<br/>class = Spruce-Fir>, fillcolor="#fae8da"] ;
389 -> 391 ;
392 [label=<5 &le; 1668.5<br/>gini = 0.467<br/>samples = 11250<br/>value = [4070, 7135, 0, 0, 45, 0, 0]<br/>class = Lodgepole Pine>, fillcolor="#e0f4aa"] ;
388 -> 392 ;
393 [label=<gini = 0.358<br/>samples = 2814<br/>value = [638, 2163, 0, 0, 13, 0, 0]<br/>class = Lodgepole Pine>, fillcolor="#cded74"] ;
392 -> 393 ;
394 [label=<gini = 0.487<br/>samples = 8436<br/>value = [3432, 4972, 0, 0, 32, 0, 0]<br/>class = Lodgepole Pine>, fillcolor="#e9f7c2"] ;
392 -> 394 ;
395 [label=<5 &le; 1616.0<br/>gini = 0.296<br/>samples = 1906<br/>value = [1561, 345, 0, 0, 0, 0, 0]<br/>class = Spruce-Fir>, fillcolor="#eb9d65"] ;
387 -> 395 ;
396 [label=<5 &le; 624.0<br/>gini = 0.424<br/>samples = 905<br/>value = [629, 276, 0, 0, 0, 0, 0]<br/>class = Spruce-Fir>, fillcolor="#f0b890"] ;
395 -> 396 ;
397 [label=<gini = 0.212<br/>samples = 439<br/>value = [386, 53, 0, 0, 0, 0, 0]<br/>class = Spruce-Fir>, fillcolor="#e99254"] ;
396 -> 397 ;
398 [label=<gini = 0.499<br/>samples = 466<br/>value = [243, 223, 0, 0, 0, 0, 0]<br/>class = Spruce-Fir>, fillcolor="#fdf5ef"] ;
396 -> 398 ;
399 [label=<9 &le; 1059.0<br/>gini = 0.128<br/>samples = 1001<br/>value = [932, 69, 0, 0, 0, 0, 0]<br/>class = Spruce-Fir>, fillcolor="#e78a48"] ;
395 -> 399 ;
400 [label=<gini = 0.325<br/>samples = 240<br/>value = [191, 49, 0, 0, 0, 0, 0]<br/>class = Spruce-Fir>, fillcolor="#eca16c"] ;
399 -> 400 ;
401 [label=<gini = 0.051<br/>samples = 761<br/>value = [741, 20, 0, 0, 0, 0, 0]<br/>class = Spruce-Fir>, fillcolor="#e6843e"] ;
399 -> 401 ;
402 [label=<5 &le; 1698.5<br/>gini = 0.444<br/>samples = 6054<br/>value = [4081, 1927, 0, 0, 46, 0, 0]<br/>class = Spruce-Fir>, fillcolor="#f1bd98"] ;
386 -> 402 ;
403 [label=<5 &le; 474.5<br/>gini = 0.499<br/>samples = 2181<br/>value = [1036, 1145, 0, 0, 0, 0, 0]<br/>class = Lodgepole Pine>, fillcolor="#f8fdec"] ;
402 -> 403 ;
404 [label=<0 &le; 3039.5<br/>gini = 0.069<br/>samples = 253<br/>value = [244, 9, 0, 0, 0, 0, 0]<br/>class = Spruce-Fir>, fillcolor="#e68640"] ;
403 -> 404 ;
405 [label=<gini = 0.017<br/>samples = 234<br/>value = [232, 2, 0, 0, 0, 0, 0]<br/>class = Spruce-Fir>, fillcolor="#e5823b"] ;
404 -> 405 ;
406 [label=<gini = 0.465<br/>samples = 19<br/>value = [12, 7, 0, 0, 0, 0, 0]<br/>class = Spruce-Fir>, fillcolor="#f4caac"] ;
404 -> 406 ;
407 [label=<9 &le; 2455.5<br/>gini = 0.484<br/>samples = 1928<br/>value = [792, 1136, 0, 0, 0, 0, 0]<br/>class = Lodgepole Pine>, fillcolor="#e9f7c3"] ;
403 -> 407 ;
408 [label=<gini = 0.449<br/>samples = 1721<br/>value = [585, 1136, 0, 0, 0, 0, 0]<br/>class = Lodgepole Pine>, fillcolor="#dcf29f"] ;
407 -> 408 ;
409 [label=<gini = 0.0<br/>samples = 207<br/>value = [207, 0, 0, 0, 0, 0, 0]<br/>class = Spruce-Fir>, fillcolor="#e58139"] ;
407 -> 409 ;
410 [label=<9 &le; 2422.5<br/>gini = 0.341<br/>samples = 3873<br/>value = [3045, 782, 0, 0, 46, 0, 0]<br/>class = Spruce-Fir>, fillcolor="#eca36e"] ;
402 -> 410 ;
411 [label=<9 &le; 870.5<br/>gini = 0.403<br/>samples = 2595<br/>value = [1895, 654, 0, 0, 46, 0, 0]<br/>class = Spruce-Fir>, fillcolor="#eeae80"] ;
410 -> 411 ;
412 [label=<gini = 0.048<br/>samples = 364<br/>value = [355, 9, 0, 0, 0, 0, 0]<br/>class = Spruce-Fir>, fillcolor="#e6843e"] ;
411 -> 412 ;
413 [label=<gini = 0.44<br/>samples = 2231<br/>value = [1540, 645, 0, 0, 46, 0, 0]<br/>class = Spruce-Fir>, fillcolor="#f0b88f"] ;
411 -> 413 ;
414 [label=<0 &le; 2958.5<br/>gini = 0.18<br/>samples = 1278<br/>value = [1150, 128, 0, 0, 0, 0, 0]<br/>class = Spruce-Fir>, fillcolor="#e88f4f"] ;
410 -> 414 ;
415 [label=<gini = 0.499<br/>samples = 118<br/>value = [62, 56, 0, 0, 0, 0, 0]<br/>class = Spruce-Fir>, fillcolor="#fcf3ec"] ;
414 -> 415 ;
416 [label=<gini = 0.116<br/>samples = 1160<br/>value = [1088, 72, 0, 0, 0, 0, 0]<br/>class = Spruce-Fir>, fillcolor="#e78946"] ;
414 -> 416 ;
417 [label=<7 &le; 209.5<br/>gini = 0.392<br/>samples = 73486<br/>value = [19351, 53947, 0, 0, 188, 0, 0]<br/>class = Lodgepole Pine>, fillcolor="#d1ee80"] ;
385 -> 417 ;
418 [label=<3 &le; 538.5<br/>gini = 0.497<br/>samples = 13004<br/>value = [5703, 7252, 0, 0, 49, 0, 0]<br/>class = Lodgepole Pine>, fillcolor="#f0f9d5"] ;
417 -> 418 ;
419 [label=<5 &le; 5204.0<br/>gini = 0.504<br/>samples = 10642<br/>value = [5165, 5428, 0, 0, 49, 0, 0]<br/>class = Lodgepole Pine>, fillcolor="#fcfef5"] ;
418 -> 419 ;
420 [label=<9 &le; 3173.5<br/>gini = 0.505<br/>samples = 10057<br/>value = [5114, 4894, 0, 0, 49, 0, 0]<br/>class = Spruce-Fir>, fillcolor="#fefaf7"] ;
419 -> 420 ;
421 [label=<gini = 0.504<br/>samples = 8487<br/>value = [3960, 4478, 0, 0, 49, 0, 0]<br/>class = Lodgepole Pine>, fillcolor="#f7fce8"] ;
420 -> 421 ;
422 [label=<gini = 0.39<br/>samples = 1570<br/>value = [1154, 416, 0, 0, 0, 0, 0]<br/>class = Spruce-Fir>, fillcolor="#eeae80"] ;
420 -> 422 ;
423 [label=<4 &le; 50.5<br/>gini = 0.159<br/>samples = 585<br/>value = [51, 534, 0, 0, 0, 0, 0]<br/>class = Lodgepole Pine>, fillcolor="#bee74c"] ;
419 -> 423 ;
424 [label=<gini = 0.402<br/>samples = 176<br/>value = [49, 127, 0, 0, 0, 0, 0]<br/>class = Lodgepole Pine>, fillcolor="#d3ef85"] ;
423 -> 424 ;
425 [label=<gini = 0.01<br/>samples = 409<br/>value = [2, 407, 0, 0, 0, 0, 0]<br/>class = Lodgepole Pine>, fillcolor="#b7e53a"] ;
423 -> 425 ;
426 [label=<5 &le; 2225.5<br/>gini = 0.352<br/>samples = 2362<br/>value = [538, 1824, 0, 0, 0, 0, 0]<br/>class = Lodgepole Pine>, fillcolor="#cced73"] ;
418 -> 426 ;
427 [label=<37 &le; 0.5<br/>gini = 0.452<br/>samples = 1341<br/>value = [463, 878, 0, 0, 0, 0, 0]<br/>class = Lodgepole Pine>, fillcolor="#ddf3a1"] ;
426 -> 427 ;
428 [label=<gini = 0.386<br/>samples = 1188<br/>value = [310, 878, 0, 0, 0, 0, 0]<br/>class = Lodgepole Pine>, fillcolor="#d0ee7f"] ;
427 -> 428 ;
429 [label=<gini = 0.0<br/>samples = 153<br/>value = [153, 0, 0, 0, 0, 0, 0]<br/>class = Spruce-Fir>, fillcolor="#e58139"] ;
427 -> 429 ;
430 [label=<5 &le; 4384.0<br/>gini = 0.136<br/>samples = 1021<br/>value = [75, 946, 0, 0, 0, 0, 0]<br/>class = Lodgepole Pine>, fillcolor="#bde749"] ;
426 -> 430 ;
431 [label=<gini = 0.051<br/>samples = 920<br/>value = [24, 896, 0, 0, 0, 0, 0]<br/>class = Lodgepole Pine>, fillcolor="#b9e63e"] ;
430 -> 431 ;
432 [label=<gini = 0.5<br/>samples = 101<br/>value = [51, 50, 0, 0, 0, 0, 0]<br/>class = Spruce-Fir>, fillcolor="#fefdfb"] ;
430 -> 432 ;
433 [label=<36 &le; 0.5<br/>gini = 0.353<br/>samples = 60482<br/>value = [13648, 46695, 0, 0, 139, 0, 0]<br/>class = Lodgepole Pine>, fillcolor="#cced73"] ;
417 -> 433 ;
434 [label=<35 &le; 0.5<br/>gini = 0.331<br/>samples = 57111<br/>value = [11747, 45227, 0, 0, 137, 0, 0]<br/>class = Lodgepole Pine>, fillcolor="#caec6d"] ;
433 -> 434 ;
435 [label=<4 &le; 46.5<br/>gini = 0.312<br/>samples = 55064<br/>value = [10451, 44476, 0, 0, 137, 0, 0]<br/>class = Lodgepole Pine>, fillcolor="#c8eb68"] ;
434 -> 435 ;
436 [label=<gini = 0.378<br/>samples = 27634<br/>value = [6915, 20674, 0, 0, 45, 0, 0]<br/>class = Lodgepole Pine>, fillcolor="#cfee7c"] ;
435 -> 436 ;
437 [label=<gini = 0.23<br/>samples = 27430<br/>value = [3536, 23802, 0, 0, 92, 0, 0]<br/>class = Lodgepole Pine>, fillcolor="#c2e957"] ;
435 -> 437 ;
438 [label=<9 &le; 2813.5<br/>gini = 0.465<br/>samples = 2047<br/>value = [1296, 751, 0, 0, 0, 0, 0]<br/>class = Spruce-Fir>, fillcolor="#f4caac"] ;
434 -> 438 ;
439 [label=<gini = 0.493<br/>samples = 1680<br/>value = [942, 738, 0, 0, 0, 0, 0]<br/>class = Spruce-Fir>, fillcolor="#f9e4d4"] ;
438 -> 439 ;
440 [label=<gini = 0.068<br/>samples = 367<br/>value = [354, 13, 0, 0, 0, 0, 0]<br/>class = Spruce-Fir>, fillcolor="#e68640"] ;
438 -> 440 ;
441 [label=<5 &le; 542.0<br/>gini = 0.492<br/>samples = 3371<br/>value = [1901, 1468, 0, 0, 2, 0, 0]<br/>class = Spruce-Fir>, fillcolor="#f9e2d2"] ;
433 -> 441 ;
442 [label=<12 &le; 0.5<br/>gini = 0.144<br/>samples = 307<br/>value = [283, 24, 0, 0, 0, 0, 0]<br/>class = Spruce-Fir>, fillcolor="#e78c4a"] ;
441 -> 442 ;
443 [label=<gini = 0.0<br/>samples = 280<br/>value = [280, 0, 0, 0, 0, 0, 0]<br/>class = Spruce-Fir>, fillcolor="#e58139"] ;
442 -> 443 ;
444 [label=<gini = 0.198<br/>samples = 27<br/>value = [3, 24, 0, 0, 0, 0, 0]<br/>class = Lodgepole Pine>, fillcolor="#c0e852"] ;
442 -> 444 ;
445 [label=<5 &le; 1760.5<br/>gini = 0.499<br/>samples = 3064<br/>value = [1618, 1444, 0, 0, 2, 0, 0]<br/>class = Spruce-Fir>, fillcolor="#fcf1ea"] ;
441 -> 445 ;
446 [label=<gini = 0.418<br/>samples = 999<br/>value = [297, 702, 0, 0, 0, 0, 0]<br/>class = Lodgepole Pine>, fillcolor="#d5f08d"] ;
445 -> 446 ;
447 [label=<gini = 0.462<br/>samples = 2065<br/>value = [1321, 742, 0, 0, 2, 0, 0]<br/>class = Spruce-Fir>, fillcolor="#f4c8a8"] ;
445 -> 447 ;
448 [label=<9 &le; 1393.5<br/>gini = 0.516<br/>samples = 4345<br/>value = [0, 742, 2881, 0, 264, 458, 0]<br/>class = Ponderosa Pine>, fillcolor="#89f095"] ;
320 -> 448 ;
449 [label=<1 &le; 78.5<br/>gini = 0.355<br/>samples = 2840<br/>value = [0, 334, 2249, 0, 88, 169, 0]<br/>class = Ponderosa Pine>, fillcolor="#68eb77"] ;
448 -> 449 ;
450 [label=<5 &le; 2187.0<br/>gini = 0.647<br/>samples = 503<br/>value = [0, 131, 235, 0, 7, 130, 0]<br/>class = Ponderosa Pine>, fillcolor="#c8f8cd"] ;
449 -> 450 ;
451 [label=<0 &le; 2618.5<br/>gini = 0.56<br/>samples = 376<br/>value = [0, 29, 212, 0, 7, 128, 0]<br/>class = Ponderosa Pine>, fillcolor="#bcf6c3"] ;
450 -> 451 ;
452 [label=<4 &le; 34.5<br/>gini = 0.606<br/>samples = 252<br/>value = [0, 26, 97, 0, 7, 122, 0]<br/>class = Douglas-fir>, fillcolor="#f2dffb"] ;
451 -> 452 ;
453 [label=<2 &le; 9.5<br/>gini = 0.526<br/>samples = 120<br/>value = [0, 6, 76, 0, 7, 31, 0]<br/>class = Ponderosa Pine>, fillcolor="#9bf2a5"] ;
452 -> 453 ;
454 [label=<gini = 0.252<br/>samples = 63<br/>value = [0, 1, 54, 0, 7, 1, 0]<br/>class = Ponderosa Pine>, fillcolor="#59e96a"] ;
453 -> 454 ;
455 [label=<gini = 0.566<br/>samples = 57<br/>value = [0, 5, 22, 0, 0, 30, 0]<br/>class = Douglas-fir>, fillcolor="#edd2f9"] ;
453 -> 455 ;
456 [label=<0 &le; 2587.5<br/>gini = 0.476<br/>samples = 132<br/>value = [0, 20, 21, 0, 0, 91, 0]<br/>class = Douglas-fir>, fillcolor="#ce82ef"] ;
452 -> 456 ;
457 [label=<gini = 0.273<br/>samples = 107<br/>value = [0, 2, 15, 0, 0, 90, 0]<br/>class = Douglas-fir>, fillcolor="#bf5eea"] ;
456 -> 457 ;
458 [label=<gini = 0.422<br/>samples = 25<br/>value = [0, 18, 6, 0, 0, 1, 0]<br/>class = Lodgepole Pine>, fillcolor="#d2ef82"] ;
456 -> 458 ;
459 [label=<2 &le; 17.5<br/>gini = 0.137<br/>samples = 124<br/>value = [0, 3, 115, 0, 0, 6, 0]<br/>class = Ponderosa Pine>, fillcolor="#48e75b"] ;
451 -> 459 ;
460 [label=<8 &le; 127.5<br/>gini = 0.096<br/>samples = 120<br/>value = [0, 3, 114, 0, 0, 3, 0]<br/>class = Ponderosa Pine>, fillcolor="#43e656"] ;
459 -> 460 ;
461 [label=<gini = 0.0<br/>samples = 1<br/>value = [0, 0, 0, 0, 0, 1, 0]<br/>class = Douglas-fir>, fillcolor="#b139e5"] ;
460 -> 461 ;
462 [label=<gini = 0.081<br/>samples = 119<br/>value = [0, 3, 114, 0, 0, 2, 0]<br/>class = Ponderosa Pine>, fillcolor="#42e655"] ;
460 -> 462 ;
463 [label=<2 &le; 20.5<br/>gini = 0.375<br/>samples = 4<br/>value = [0, 0, 1, 0, 0, 3, 0]<br/>class = Douglas-fir>, fillcolor="#cb7bee"] ;
459 -> 463 ;
464 [label=<gini = 0.0<br/>samples = 3<br/>value = [0, 0, 0, 0, 0, 3, 0]<br/>class = Douglas-fir>, fillcolor="#b139e5"] ;
463 -> 464 ;
465 [label=<gini = 0.0<br/>samples = 1<br/>value = [0, 0, 1, 0, 0, 0, 0]<br/>class = Ponderosa Pine>, fillcolor="#39e54d"] ;
463 -> 465 ;
466 [label=<7 &le; 225.5<br/>gini = 0.322<br/>samples = 127<br/>value = [0, 102, 23, 0, 0, 2, 0]<br/>class = Lodgepole Pine>, fillcolor="#c8eb69"] ;
450 -> 466 ;
467 [label=<9 &le; 486.0<br/>gini = 0.253<br/>samples = 117<br/>value = [0, 100, 15, 0, 0, 2, 0]<br/>class = Lodgepole Pine>, fillcolor="#c3e95a"] ;
466 -> 467 ;
468 [label=<0 &le; 2622.0<br/>gini = 0.408<br/>samples = 7<br/>value = [0, 2, 5, 0, 0, 0, 0]<br/>class = Ponderosa Pine>, fillcolor="#88ef94"] ;
467 -> 468 ;
469 [label=<gini = 0.0<br/>samples = 5<br/>value = [0, 0, 5, 0, 0, 0, 0]<br/>class = Ponderosa Pine>, fillcolor="#39e54d"] ;
468 -> 469 ;
470 [label=<gini = 0.0<br/>samples = 2<br/>value = [0, 2, 0, 0, 0, 0, 0]<br/>class = Lodgepole Pine>, fillcolor="#b7e539"] ;
468 -> 470 ;
471 [label=<1 &le; 75.5<br/>gini = 0.198<br/>samples = 110<br/>value = [0, 98, 10, 0, 0, 2, 0]<br/>class = Lodgepole Pine>, fillcolor="#c0e851"] ;
467 -> 471 ;
472 [label=<gini = 0.145<br/>samples = 103<br/>value = [0, 95, 7, 0, 0, 1, 0]<br/>class = Lodgepole Pine>, fillcolor="#bde749"] ;
471 -> 472 ;
473 [label=<gini = 0.612<br/>samples = 7<br/>value = [0, 3, 3, 0, 0, 1, 0]<br/>class = Lodgepole Pine>, fillcolor="#ffffff"] ;
471 -> 473 ;
474 [label=<0 &le; 2598.0<br/>gini = 0.32<br/>samples = 10<br/>value = [0, 2, 8, 0, 0, 0, 0]<br/>class = Ponderosa Pine>, fillcolor="#6aec79"] ;
466 -> 474 ;
475 [label=<gini = 0.0<br/>samples = 2<br/>value = [0, 2, 0, 0, 0, 0, 0]<br/>class = Lodgepole Pine>, fillcolor="#b7e539"] ;
474 -> 475 ;
476 [label=<gini = 0.0<br/>samples = 8<br/>value = [0, 0, 8, 0, 0, 0, 0]<br/>class = Ponderosa Pine>, fillcolor="#39e54d"] ;
474 -> 476 ;
477 [label=<1 &le; 287.5<br/>gini = 0.248<br/>samples = 2337<br/>value = [0, 203, 2014, 0, 81, 39, 0]<br/>class = Ponderosa Pine>, fillcolor="#57e968"] ;
449 -> 477 ;
478 [label=<3 &le; 15.0<br/>gini = 0.181<br/>samples = 2147<br/>value = [0, 111, 1938, 0, 75, 23, 0]<br/>class = Ponderosa Pine>, fillcolor="#4de85f"] ;
477 -> 478 ;
479 [label=<9 &le; 902.0<br/>gini = 0.613<br/>samples = 61<br/>value = [0, 10, 21, 0, 30, 0, 0]<br/>class = Aspen>, fillcolor="#d2d9f9"] ;
478 -> 479 ;
480 [label=<9 &le; 532.5<br/>gini = 0.062<br/>samples = 31<br/>value = [0, 0, 1, 0, 30, 0, 0]<br/>class = Aspen>, fillcolor="#405ce6"] ;
479 -> 480 ;
481 [label=<gini = 0.444<br/>samples = 3<br/>value = [0, 0, 1, 0, 2, 0, 0]<br/>class = Aspen>, fillcolor="#9caaf2"] ;
480 -> 481 ;
482 [label=<gini = 0.0<br/>samples = 28<br/>value = [0, 0, 0, 0, 28, 0, 0]<br/>class = Aspen>, fillcolor="#3956e5"] ;
480 -> 482 ;
483 [label=<0 &le; 2603.0<br/>gini = 0.444<br/>samples = 30<br/>value = [0, 10, 20, 0, 0, 0, 0]<br/>class = Ponderosa Pine>, fillcolor="#9cf2a6"] ;
479 -> 483 ;
484 [label=<gini = 0.1<br/>samples = 19<br/>value = [0, 1, 18, 0, 0, 0, 0]<br/>class = Ponderosa Pine>, fillcolor="#44e657"] ;
483 -> 484 ;
485 [label=<gini = 0.298<br/>samples = 11<br/>value = [0, 9, 2, 0, 0, 0, 0]<br/>class = Lodgepole Pine>, fillcolor="#c7eb65"] ;
483 -> 485 ;
486 [label=<0 &le; 2541.5<br/>gini = 0.153<br/>samples = 2086<br/>value = [0, 101, 1917, 0, 45, 23, 0]<br/>class = Ponderosa Pine>, fillcolor="#4ae75c"] ;
478 -> 486 ;
487 [label=<3 &le; 157.5<br/>gini = 0.42<br/>samples = 231<br/>value = [0, 58, 166, 0, 0, 7, 0]<br/>class = Ponderosa Pine>, fillcolor="#83ef90"] ;
486 -> 487 ;
488 [label=<gini = 0.466<br/>samples = 81<br/>value = [0, 51, 30, 0, 0, 0, 0]<br/>class = Lodgepole Pine>, fillcolor="#e1f4ad"] ;
487 -> 488 ;
489 [label=<gini = 0.174<br/>samples = 150<br/>value = [0, 7, 136, 0, 0, 7, 0]<br/>class = Ponderosa Pine>, fillcolor="#4ce85e"] ;
487 -> 489 ;
490 [label=<4 &le; -0.5<br/>gini = 0.108<br/>samples = 1855<br/>value = [0, 43, 1751, 0, 45, 16, 0]<br/>class = Ponderosa Pine>, fillcolor="#44e657"] ;
486 -> 490 ;
491 [label=<gini = 0.294<br/>samples = 230<br/>value = [0, 12, 191, 0, 27, 0, 0]<br/>class = Ponderosa Pine>, fillcolor="#5fea6f"] ;
490 -> 491 ;
492 [label=<gini = 0.078<br/>samples = 1625<br/>value = [0, 31, 1560, 0, 18, 16, 0]<br/>class = Ponderosa Pine>, fillcolor="#41e654"] ;
490 -> 492 ;
493 [label=<0 &le; 2610.5<br/>gini = 0.597<br/>samples = 190<br/>value = [0, 92, 76, 0, 6, 16, 0]<br/>class = Lodgepole Pine>, fillcolor="#f5fbe3"] ;
477 -> 493 ;
494 [label=<9 &le; 1026.5<br/>gini = 0.483<br/>samples = 129<br/>value = [0, 89, 21, 0, 4, 15, 0]<br/>class = Lodgepole Pine>, fillcolor="#d2ef82"] ;
493 -> 494 ;
495 [label=<9 &le; 322.0<br/>gini = 0.284<br/>samples = 105<br/>value = [0, 88, 9, 0, 0, 8, 0]<br/>class = Lodgepole Pine>, fillcolor="#c4ea5c"] ;
494 -> 495 ;
496 [label=<gini = 0.0<br/>samples = 3<br/>value = [0, 0, 0, 0, 0, 3, 0]<br/>class = Douglas-fir>, fillcolor="#b139e5"] ;
495 -> 496 ;
497 [label=<gini = 0.245<br/>samples = 102<br/>value = [0, 88, 9, 0, 0, 5, 0]<br/>class = Lodgepole Pine>, fillcolor="#c2e957"] ;
495 -> 497 ;
498 [label=<4 &le; 24.0<br/>gini = 0.635<br/>samples = 24<br/>value = [0, 1, 12, 0, 4, 7, 0]<br/>class = Ponderosa Pine>, fillcolor="#c5f7cb"] ;
494 -> 498 ;
499 [label=<gini = 0.153<br/>samples = 12<br/>value = [0, 0, 11, 0, 1, 0, 0]<br/>class = Ponderosa Pine>, fillcolor="#4be75d"] ;
498 -> 499 ;
500 [label=<gini = 0.583<br/>samples = 12<br/>value = [0, 1, 1, 0, 3, 7, 0]<br/>class = Douglas-fir>, fillcolor="#dca7f3"] ;
498 -> 500 ;
501 [label=<5 &le; 570.5<br/>gini = 0.183<br/>samples = 61<br/>value = [0, 3, 55, 0, 2, 1, 0]<br/>class = Ponderosa Pine>, fillcolor="#4de85f"] ;
493 -> 501 ;
502 [label=<gini = 0.0<br/>samples = 3<br/>value = [0, 3, 0, 0, 0, 0, 0]<br/>class = Lodgepole Pine>, fillcolor="#b7e539"] ;
501 -> 502 ;
503 [label=<4 &le; 5.5<br/>gini = 0.099<br/>samples = 58<br/>value = [0, 0, 55, 0, 2, 1, 0]<br/>class = Ponderosa Pine>, fillcolor="#44e657"] ;
501 -> 503 ;
504 [label=<gini = 0.0<br/>samples = 2<br/>value = [0, 0, 0, 0, 2, 0, 0]<br/>class = Aspen>, fillcolor="#3956e5"] ;
503 -> 504 ;
505 [label=<gini = 0.035<br/>samples = 56<br/>value = [0, 0, 55, 0, 0, 1, 0]<br/>class = Ponderosa Pine>, fillcolor="#3de550"] ;
503 -> 505 ;
506 [label=<5 &le; 2307.5<br/>gini = 0.7<br/>samples = 1505<br/>value = [0, 408, 632, 0, 176, 289, 0]<br/>class = Ponderosa Pine>, fillcolor="#d7fadb"] ;
448 -> 506 ;
507 [label=<0 &le; 2591.5<br/>gini = 0.678<br/>samples = 1313<br/>value = [0, 229, 624, 0, 171, 289, 0]<br/>class = Ponderosa Pine>, fillcolor="#bef6c5"] ;
506 -> 507 ;
508 [label=<5 &le; 1759.0<br/>gini = 0.72<br/>samples = 601<br/>value = [0, 207, 158, 0, 171, 65, 0]<br/>class = Lodgepole Pine>, fillcolor="#f9fdee"] ;
507 -> 508 ;
509 [label=<3 &le; 244.5<br/>gini = 0.651<br/>samples = 440<br/>value = [0, 199, 42, 0, 156, 43, 0]<br/>class = Lodgepole Pine>, fillcolor="#f4fbe1"] ;
508 -> 509 ;
510 [label=<5 &le; 1355.5<br/>gini = 0.541<br/>samples = 312<br/>value = [0, 193, 7, 0, 80, 32, 0]<br/>class = Lodgepole Pine>, fillcolor="#dcf29f"] ;
509 -> 510 ;
511 [label=<gini = 0.196<br/>samples = 151<br/>value = [0, 135, 5, 0, 2, 9, 0]<br/>class = Lodgepole Pine>, fillcolor="#bfe84f"] ;
510 -> 511 ;
512 [label=<gini = 0.615<br/>samples = 161<br/>value = [0, 58, 2, 0, 78, 23, 0]<br/>class = Aspen>, fillcolor="#d9defa"] ;
510 -> 512 ;
513 [label=<5 &le; 1250.5<br/>gini = 0.563<br/>samples = 128<br/>value = [0, 6, 35, 0, 76, 11, 0]<br/>class = Aspen>, fillcolor="#a8b4f4"] ;
509 -> 513 ;
514 [label=<gini = 0.508<br/>samples = 53<br/>value = [0, 6, 35, 0, 1, 11, 0]<br/>class = Ponderosa Pine>, fillcolor="#8ef099"] ;
513 -> 514 ;
515 [label=<gini = 0.0<br/>samples = 75<br/>value = [0, 0, 0, 0, 75, 0, 0]<br/>class = Aspen>, fillcolor="#3956e5"] ;
513 -> 515 ;
516 [label=<7 &le; 232.5<br/>gini = 0.451<br/>samples = 161<br/>value = [0, 8, 116, 0, 15, 22, 0]<br/>class = Ponderosa Pine>, fillcolor="#79ed87"] ;
508 -> 516 ;
517 [label=<gini = 0.0<br/>samples = 22<br/>value = [0, 0, 0, 0, 0, 22, 0]<br/>class = Douglas-fir>, fillcolor="#b139e5"] ;
516 -> 517 ;
518 [label=<5 &le; 2121.5<br/>gini = 0.289<br/>samples = 139<br/>value = [0, 8, 116, 0, 15, 0, 0]<br/>class = Ponderosa Pine>, fillcolor="#5eea6e"] ;
516 -> 518 ;
519 [label=<gini = 0.0<br/>samples = 91<br/>value = [0, 0, 91, 0, 0, 0, 0]<br/>class = Ponderosa Pine>, fillcolor="#39e54d"] ;
518 -> 519 ;
520 [label=<gini = 0.603<br/>samples = 48<br/>value = [0, 8, 25, 0, 15, 0, 0]<br/>class = Ponderosa Pine>, fillcolor="#c3f7c9"] ;
518 -> 520 ;
521 [label=<1 &le; 76.5<br/>gini = 0.472<br/>samples = 712<br/>value = [0, 22, 466, 0, 0, 224, 0]<br/>class = Ponderosa Pine>, fillcolor="#9df2a7"] ;
507 -> 521 ;
522 [label=<9 &le; 1765.0<br/>gini = 0.392<br/>samples = 164<br/>value = [0, 4, 38, 0, 0, 122, 0]<br/>class = Douglas-fir>, fillcolor="#cb7bee"] ;
521 -> 522 ;
523 [label=<0 &le; 2601.5<br/>gini = 0.535<br/>samples = 45<br/>value = [0, 2, 24, 0, 0, 19, 0]<br/>class = Ponderosa Pine>, fillcolor="#d9fadd"] ;
522 -> 523 ;
524 [label=<gini = 0.445<br/>samples = 20<br/>value = [0, 1, 5, 0, 0, 14, 0]<br/>class = Douglas-fir>, fillcolor="#d088ef"] ;
523 -> 524 ;
525 [label=<gini = 0.381<br/>samples = 25<br/>value = [0, 1, 19, 0, 0, 5, 0]<br/>class = Ponderosa Pine>, fillcolor="#74ed82"] ;
523 -> 525 ;
526 [label=<5 &le; 2069.5<br/>gini = 0.237<br/>samples = 119<br/>value = [0, 2, 14, 0, 0, 103, 0]<br/>class = Douglas-fir>, fillcolor="#bd57e9"] ;
522 -> 526 ;
527 [label=<gini = 0.124<br/>samples = 107<br/>value = [0, 2, 5, 0, 0, 100, 0]<br/>class = Douglas-fir>, fillcolor="#b647e7"] ;
526 -> 527 ;
528 [label=<gini = 0.375<br/>samples = 12<br/>value = [0, 0, 9, 0, 0, 3, 0]<br/>class = Ponderosa Pine>, fillcolor="#7bee88"] ;
526 -> 528 ;
529 [label=<9 &le; 2497.0<br/>gini = 0.354<br/>samples = 548<br/>value = [0, 18, 428, 0, 0, 102, 0]<br/>class = Ponderosa Pine>, fillcolor="#6eec7d"] ;
521 -> 529 ;
530 [label=<3 &le; 142.0<br/>gini = 0.225<br/>samples = 465<br/>value = [0, 18, 407, 0, 0, 40, 0]<br/>class = Ponderosa Pine>, fillcolor="#54e965"] ;
529 -> 530 ;
531 [label=<gini = 0.554<br/>samples = 36<br/>value = [0, 13, 20, 0, 0, 3, 0]<br/>class = Ponderosa Pine>, fillcolor="#c3f7c9"] ;
530 -> 531 ;
532 [label=<gini = 0.179<br/>samples = 429<br/>value = [0, 5, 387, 0, 0, 37, 0]<br/>class = Ponderosa Pine>, fillcolor="#4ee860"] ;
530 -> 532 ;
533 [label=<5 &le; 2086.0<br/>gini = 0.378<br/>samples = 83<br/>value = [0, 0, 21, 0, 0, 62, 0]<br/>class = Douglas-fir>, fillcolor="#cb7cee"] ;
529 -> 533 ;
534 [label=<gini = 0.138<br/>samples = 67<br/>value = [0, 0, 5, 0, 0, 62, 0]<br/>class = Douglas-fir>, fillcolor="#b749e7"] ;
533 -> 534 ;
535 [label=<gini = 0.0<br/>samples = 16<br/>value = [0, 0, 16, 0, 0, 0, 0]<br/>class = Ponderosa Pine>, fillcolor="#39e54d"] ;
533 -> 535 ;
536 [label=<3 &le; 355.5<br/>gini = 0.128<br/>samples = 192<br/>value = [0, 179, 8, 0, 5, 0, 0]<br/>class = Lodgepole Pine>, fillcolor="#bce747"] ;
506 -> 536 ;
537 [label=<2 &le; 9.5<br/>gini = 0.063<br/>samples = 185<br/>value = [0, 179, 1, 0, 5, 0, 0]<br/>class = Lodgepole Pine>, fillcolor="#b9e640"] ;
536 -> 537 ;
538 [label=<gini = 0.0<br/>samples = 2<br/>value = [0, 0, 0, 0, 2, 0, 0]<br/>class = Aspen>, fillcolor="#3956e5"] ;
537 -> 538 ;
539 [label=<0 &le; 2536.5<br/>gini = 0.043<br/>samples = 183<br/>value = [0, 179, 1, 0, 3, 0, 0]<br/>class = Lodgepole Pine>, fillcolor="#b9e63d"] ;
537 -> 539 ;
540 [label=<5 &le; 2365.0<br/>gini = 0.5<br/>samples = 2<br/>value = [0, 1, 1, 0, 0, 0, 0]<br/>class = Lodgepole Pine>, fillcolor="#ffffff"] ;
539 -> 540 ;
541 [label=<gini = 0.0<br/>samples = 1<br/>value = [0, 0, 1, 0, 0, 0, 0]<br/>class = Ponderosa Pine>, fillcolor="#39e54d"] ;
540 -> 541 ;
542 [label=<gini = 0.0<br/>samples = 1<br/>value = [0, 1, 0, 0, 0, 0, 0]<br/>class = Lodgepole Pine>, fillcolor="#b7e539"] ;
540 -> 542 ;
543 [label=<2 &le; 11.5<br/>gini = 0.033<br/>samples = 181<br/>value = [0, 178, 0, 0, 3, 0, 0]<br/>class = Lodgepole Pine>, fillcolor="#b8e53c"] ;
539 -> 543 ;
544 [label=<gini = 0.208<br/>samples = 17<br/>value = [0, 15, 0, 0, 2, 0, 0]<br/>class = Lodgepole Pine>, fillcolor="#c1e853"] ;
543 -> 544 ;
545 [label=<gini = 0.012<br/>samples = 164<br/>value = [0, 163, 0, 0, 1, 0, 0]<br/>class = Lodgepole Pine>, fillcolor="#b7e53a"] ;
543 -> 545 ;
546 [label=<gini = 0.0<br/>samples = 7<br/>value = [0, 0, 7, 0, 0, 0, 0]<br/>class = Ponderosa Pine>, fillcolor="#39e54d"] ;
536 -> 546 ;
547 [label=<0 &le; 2684.5<br/>gini = 0.599<br/>samples = 9044<br/>value = [182, 3183, 4714, 0, 585, 302, 78]<br/>class = Ponderosa Pine>, fillcolor="#cbf8d1"] ;
319 -> 547 ;
548 [label=<0 &le; 2627.5<br/>gini = 0.314<br/>samples = 4772<br/>value = [76, 487, 3913, 0, 35, 261, 0]<br/>class = Ponderosa Pine>, fillcolor="#61ea71"] ;
547 -> 548 ;
549 [label=<12 &le; 0.5<br/>gini = 0.196<br/>samples = 3472<br/>value = [10, 170, 3104, 0, 13, 175, 0]<br/>class = Ponderosa Pine>, fillcolor="#4fe861"] ;
548 -> 549 ;
550 [label=<gini = 0.0<br/>samples = 59<br/>value = [0, 59, 0, 0, 0, 0, 0]<br/>class = Lodgepole Pine>, fillcolor="#b7e539"] ;
549 -> 550 ;
551 [label=<3 &le; 15.0<br/>gini = 0.169<br/>samples = 3413<br/>value = [10, 111, 3104, 0, 13, 175, 0]<br/>class = Ponderosa Pine>, fillcolor="#4ce75e"] ;
549 -> 551 ;
552 [label=<5 &le; 1642.5<br/>gini = 0.609<br/>samples = 119<br/>value = [0, 10, 52, 0, 5, 52, 0]<br/>class = Ponderosa Pine>, fillcolor="#ffffff"] ;
551 -> 552 ;
553 [label=<5 &le; 1134.0<br/>gini = 0.559<br/>samples = 53<br/>value = [0, 10, 33, 0, 5, 5, 0]<br/>class = Ponderosa Pine>, fillcolor="#95f1a0"] ;
552 -> 553 ;
554 [label=<7 &le; 227.0<br/>gini = 0.496<br/>samples = 11<br/>value = [0, 6, 0, 0, 0, 5, 0]<br/>class = Lodgepole Pine>, fillcolor="#f3fbde"] ;
553 -> 554 ;
555 [label=<gini = 0.0<br/>samples = 6<br/>value = [0, 6, 0, 0, 0, 0, 0]<br/>class = Lodgepole Pine>, fillcolor="#b7e539"] ;
554 -> 555 ;
556 [label=<gini = 0.0<br/>samples = 5<br/>value = [0, 0, 0, 0, 0, 5, 0]<br/>class = Douglas-fir>, fillcolor="#b139e5"] ;
554 -> 556 ;
557 [label=<6 &le; 226.5<br/>gini = 0.359<br/>samples = 42<br/>value = [0, 4, 33, 0, 5, 0, 0]<br/>class = Ponderosa Pine>, fillcolor="#69eb78"] ;
553 -> 557 ;
558 [label=<gini = 0.651<br/>samples = 13<br/>value = [0, 3, 5, 0, 5, 0, 0]<br/>class = Ponderosa Pine>, fillcolor="#ffffff"] ;
557 -> 558 ;
559 [label=<gini = 0.067<br/>samples = 29<br/>value = [0, 1, 28, 0, 0, 0, 0]<br/>class = Ponderosa Pine>, fillcolor="#40e653"] ;
557 -> 559 ;
560 [label=<9 &le; 448.0<br/>gini = 0.41<br/>samples = 66<br/>value = [0, 0, 19, 0, 0, 47, 0]<br/>class = Douglas-fir>, fillcolor="#d189f0"] ;
552 -> 560 ;
561 [label=<gini = 0.0<br/>samples = 4<br/>value = [0, 0, 4, 0, 0, 0, 0]<br/>class = Ponderosa Pine>, fillcolor="#39e54d"] ;
560 -> 561 ;
562 [label=<8 &le; 190.5<br/>gini = 0.367<br/>samples = 62<br/>value = [0, 0, 15, 0, 0, 47, 0]<br/>class = Douglas-fir>, fillcolor="#ca78ed"] ;
560 -> 562 ;
563 [label=<gini = 0.291<br/>samples = 51<br/>value = [0, 0, 9, 0, 0, 42, 0]<br/>class = Douglas-fir>, fillcolor="#c263eb"] ;
562 -> 563 ;
564 [label=<gini = 0.496<br/>samples = 11<br/>value = [0, 0, 6, 0, 0, 5, 0]<br/>class = Ponderosa Pine>, fillcolor="#defbe1"] ;
562 -> 564 ;
565 [label=<1 &le; 80.5<br/>gini = 0.139<br/>samples = 3294<br/>value = [10, 101, 3052, 0, 8, 123, 0]<br/>class = Ponderosa Pine>, fillcolor="#48e75b"] ;
551 -> 565 ;
566 [label=<9 &le; 1525.5<br/>gini = 0.522<br/>samples = 241<br/>value = [0, 47, 155, 0, 0, 39, 0]<br/>class = Ponderosa Pine>, fillcolor="#91f19c"] ;
565 -> 566 ;
567 [label=<3 &le; 185.0<br/>gini = 0.408<br/>samples = 194<br/>value = [0, 13, 144, 0, 0, 37, 0]<br/>class = Ponderosa Pine>, fillcolor="#78ed86"] ;
566 -> 567 ;
568 [label=<gini = 0.465<br/>samples = 41<br/>value = [0, 1, 13, 0, 0, 27, 0]<br/>class = Douglas-fir>, fillcolor="#d89cf2"] ;
567 -> 568 ;
569 [label=<gini = 0.256<br/>samples = 153<br/>value = [0, 12, 131, 0, 0, 10, 0]<br/>class = Ponderosa Pine>, fillcolor="#58e969"] ;
567 -> 569 ;
570 [label=<5 &le; 1067.0<br/>gini = 0.42<br/>samples = 47<br/>value = [0, 34, 11, 0, 0, 2, 0]<br/>class = Lodgepole Pine>, fillcolor="#d1ee80"] ;
566 -> 570 ;
571 [label=<gini = 0.18<br/>samples = 10<br/>value = [0, 1, 9, 0, 0, 0, 0]<br/>class = Ponderosa Pine>, fillcolor="#4fe861"] ;
570 -> 571 ;
572 [label=<gini = 0.199<br/>samples = 37<br/>value = [0, 33, 2, 0, 0, 2, 0]<br/>class = Lodgepole Pine>, fillcolor="#bfe850"] ;
570 -> 572 ;
573 [label=<3 &le; 63.5<br/>gini = 0.098<br/>samples = 3053<br/>value = [10, 54, 2897, 0, 8, 84, 0]<br/>class = Ponderosa Pine>, fillcolor="#43e656"] ;
565 -> 573 ;
574 [label=<0 &le; 2612.5<br/>gini = 0.301<br/>samples = 490<br/>value = [10, 20, 406, 0, 4, 50, 0]<br/>class = Ponderosa Pine>, fillcolor="#5fea6f"] ;
573 -> 574 ;
575 [label=<gini = 0.209<br/>samples = 429<br/>value = [2, 3, 379, 0, 2, 43, 0]<br/>class = Ponderosa Pine>, fillcolor="#53e864"] ;
574 -> 575 ;
576 [label=<gini = 0.695<br/>samples = 61<br/>value = [8, 17, 27, 0, 2, 7, 0]<br/>class = Ponderosa Pine>, fillcolor="#d2f9d7"] ;
574 -> 576 ;
577 [label=<1 &le; 101.5<br/>gini = 0.055<br/>samples = 2563<br/>value = [0, 34, 2491, 0, 4, 34, 0]<br/>class = Ponderosa Pine>, fillcolor="#3fe652"] ;
573 -> 577 ;
578 [label=<gini = 0.255<br/>samples = 182<br/>value = [0, 14, 156, 0, 0, 12, 0]<br/>class = Ponderosa Pine>, fillcolor="#58e969"] ;
577 -> 578 ;
579 [label=<gini = 0.038<br/>samples = 2381<br/>value = [0, 20, 2335, 0, 4, 22, 0]<br/>class = Ponderosa Pine>, fillcolor="#3de650"] ;
577 -> 579 ;
580 [label=<4 &le; 43.5<br/>gini = 0.546<br/>samples = 1300<br/>value = [66, 317, 809, 0, 22, 86, 0]<br/>class = Ponderosa Pine>, fillcolor="#9cf2a6"] ;
548 -> 580 ;
581 [label=<9 &le; 1844.0<br/>gini = 0.672<br/>samples = 695<br/>value = [66, 238, 304, 0, 21, 66, 0]<br/>class = Ponderosa Pine>, fillcolor="#e2fbe5"] ;
580 -> 581 ;
582 [label=<9 &le; 672.5<br/>gini = 0.651<br/>samples = 450<br/>value = [66, 207, 151, 0, 2, 24, 0]<br/>class = Lodgepole Pine>, fillcolor="#f2fada"] ;
581 -> 582 ;
583 [label=<1 &le; 140.5<br/>gini = 0.321<br/>samples = 107<br/>value = [0, 11, 87, 0, 0, 9, 0]<br/>class = Ponderosa Pine>, fillcolor="#62ea72"] ;
582 -> 583 ;
584 [label=<7 &le; 226.5<br/>gini = 0.64<br/>samples = 22<br/>value = [0, 10, 5, 0, 0, 7, 0]<br/>class = Lodgepole Pine>, fillcolor="#f1fad7"] ;
583 -> 584 ;
585 [label=<gini = 0.198<br/>samples = 9<br/>value = [0, 8, 1, 0, 0, 0, 0]<br/>class = Lodgepole Pine>, fillcolor="#c0e852"] ;
584 -> 585 ;
586 [label=<gini = 0.592<br/>samples = 13<br/>value = [0, 2, 4, 0, 0, 7, 0]<br/>class = Douglas-fir>, fillcolor="#e5bdf6"] ;
584 -> 586 ;
587 [label=<4 &le; 41.5<br/>gini = 0.069<br/>samples = 85<br/>value = [0, 1, 82, 0, 0, 2, 0]<br/>class = Ponderosa Pine>, fillcolor="#40e653"] ;
583 -> 587 ;
588 [label=<gini = 0.024<br/>samples = 83<br/>value = [0, 1, 82, 0, 0, 0, 0]<br/>class = Ponderosa Pine>, fillcolor="#3be54f"] ;
587 -> 588 ;
589 [label=<gini = 0.0<br/>samples = 2<br/>value = [0, 0, 0, 0, 0, 2, 0]<br/>class = Douglas-fir>, fillcolor="#b139e5"] ;
587 -> 589 ;
590 [label=<3 &le; 51.0<br/>gini = 0.6<br/>samples = 343<br/>value = [66, 196, 64, 0, 2, 15, 0]<br/>class = Lodgepole Pine>, fillcolor="#ddf3a2"] ;
582 -> 590 ;
591 [label=<2 &le; 18.5<br/>gini = 0.611<br/>samples = 125<br/>value = [60, 48, 2, 0, 2, 13, 0]<br/>class = Spruce-Fir>, fillcolor="#fbebe0"] ;
590 -> 591 ;
592 [label=<gini = 0.33<br/>samples = 58<br/>value = [47, 4, 0, 0, 2, 5, 0]<br/>class = Spruce-Fir>, fillcolor="#ea9b62"] ;
591 -> 592 ;
593 [label=<gini = 0.516<br/>samples = 67<br/>value = [13, 44, 2, 0, 0, 8, 0]<br/>class = Lodgepole Pine>, fillcolor="#d6f08d"] ;
591 -> 593 ;
594 [label=<3 &le; 186.0<br/>gini = 0.457<br/>samples = 218<br/>value = [6, 148, 62, 0, 0, 2, 0]<br/>class = Lodgepole Pine>, fillcolor="#d7f192"] ;
590 -> 594 ;
595 [label=<gini = 0.36<br/>samples = 186<br/>value = [6, 145, 33, 0, 0, 2, 0]<br/>class = Lodgepole Pine>, fillcolor="#caec6e"] ;
594 -> 595 ;
596 [label=<gini = 0.17<br/>samples = 32<br/>value = [0, 3, 29, 0, 0, 0, 0]<br/>class = Ponderosa Pine>, fillcolor="#4de85f"] ;
594 -> 596 ;
597 [label=<5 &le; 1965.5<br/>gini = 0.559<br/>samples = 245<br/>value = [0, 31, 153, 0, 19, 42, 0]<br/>class = Ponderosa Pine>, fillcolor="#93f19e"] ;
581 -> 597 ;
598 [label=<9 &le; 2104.0<br/>gini = 0.657<br/>samples = 78<br/>value = [0, 28, 20, 0, 0, 30, 0]<br/>class = Douglas-fir>, fillcolor="#fcf7fe"] ;
597 -> 598 ;
599 [label=<7 &le; 245.5<br/>gini = 0.307<br/>samples = 37<br/>value = [0, 0, 7, 0, 0, 30, 0]<br/>class = Douglas-fir>, fillcolor="#c367eb"] ;
598 -> 599 ;
600 [label=<gini = 0.0<br/>samples = 30<br/>value = [0, 0, 0, 0, 0, 30, 0]<br/>class = Douglas-fir>, fillcolor="#b139e5"] ;
599 -> 600 ;
601 [label=<gini = 0.0<br/>samples = 7<br/>value = [0, 0, 7, 0, 0, 0, 0]<br/>class = Ponderosa Pine>, fillcolor="#39e54d"] ;
599 -> 601 ;
602 [label=<4 &le; 16.0<br/>gini = 0.433<br/>samples = 41<br/>value = [0, 28, 13, 0, 0, 0, 0]<br/>class = Lodgepole Pine>, fillcolor="#d8f195"] ;
598 -> 602 ;
603 [label=<gini = 0.124<br/>samples = 30<br/>value = [0, 28, 2, 0, 0, 0, 0]<br/>class = Lodgepole Pine>, fillcolor="#bce747"] ;
602 -> 603 ;
604 [label=<gini = 0.0<br/>samples = 11<br/>value = [0, 0, 11, 0, 0, 0, 0]<br/>class = Ponderosa Pine>, fillcolor="#39e54d"] ;
602 -> 604 ;
605 [label=<4 &le; 5.5<br/>gini = 0.347<br/>samples = 167<br/>value = [0, 3, 133, 0, 19, 12, 0]<br/>class = Ponderosa Pine>, fillcolor="#66eb76"] ;
597 -> 605 ;
606 [label=<3 &le; 78.5<br/>gini = 0.681<br/>samples = 24<br/>value = [0, 2, 4, 0, 10, 8, 0]<br/>class = Aspen>, fillcolor="#e6eafc"] ;
605 -> 606 ;
607 [label=<gini = 0.444<br/>samples = 12<br/>value = [0, 0, 4, 0, 0, 8, 0]<br/>class = Douglas-fir>, fillcolor="#d89cf2"] ;
606 -> 607 ;
608 [label=<gini = 0.278<br/>samples = 12<br/>value = [0, 2, 0, 0, 10, 0, 0]<br/>class = Aspen>, fillcolor="#6178ea"] ;
606 -> 608 ;
609 [label=<3 &le; 36.0<br/>gini = 0.181<br/>samples = 143<br/>value = [0, 1, 129, 0, 9, 4, 0]<br/>class = Ponderosa Pine>, fillcolor="#4ee860"] ;
605 -> 609 ;
610 [label=<gini = 0.444<br/>samples = 3<br/>value = [0, 0, 1, 0, 0, 2, 0]<br/>class = Douglas-fir>, fillcolor="#d89cf2"] ;
609 -> 610 ;
611 [label=<gini = 0.16<br/>samples = 140<br/>value = [0, 1, 128, 0, 9, 2, 0]<br/>class = Ponderosa Pine>, fillcolor="#4be75d"] ;
609 -> 611 ;
612 [label=<4 &le; 70.5<br/>gini = 0.285<br/>samples = 605<br/>value = [0, 79, 505, 0, 1, 20, 0]<br/>class = Ponderosa Pine>, fillcolor="#5fea6f"] ;
580 -> 612 ;
613 [label=<0 &le; 2651.5<br/>gini = 0.425<br/>samples = 263<br/>value = [0, 63, 189, 0, 1, 10, 0]<br/>class = Ponderosa Pine>, fillcolor="#82ef8f"] ;
612 -> 613 ;
614 [label=<9 &le; 196.5<br/>gini = 0.108<br/>samples = 106<br/>value = [0, 5, 100, 0, 0, 1, 0]<br/>class = Ponderosa Pine>, fillcolor="#45e758"] ;
613 -> 614 ;
615 [label=<gini = 0.0<br/>samples = 1<br/>value = [0, 0, 0, 0, 0, 1, 0]<br/>class = Douglas-fir>, fillcolor="#b139e5"] ;
614 -> 615 ;
616 [label=<5 &le; 1974.0<br/>gini = 0.091<br/>samples = 105<br/>value = [0, 5, 100, 0, 0, 0, 0]<br/>class = Ponderosa Pine>, fillcolor="#43e656"] ;
614 -> 616 ;
617 [label=<gini = 0.0<br/>samples = 77<br/>value = [0, 0, 77, 0, 0, 0, 0]<br/>class = Ponderosa Pine>, fillcolor="#39e54d"] ;
616 -> 617 ;
618 [label=<gini = 0.293<br/>samples = 28<br/>value = [0, 5, 23, 0, 0, 0, 0]<br/>class = Ponderosa Pine>, fillcolor="#64eb74"] ;
616 -> 618 ;
619 [label=<5 &le; 1990.5<br/>gini = 0.539<br/>samples = 157<br/>value = [0, 58, 89, 0, 1, 9, 0]<br/>class = Ponderosa Pine>, fillcolor="#c1f7c7"] ;
613 -> 619 ;
620 [label=<6 &le; 218.5<br/>gini = 0.553<br/>samples = 103<br/>value = [0, 58, 36, 0, 0, 9, 0]<br/>class = Lodgepole Pine>, fillcolor="#e7f6be"] ;
619 -> 620 ;
621 [label=<gini = 0.105<br/>samples = 54<br/>value = [0, 51, 3, 0, 0, 0, 0]<br/>class = Lodgepole Pine>, fillcolor="#bbe745"] ;
620 -> 621 ;
622 [label=<gini = 0.492<br/>samples = 49<br/>value = [0, 7, 33, 0, 0, 9, 0]<br/>class = Ponderosa Pine>, fillcolor="#88ef94"] ;
620 -> 622 ;
623 [label=<1 &le; 109.0<br/>gini = 0.036<br/>samples = 54<br/>value = [0, 0, 53, 0, 1, 0, 0]<br/>class = Ponderosa Pine>, fillcolor="#3de550"] ;
619 -> 623 ;
624 [label=<gini = 0.0<br/>samples = 1<br/>value = [0, 0, 0, 0, 1, 0, 0]<br/>class = Aspen>, fillcolor="#3956e5"] ;
623 -> 624 ;
625 [label=<gini = 0.0<br/>samples = 53<br/>value = [0, 0, 53, 0, 0, 0, 0]<br/>class = Ponderosa Pine>, fillcolor="#39e54d"] ;
623 -> 625 ;
626 [label=<1 &le; 94.5<br/>gini = 0.143<br/>samples = 342<br/>value = [0, 16, 316, 0, 0, 10, 0]<br/>class = Ponderosa Pine>, fillcolor="#49e75b"] ;
612 -> 626 ;
627 [label=<5 &le; 1053.5<br/>gini = 0.562<br/>samples = 11<br/>value = [0, 1, 6, 0, 0, 4, 0]<br/>class = Ponderosa Pine>, fillcolor="#c6f8cc"] ;
626 -> 627 ;
628 [label=<gini = 0.0<br/>samples = 6<br/>value = [0, 0, 6, 0, 0, 0, 0]<br/>class = Ponderosa Pine>, fillcolor="#39e54d"] ;
627 -> 628 ;
629 [label=<3 &le; 353.5<br/>gini = 0.32<br/>samples = 5<br/>value = [0, 1, 0, 0, 0, 4, 0]<br/>class = Douglas-fir>, fillcolor="#c46aec"] ;
627 -> 629 ;
630 [label=<gini = 0.0<br/>samples = 4<br/>value = [0, 0, 0, 0, 0, 4, 0]<br/>class = Douglas-fir>, fillcolor="#b139e5"] ;
629 -> 630 ;
631 [label=<gini = 0.0<br/>samples = 1<br/>value = [0, 1, 0, 0, 0, 0, 0]<br/>class = Lodgepole Pine>, fillcolor="#b7e539"] ;
629 -> 631 ;
632 [label=<0 &le; 2672.5<br/>gini = 0.12<br/>samples = 331<br/>value = [0, 15, 310, 0, 0, 6, 0]<br/>class = Ponderosa Pine>, fillcolor="#46e759"] ;
626 -> 632 ;
633 [label=<2 &le; 12.5<br/>gini = 0.018<br/>samples = 223<br/>value = [0, 1, 221, 0, 0, 1, 0]<br/>class = Ponderosa Pine>, fillcolor="#3be54f"] ;
632 -> 633 ;
634 [label=<gini = 0.24<br/>samples = 15<br/>value = [0, 1, 13, 0, 0, 1, 0]<br/>class = Ponderosa Pine>, fillcolor="#55e966"] ;
633 -> 634 ;
635 [label=<gini = 0.0<br/>samples = 208<br/>value = [0, 0, 208, 0, 0, 0, 0]<br/>class = Ponderosa Pine>, fillcolor="#39e54d"] ;
633 -> 635 ;
636 [label=<9 &le; 1404.5<br/>gini = 0.302<br/>samples = 108<br/>value = [0, 14, 89, 0, 0, 5, 0]<br/>class = Ponderosa Pine>, fillcolor="#61ea71"] ;
632 -> 636 ;
637 [label=<gini = 0.034<br/>samples = 58<br/>value = [0, 1, 57, 0, 0, 0, 0]<br/>class = Ponderosa Pine>, fillcolor="#3ce550"] ;
636 -> 637 ;
638 [label=<gini = 0.513<br/>samples = 50<br/>value = [0, 13, 32, 0, 0, 5, 0]<br/>class = Ponderosa Pine>, fillcolor="#99f2a4"] ;
636 -> 638 ;
639 [label=<5 &le; 1235.0<br/>gini = 0.549<br/>samples = 4272<br/>value = [106, 2696, 801, 0, 550, 41, 78]<br/>class = Lodgepole Pine>, fillcolor="#d8f193"] ;
547 -> 639 ;
640 [label=<9 &le; 422.5<br/>gini = 0.608<br/>samples = 1025<br/>value = [53, 421, 57, 0, 478, 16, 0]<br/>class = Aspen>, fillcolor="#eceffd"] ;
639 -> 640 ;
641 [label=<5 &le; 697.0<br/>gini = 0.403<br/>samples = 68<br/>value = [0, 2, 50, 0, 0, 16, 0]<br/>class = Ponderosa Pine>, fillcolor="#7eee8b"] ;
640 -> 641 ;
642 [label=<1 &le; 95.0<br/>gini = 0.175<br/>samples = 53<br/>value = [0, 2, 48, 0, 0, 3, 0]<br/>class = Ponderosa Pine>, fillcolor="#4de85f"] ;
641 -> 642 ;
643 [label=<gini = 0.0<br/>samples = 2<br/>value = [0, 2, 0, 0, 0, 0, 0]<br/>class = Lodgepole Pine>, fillcolor="#b7e539"] ;
642 -> 643 ;
644 [label=<4 &le; -30.0<br/>gini = 0.111<br/>samples = 51<br/>value = [0, 0, 48, 0, 0, 3, 0]<br/>class = Ponderosa Pine>, fillcolor="#45e758"] ;
642 -> 644 ;
645 [label=<1 &le; 143.0<br/>gini = 0.5<br/>samples = 4<br/>value = [0, 0, 2, 0, 0, 2, 0]<br/>class = Ponderosa Pine>, fillcolor="#ffffff"] ;
644 -> 645 ;
646 [label=<gini = 0.0<br/>samples = 2<br/>value = [0, 0, 0, 0, 0, 2, 0]<br/>class = Douglas-fir>, fillcolor="#b139e5"] ;
645 -> 646 ;
647 [label=<gini = 0.0<br/>samples = 2<br/>value = [0, 0, 2, 0, 0, 0, 0]<br/>class = Ponderosa Pine>, fillcolor="#39e54d"] ;
645 -> 647 ;
648 [label=<5 &le; 684.5<br/>gini = 0.042<br/>samples = 47<br/>value = [0, 0, 46, 0, 0, 1, 0]<br/>class = Ponderosa Pine>, fillcolor="#3de651"] ;
644 -> 648 ;
649 [label=<gini = 0.0<br/>samples = 42<br/>value = [0, 0, 42, 0, 0, 0, 0]<br/>class = Ponderosa Pine>, fillcolor="#39e54d"] ;
