digraph Tree {
node [shape=box, style="filled, rounded", color="black", fontname=helvetica] ;
edge [fontname=helvetica] ;
0 [label=<Number of positive axillary nodes detected &le; 4.5<br/>gini = 0.389<br/>samples = 306<br/>value = [225, 81]<br/>class = suvived>, fillcolor="#eeae80"] ;
1 [label=<Age &le; 77.5<br/>gini = 0.299<br/>samples = 230<br/>value = [188, 42]<br/>class = suvived>, fillcolor="#eb9d65"] ;
0 -> 1 [labeldistance=2.5, labelangle=45, headlabel="True"] ;
2 [label=<Number of positive axillary nodes detected &le; 2.5<br/>gini = 0.289<br/>samples = 228<br/>value = [188, 40]<br/>class = suvived>, fillcolor="#eb9c63"] ;
1 -> 2 ;
3 [label=<Age &le; 47.5<br/>gini = 0.26<br/>samples = 195<br/>value = [165, 30]<br/>class = suvived>, fillcolor="#ea985d"] ;
2 -> 3 ;
4 [label=<Age &le; 40.5<br/>gini = 0.331<br/>samples = 67<br/>value = [53, 14]<br/>class = suvived>, fillcolor="#eca26d"] ;
3 -> 4 ;
5 [label=< Patient year of operation &le; 65.5<br/>gini = 0.133<br/>samples = 28<br/>value = [26, 2]<br/>class = suvived>, fillcolor="#e78b48"] ;
4 -> 5 ;
6 [label=<Age &le; 34.5<br/>gini = 0.08<br/>samples = 24<br/>value = [23, 1]<br/>class = suvived>, fillcolor="#e68642"] ;
5 -> 6 ;
7 [label=< Patient year of operation &le; 59.5<br/>gini = 0.245<br/>samples = 7<br/>value = [6, 1]<br/>class = suvived>, fillcolor="#e9965a"] ;
6 -> 7 ;
8 [label=<Number of positive axillary nodes detected &le; 1.0<br/>gini = 0.5<br/>samples = 2<br/>value = [1, 1]<br/>class = suvived>, fillcolor="#ffffff"] ;
7 -> 8 ;
9 [label=<gini = 0.0<br/>samples = 1<br/>value = [0, 1]<br/>class = died>, fillcolor="#399de5"] ;
8 -> 9 ;
10 [label=<gini = 0.0<br/>samples = 1<br/>value = [1, 0]<br/>class = suvived>, fillcolor="#e58139"] ;
8 -> 10 ;
11 [label=<gini = 0.0<br/>samples = 5<br/>value = [5, 0]<br/>class = suvived>, fillcolor="#e58139"] ;
7 -> 11 ;
12 [label=<gini = 0.0<br/>samples = 17<br/>value = [17, 0]<br/>class = suvived>, fillcolor="#e58139"] ;
6 -> 12 ;
13 [label=< Patient year of operation &le; 66.5<br/>gini = 0.375<br/>samples = 4<br/>value = [3, 1]<br/>class = suvived>, fillcolor="#eeab7b"] ;
5 -> 13 ;
14 [label=<Age &le; 38.5<br/>gini = 0.5<br/>samples = 2<br/>value = [1, 1]<br/>class = suvived>, fillcolor="#ffffff"] ;
13 -> 14 ;
15 [label=<gini = 0.0<br/>samples = 1<br/>value = [1, 0]<br/>class = suvived>, fillcolor="#e58139"] ;
14 -> 15 ;
16 [label=<gini = 0.0<br/>samples = 1<br/>value = [0, 1]<br/>class = died>, fillcolor="#399de5"] ;
14 -> 16 ;
17 [label=<gini = 0.0<br/>samples = 2<br/>value = [2, 0]<br/>class = suvived>, fillcolor="#e58139"] ;
13 -> 17 ;
18 [label=< Patient year of operation &le; 68.5<br/>gini = 0.426<br/>samples = 39<br/>value = [27, 12]<br/>class = suvived>, fillcolor="#f1b991"] ;
4 -> 18 ;
19 [label=< Patient year of operation &le; 63.5<br/>gini = 0.411<br/>samples = 38<br/>value = [27, 11]<br/>class = suvived>, fillcolor="#f0b48a"] ;
18 -> 19 ;
20 [label=< Patient year of operation &le; 59.5<br/>gini = 0.332<br/>samples = 19<br/>value = [15, 4]<br/>class = suvived>, fillcolor="#eca36e"] ;
19 -> 20 ;
21 [label=<Age &le; 42.5<br/>gini = 0.49<br/>samples = 7<br/>value = [4, 3]<br/>class = suvived>, fillcolor="#f8e0ce"] ;
20 -> 21 ;
22 [label=<Age &le; 41.5<br/>gini = 0.32<br/>samples = 5<br/>value = [4, 1]<br/>class = suvived>, fillcolor="#eca06a"] ;
21 -> 22 ;
23 [label=<gini = 0.0<br/>samples = 2<br/>value = [2, 0]<br/>class = suvived>, fillcolor="#e58139"] ;
22 -> 23 ;
24 [label=< Patient year of operation &le; 58.5<br/>gini = 0.444<br/>samples = 3<br/>value = [2, 1]<br/>class = suvived>, fillcolor="#f2c09c"] ;
22 -> 24 ;
25 [label=<gini = 0.0<br/>samples = 1<br/>value = [1, 0]<br/>class = suvived>, fillcolor="#e58139"] ;
24 -> 25 ;
26 [label=<Number of positive axillary nodes detected &le; 1.0<br/>gini = 0.5<br/>samples = 2<br/>value = [1, 1]<br/>class = suvived>, fillcolor="#ffffff"] ;
24 -> 26 ;
27 [label=<gini = 0.0<br/>samples = 1<br/>value = [0, 1]<br/>class = died>, fillcolor="#399de5"] ;
26 -> 27 ;
28 [label=<gini = 0.0<br/>samples = 1<br/>value = [1, 0]<br/>class = suvived>, fillcolor="#e58139"] ;
26 -> 28 ;
29 [label=<gini = 0.0<br/>samples = 2<br/>value = [0, 2]<br/>class = died>, fillcolor="#399de5"] ;
21 -> 29 ;
30 [label=<Age &le; 46.5<br/>gini = 0.153<br/>samples = 12<br/>value = [11, 1]<br/>class = suvived>, fillcolor="#e78c4b"] ;
20 -> 30 ;
31 [label=<gini = 0.0<br/>samples = 10<br/>value = [10, 0]<br/>class = suvived>, fillcolor="#e58139"] ;
30 -> 31 ;
32 [label=< Patient year of operation &le; 61.5<br/>gini = 0.5<br/>samples = 2<br/>value = [1, 1]<br/>class = suvived>, fillcolor="#ffffff"] ;
30 -> 32 ;
33 [label=<gini = 0.0<br/>samples = 1<br/>value = [1, 0]<br/>class = suvived>, fillcolor="#e58139"] ;
32 -> 33 ;
34 [label=<gini = 0.0<br/>samples = 1<br/>value = [0, 1]<br/>class = died>, fillcolor="#399de5"] ;
32 -> 34 ;
35 [label=< Patient year of operation &le; 64.5<br/>gini = 0.465<br/>samples = 19<br/>value = [12, 7]<br/>class = suvived>, fillcolor="#f4caac"] ;
19 -> 35 ;
36 [label=<Number of positive axillary nodes detected &le; 1.0<br/>gini = 0.5<br/>samples = 6<br/>value = [3, 3]<br/>class = suvived>, fillcolor="#ffffff"] ;
35 -> 36 ;
37 [label=<Age &le; 44.0<br/>gini = 0.48<br/>samples = 5<br/>value = [2, 3]<br/>class = died>, fillcolor="#bddef6"] ;
36 -> 37 ;
38 [label=<Age &le; 42.0<br/>gini = 0.375<br/>samples = 4<br/>value = [1, 3]<br/>class = died>, fillcolor="#7bbeee"] ;
37 -> 38 ;
39 [label=<gini = 0.5<br/>samples = 2<br/>value = [1, 1]<br/>class = suvived>, fillcolor="#ffffff"] ;
38 -> 39 ;
40 [label=<gini = 0.0<br/>samples = 2<br/>value = [0, 2]<br/>class = died>, fillcolor="#399de5"] ;
38 -> 40 ;
41 [label=<gini = 0.0<br/>samples = 1<br/>value = [1, 0]<br/>class = suvived>, fillcolor="#e58139"] ;
37 -> 41 ;
42 [label=<gini = 0.0<br/>samples = 1<br/>value = [1, 0]<br/>class = suvived>, fillcolor="#e58139"] ;
36 -> 42 ;
43 [label=< Patient year of operation &le; 67.5<br/>gini = 0.426<br/>samples = 13<br/>value = [9, 4]<br/>class = suvived>, fillcolor="#f1b991"] ;
35 -> 43 ;
44 [label=<Age &le; 44.0<br/>gini = 0.444<br/>samples = 12<br/>value = [8, 4]<br/>class = suvived>, fillcolor="#f2c09c"] ;
43 -> 44 ;
45 [label=< Patient year of operation &le; 66.0<br/>gini = 0.32<br/>samples = 5<br/>value = [4, 1]<br/>class = suvived>, fillcolor="#eca06a"] ;
44 -> 45 ;
46 [label=<gini = 0.0<br/>samples = 4<br/>value = [4, 0]<br/>class = suvived>, fillcolor="#e58139"] ;
45 -> 46 ;
47 [label=<gini = 0.0<br/>samples = 1<br/>value = [0, 1]<br/>class = died>, fillcolor="#399de5"] ;
45 -> 47 ;
48 [label=< Patient year of operation &le; 65.5<br/>gini = 0.49<br/>samples = 7<br/>value = [4, 3]<br/>class = suvived>, fillcolor="#f8e0ce"] ;
44 -> 48 ;
49 [label=<gini = 0.0<br/>samples = 1<br/>value = [0, 1]<br/>class = died>, fillcolor="#399de5"] ;
48 -> 49 ;
50 [label=<Age &le; 46.0<br/>gini = 0.444<br/>samples = 6<br/>value = [4, 2]<br/>class = suvived>, fillcolor="#f2c09c"] ;
48 -> 50 ;
51 [label=< Patient year of operation &le; 66.5<br/>gini = 0.5<br/>samples = 4<br/>value = [2, 2]<br/>class = suvived>, fillcolor="#ffffff"] ;
50 -> 51 ;
52 [label=<gini = 0.0<br/>samples = 1<br/>value = [0, 1]<br/>class = died>, fillcolor="#399de5"] ;
51 -> 52 ;
53 [label=<Number of positive axillary nodes detected &le; 0.5<br/>gini = 0.444<br/>samples = 3<br/>value = [2, 1]<br/>class = suvived>, fillcolor="#f2c09c"] ;
51 -> 53 ;
54 [label=<gini = 0.0<br/>samples = 1<br/>value = [1, 0]<br/>class = suvived>, fillcolor="#e58139"] ;
53 -> 54 ;
55 [label=<gini = 0.5<br/>samples = 2<br/>value = [1, 1]<br/>class = suvived>, fillcolor="#ffffff"] ;
53 -> 55 ;
56 [label=<gini = 0.0<br/>samples = 2<br/>value = [2, 0]<br/>class = suvived>, fillcolor="#e58139"] ;
50 -> 56 ;
57 [label=<gini = 0.0<br/>samples = 1<br/>value = [1, 0]<br/>class = suvived>, fillcolor="#e58139"] ;
43 -> 57 ;
58 [label=<gini = 0.0<br/>samples = 1<br/>value = [0, 1]<br/>class = died>, fillcolor="#399de5"] ;
18 -> 58 ;
59 [label=< Patient year of operation &le; 65.5<br/>gini = 0.219<br/>samples = 128<br/>value = [112, 16]<br/>class = suvived>, fillcolor="#e99355"] ;
3 -> 59 ;
60 [label=<Age &le; 59.5<br/>gini = 0.275<br/>samples = 91<br/>value = [76, 15]<br/>class = suvived>, fillcolor="#ea9a60"] ;
59 -> 60 ;
61 [label=< Patient year of operation &le; 62.5<br/>gini = 0.174<br/>samples = 52<br/>value = [47, 5]<br/>class = suvived>, fillcolor="#e88e4e"] ;
60 -> 61 ;
62 [label=<Number of positive axillary nodes detected &le; 1.5<br/>gini = 0.056<br/>samples = 35<br/>value = [34, 1]<br/>class = suvived>, fillcolor="#e6853f"] ;
61 -> 62 ;
63 [label=<gini = 0.0<br/>samples = 30<br/>value = [30, 0]<br/>class = suvived>, fillcolor="#e58139"] ;
62 -> 63 ;
64 [label=< Patient year of operation &le; 59.5<br/>gini = 0.32<br/>samples = 5<br/>value = [4, 1]<br/>class = suvived>, fillcolor="#eca06a"] ;
62 -> 64 ;
65 [label=<Age &le; 51.0<br/>gini = 0.5<br/>samples = 2<br/>value = [1, 1]<br/>class = suvived>, fillcolor="#ffffff"] ;
64 -> 65 ;
66 [label=<gini = 0.0<br/>samples = 1<br/>value = [1, 0]<br/>class = suvived>, fillcolor="#e58139"] ;
65 -> 66 ;
67 [label=<gini = 0.0<br/>samples = 1<br/>value = [0, 1]<br/>class = died>, fillcolor="#399de5"] ;
65 -> 67 ;
68 [label=<gini = 0.0<br/>samples = 3<br/>value = [3, 0]<br/>class = suvived>, fillcolor="#e58139"] ;
64 -> 68 ;
69 [label=<Number of positive axillary nodes detected &le; 0.5<br/>gini = 0.36<br/>samples = 17<br/>value = [13, 4]<br/>class = suvived>, fillcolor="#eda876"] ;
61 -> 69 ;
70 [label=<Age &le; 50.5<br/>gini = 0.26<br/>samples = 13<br/>value = [11, 2]<br/>class = suvived>, fillcolor="#ea985d"] ;
69 -> 70 ;
71 [label=<Age &le; 48.5<br/>gini = 0.5<br/>samples = 4<br/>value = [2, 2]<br/>class = suvived>, fillcolor="#ffffff"] ;
70 -> 71 ;
72 [label=<gini = 0.0<br/>samples = 1<br/>value = [1, 0]<br/>class = suvived>, fillcolor="#e58139"] ;
71 -> 72 ;
73 [label=< Patient year of operation &le; 63.5<br/>gini = 0.444<br/>samples = 3<br/>value = [1, 2]<br/>class = died>, fillcolor="#9ccef2"] ;
71 -> 73 ;
74 [label=<gini = 0.0<br/>samples = 1<br/>value = [0, 1]<br/>class = died>, fillcolor="#399de5"] ;
73 -> 74 ;
75 [label=<gini = 0.5<br/>samples = 2<br/>value = [1, 1]<br/>class = suvived>, fillcolor="#ffffff"] ;
73 -> 75 ;
76 [label=<gini = 0.0<br/>samples = 9<br/>value = [9, 0]<br/>class = suvived>, fillcolor="#e58139"] ;
70 -> 76 ;
77 [label=< Patient year of operation &le; 63.5<br/>gini = 0.5<br/>samples = 4<br/>value = [2, 2]<br/>class = suvived>, fillcolor="#ffffff"] ;
69 -> 77 ;
78 [label=<gini = 0.0<br/>samples = 1<br/>value = [1, 0]<br/>class = suvived>, fillcolor="#e58139"] ;
77 -> 78 ;
79 [label=<Age &le; 58.0<br/>gini = 0.444<br/>samples = 3<br/>value = [1, 2]<br/>class = died>, fillcolor="#9ccef2"] ;
77 -> 79 ;
80 [label=<gini = 0.0<br/>samples = 2<br/>value = [0, 2]<br/>class = died>, fillcolor="#399de5"] ;
79 -> 80 ;
81 [label=<gini = 0.0<br/>samples = 1<br/>value = [1, 0]<br/>class = suvived>, fillcolor="#e58139"] ;
79 -> 81 ;
82 [label=< Patient year of operation &le; 58.5<br/>gini = 0.381<br/>samples = 39<br/>value = [29, 10]<br/>class = suvived>, fillcolor="#eeac7d"] ;
60 -> 82 ;
83 [label=<Age &le; 71.0<br/>gini = 0.48<br/>samples = 10<br/>value = [6, 4]<br/>class = suvived>, fillcolor="#f6d5bd"] ;
82 -> 83 ;
84 [label=<Age &le; 68.0<br/>gini = 0.494<br/>samples = 9<br/>value = [5, 4]<br/>class = suvived>, fillcolor="#fae6d7"] ;
83 -> 84 ;
85 [label=<Number of positive axillary nodes detected &le; 0.5<br/>gini = 0.469<br/>samples = 8<br/>value = [5, 3]<br/>class = suvived>, fillcolor="#f5cdb0"] ;
84 -> 85 ;
86 [label=<Age &le; 64.5<br/>gini = 0.49<br/>samples = 7<br/>value = [4, 3]<br/>class = suvived>, fillcolor="#f8e0ce"] ;
85 -> 86 ;
87 [label=<Age &le; 63.0<br/>gini = 0.444<br/>samples = 3<br/>value = [2, 1]<br/>class = suvived>, fillcolor="#f2c09c"] ;
86 -> 87 ;
88 [label=<gini = 0.5<br/>samples = 2<br/>value = [1, 1]<br/>class = suvived>, fillcolor="#ffffff"] ;
87 -> 88 ;
89 [label=<gini = 0.0<br/>samples = 1<br/>value = [1, 0]<br/>class = suvived>, fillcolor="#e58139"] ;
87 -> 89 ;
90 [label=<Age &le; 65.5<br/>gini = 0.5<br/>samples = 4<br/>value = [2, 2]<br/>class = suvived>, fillcolor="#ffffff"] ;
86 -> 90 ;
91 [label=<gini = 0.5<br/>samples = 2<br/>value = [1, 1]<br/>class = suvived>, fillcolor="#ffffff"] ;
90 -> 91 ;
92 [label=<gini = 0.5<br/>samples = 2<br/>value = [1, 1]<br/>class = suvived>, fillcolor="#ffffff"] ;
90 -> 92 ;
93 [label=<gini = 0.0<br/>samples = 1<br/>value = [1, 0]<br/>class = suvived>, fillcolor="#e58139"] ;
85 -> 93 ;
94 [label=<gini = 0.0<br/>samples = 1<br/>value = [0, 1]<br/>class = died>, fillcolor="#399de5"] ;
84 -> 94 ;
95 [label=<gini = 0.0<br/>samples = 1<br/>value = [1, 0]<br/>class = suvived>, fillcolor="#e58139"] ;
83 -> 95 ;
96 [label=<Number of positive axillary nodes detected &le; 0.5<br/>gini = 0.328<br/>samples = 29<br/>value = [23, 6]<br/>class = suvived>, fillcolor="#eca26d"] ;
82 -> 96 ;
97 [label=< Patient year of operation &le; 64.5<br/>gini = 0.227<br/>samples = 23<br/>value = [20, 3]<br/>class = suvived>, fillcolor="#e99457"] ;
96 -> 97 ;
98 [label=<Age &le; 71.0<br/>gini = 0.1<br/>samples = 19<br/>value = [18, 1]<br/>class = suvived>, fillcolor="#e68844"] ;
97 -> 98 ;
99 [label=<gini = 0.0<br/>samples = 15<br/>value = [15, 0]<br/>class = suvived>, fillcolor="#e58139"] ;
98 -> 99 ;
100 [label=<Age &le; 72.5<br/>gini = 0.375<br/>samples = 4<br/>value = [3, 1]<br/>class = suvived>, fillcolor="#eeab7b"] ;
98 -> 100 ;
101 [label=< Patient year of operation &le; 63.5<br/>gini = 0.5<br/>samples = 2<br/>value = [1, 1]<br/>class = suvived>, fillcolor="#ffffff"] ;
100 -> 101 ;
102 [label=<gini = 0.0<br/>samples = 1<br/>value = [0, 1]<br/>class = died>, fillcolor="#399de5"] ;
101 -> 102 ;
103 [label=<gini = 0.0<br/>samples = 1<br/>value = [1, 0]<br/>class = suvived>, fillcolor="#e58139"] ;
101 -> 103 ;
104 [label=<gini = 0.0<br/>samples = 2<br/>value = [2, 0]<br/>class = suvived>, fillcolor="#e58139"] ;
100 -> 104 ;
105 [label=<Age &le; 64.0<br/>gini = 0.5<br/>samples = 4<br/>value = [2, 2]<br/>class = suvived>, fillcolor="#ffffff"] ;
97 -> 105 ;
106 [label=<gini = 0.0<br/>samples = 2<br/>value = [0, 2]<br/>class = died>, fillcolor="#399de5"] ;
105 -> 106 ;
107 [label=<gini = 0.0<br/>samples = 2<br/>value = [2, 0]<br/>class = suvived>, fillcolor="#e58139"] ;
105 -> 107 ;
108 [label=< Patient year of operation &le; 59.5<br/>gini = 0.5<br/>samples = 6<br/>value = [3, 3]<br/>class = suvived>, fillcolor="#ffffff"] ;
96 -> 108 ;
109 [label=<gini = 0.0<br/>samples = 1<br/>value = [1, 0]<br/>class = suvived>, fillcolor="#e58139"] ;
108 -> 109 ;
110 [label=<Age &le; 61.5<br/>gini = 0.48<br/>samples = 5<br/>value = [2, 3]<br/>class = died>, fillcolor="#bddef6"] ;
108 -> 110 ;
111 [label=<gini = 0.0<br/>samples = 1<br/>value = [1, 0]<br/>class = suvived>, fillcolor="#e58139"] ;
110 -> 111 ;
112 [label=<Age &le; 71.0<br/>gini = 0.375<br/>samples = 4<br/>value = [1, 3]<br/>class = died>, fillcolor="#7bbeee"] ;
110 -> 112 ;
113 [label=<gini = 0.0<br/>samples = 3<br/>value = [0, 3]<br/>class = died>, fillcolor="#399de5"] ;
112 -> 113 ;
114 [label=<gini = 0.0<br/>samples = 1<br/>value = [1, 0]<br/>class = suvived>, fillcolor="#e58139"] ;
112 -> 114 ;
115 [label=<Number of positive axillary nodes detected &le; 0.5<br/>gini = 0.053<br/>samples = 37<br/>value = [36, 1]<br/>class = suvived>, fillcolor="#e6843e"] ;
59 -> 115 ;
116 [label=<gini = 0.0<br/>samples = 27<br/>value = [27, 0]<br/>class = suvived>, fillcolor="#e58139"] ;
115 -> 116 ;
117 [label=< Patient year of operation &le; 67.5<br/>gini = 0.18<br/>samples = 10<br/>value = [9, 1]<br/>class = suvived>, fillcolor="#e88f4f"] ;
115 -> 117 ;
118 [label=<gini = 0.0<br/>samples = 8<br/>value = [8, 0]<br/>class = suvived>, fillcolor="#e58139"] ;
117 -> 118 ;
119 [label=<Number of positive axillary nodes detected &le; 1.5<br/>gini = 0.5<br/>samples = 2<br/>value = [1, 1]<br/>class = suvived>, fillcolor="#ffffff"] ;
117 -> 119 ;
120 [label=<gini = 0.0<br/>samples = 1<br/>value = [0, 1]<br/>class = died>, fillcolor="#399de5"] ;
119 -> 120 ;
121 [label=<gini = 0.0<br/>samples = 1<br/>value = [1, 0]<br/>class = suvived>, fillcolor="#e58139"] ;
119 -> 121 ;
122 [label=<Age &le; 50.5<br/>gini = 0.422<br/>samples = 33<br/>value = [23, 10]<br/>class = suvived>, fillcolor="#f0b88f"] ;
2 -> 122 ;
123 [label=< Patient year of operation &le; 68.5<br/>gini = 0.133<br/>samples = 14<br/>value = [13, 1]<br/>class = suvived>, fillcolor="#e78b48"] ;
122 -> 123 ;
124 [label=<gini = 0.0<br/>samples = 13<br/>value = [13, 0]<br/>class = suvived>, fillcolor="#e58139"] ;
123 -> 124 ;
125 [label=<gini = 0.0<br/>samples = 1<br/>value = [0, 1]<br/>class = died>, fillcolor="#399de5"] ;
123 -> 125 ;
126 [label=<Age &le; 53.5<br/>gini = 0.499<br/>samples = 19<br/>value = [10, 9]<br/>class = suvived>, fillcolor="#fcf2eb"] ;
122 -> 126 ;
127 [label=<Number of positive axillary nodes detected &le; 3.5<br/>gini = 0.375<br/>samples = 8<br/>value = [2, 6]<br/>class = died>, fillcolor="#7bbeee"] ;
126 -> 127 ;
128 [label=<gini = 0.0<br/>samples = 4<br/>value = [0, 4]<br/>class = died>, fillcolor="#399de5"] ;
127 -> 128 ;
129 [label=< Patient year of operation &le; 59.0<br/>gini = 0.5<br/>samples = 4<br/>value = [2, 2]<br/>class = suvived>, fillcolor="#ffffff"] ;
127 -> 129 ;
130 [label=<gini = 0.0<br/>samples = 1<br/>value = [0, 1]<br/>class = died>, fillcolor="#399de5"] ;
129 -> 130 ;
131 [label=< Patient year of operation &le; 64.5<br/>gini = 0.444<br/>samples = 3<br/>value = [2, 1]<br/>class = suvived>, fillcolor="#f2c09c"] ;
129 -> 131 ;
132 [label=<gini = 0.0<br/>samples = 2<br/>value = [2, 0]<br/>class = suvived>, fillcolor="#e58139"] ;
131 -> 132 ;
133 [label=<gini = 0.0<br/>samples = 1<br/>value = [0, 1]<br/>class = died>, fillcolor="#399de5"] ;
131 -> 133 ;
134 [label=<Age &le; 64.5<br/>gini = 0.397<br/>samples = 11<br/>value = [8, 3]<br/>class = suvived>, fillcolor="#efb083"] ;
126 -> 134 ;
135 [label=<Age &le; 57.0<br/>gini = 0.245<br/>samples = 7<br/>value = [6, 1]<br/>class = suvived>, fillcolor="#e9965a"] ;
134 -> 135 ;
136 [label=<Age &le; 55.5<br/>gini = 0.444<br/>samples = 3<br/>value = [2, 1]<br/>class = suvived>, fillcolor="#f2c09c"] ;
135 -> 136 ;
137 [label=<gini = 0.0<br/>samples = 2<br/>value = [2, 0]<br/>class = suvived>, fillcolor="#e58139"] ;
136 -> 137 ;
138 [label=<gini = 0.0<br/>samples = 1<br/>value = [0, 1]<br/>class = died>, fillcolor="#399de5"] ;
136 -> 138 ;
139 [label=<gini = 0.0<br/>samples = 4<br/>value = [4, 0]<br/>class = suvived>, fillcolor="#e58139"] ;
135 -> 139 ;
140 [label=<Number of positive axillary nodes detected &le; 3.5<br/>gini = 0.5<br/>samples = 4<br/>value = [2, 2]<br/>class = suvived>, fillcolor="#ffffff"] ;
134 -> 140 ;
141 [label=< Patient year of operation &le; 66.0<br/>gini = 0.444<br/>samples = 3<br/>value = [2, 1]<br/>class = suvived>, fillcolor="#f2c09c"] ;
140 -> 141 ;
142 [label=<Age &le; 75.5<br/>gini = 0.5<br/>samples = 2<br/>value = [1, 1]<br/>class = suvived>, fillcolor="#ffffff"] ;
141 -> 142 ;
143 [label=<gini = 0.0<br/>samples = 1<br/>value = [0, 1]<br/>class = died>, fillcolor="#399de5"] ;
142 -> 143 ;
144 [label=<gini = 0.0<br/>samples = 1<br/>value = [1, 0]<br/>class = suvived>, fillcolor="#e58139"] ;
142 -> 144 ;
145 [label=<gini = 0.0<br/>samples = 1<br/>value = [1, 0]<br/>class = suvived>, fillcolor="#e58139"] ;
141 -> 145 ;
146 [label=<gini = 0.0<br/>samples = 1<br/>value = [0, 1]<br/>class = died>, fillcolor="#399de5"] ;
140 -> 146 ;
147 [label=<gini = 0.0<br/>samples = 2<br/>value = [0, 2]<br/>class = died>, fillcolor="#399de5"] ;
1 -> 147 ;
148 [label=<Age &le; 42.5<br/>gini = 0.5<br/>samples = 76<br/>value = [37, 39]<br/>class = died>, fillcolor="#f5fafe"] ;
0 -> 148 [labeldistance=2.5, labelangle=-45, headlabel="False"] ;
149 [label=<Number of positive axillary nodes detected &le; 20.5<br/>gini = 0.32<br/>samples = 15<br/>value = [12, 3]<br/>class = suvived>, fillcolor="#eca06a"] ;
148 -> 149 ;
150 [label=<Age &le; 34.5<br/>gini = 0.153<br/>samples = 12<br/>value = [11, 1]<br/>class = suvived>, fillcolor="#e78c4b"] ;
149 -> 150 ;
151 [label=<Number of positive axillary nodes detected &le; 9.5<br/>gini = 0.375<br/>samples = 4<br/>value = [3, 1]<br/>class = suvived>, fillcolor="#eeab7b"] ;
150 -> 151 ;
152 [label=< Patient year of operation &le; 66.5<br/>gini = 0.5<br/>samples = 2<br/>value = [1, 1]<br/>class = suvived>, fillcolor="#ffffff"] ;
151 -> 152 ;
153 [label=<gini = 0.0<br/>samples = 1<br/>value = [0, 1]<br/>class = died>, fillcolor="#399de5"] ;
152 -> 153 ;
154 [label=<gini = 0.0<br/>samples = 1<br/>value = [1, 0]<br/>class = suvived>, fillcolor="#e58139"] ;
152 -> 154 ;
155 [label=<gini = 0.0<br/>samples = 2<br/>value = [2, 0]<br/>class = suvived>, fillcolor="#e58139"] ;
151 -> 155 ;
156 [label=<gini = 0.0<br/>samples = 8<br/>value = [8, 0]<br/>class = suvived>, fillcolor="#e58139"] ;
150 -> 156 ;
157 [label=<Age &le; 36.0<br/>gini = 0.444<br/>samples = 3<br/>value = [1, 2]<br/>class = died>, fillcolor="#9ccef2"] ;
149 -> 157 ;
158 [label=<gini = 0.0<br/>samples = 1<br/>value = [1, 0]<br/>class = suvived>, fillcolor="#e58139"] ;
157 -> 158 ;
159 [label=<gini = 0.0<br/>samples = 2<br/>value = [0, 2]<br/>class = died>, fillcolor="#399de5"] ;
157 -> 159 ;
160 [label=< Patient year of operation &le; 68.5<br/>gini = 0.484<br/>samples = 61<br/>value = [25, 36]<br/>class = died>, fillcolor="#c2e1f7"] ;
148 -> 160 ;
161 [label=<Age &le; 69.5<br/>gini = 0.476<br/>samples = 59<br/>value = [23, 36]<br/>class = died>, fillcolor="#b8dcf6"] ;
160 -> 161 ;
162 [label=<Age &le; 64.5<br/>gini = 0.465<br/>samples = 57<br/>value = [21, 36]<br/>class = died>, fillcolor="#acd6f4"] ;
161 -> 162 ;
163 [label=<Age &le; 62.5<br/>gini = 0.482<br/>samples = 52<br/>value = [21, 31]<br/>class = died>, fillcolor="#bfdff7"] ;
162 -> 163 ;
164 [label=< Patient year of operation &le; 58.5<br/>gini = 0.465<br/>samples = 49<br/>value = [18, 31]<br/>class = died>, fillcolor="#acd6f4"] ;
163 -> 164 ;
165 [label=<gini = 0.0<br/>samples = 4<br/>value = [0, 4]<br/>class = died>, fillcolor="#399de5"] ;
164 -> 165 ;
166 [label=<Number of positive axillary nodes detected &le; 40.5<br/>gini = 0.48<br/>samples = 45<br/>value = [18, 27]<br/>class = died>, fillcolor="#bddef6"] ;
164 -> 166 ;
167 [label=<Number of positive axillary nodes detected &le; 8.5<br/>gini = 0.474<br/>samples = 44<br/>value = [17, 27]<br/>class = died>, fillcolor="#b6dbf5"] ;
166 -> 167 ;
168 [label=<Age &le; 46.5<br/>gini = 0.5<br/>samples = 18<br/>value = [9, 9]<br/>class = suvived>, fillcolor="#ffffff"] ;
167 -> 168 ;
169 [label=<gini = 0.0<br/>samples = 3<br/>value = [0, 3]<br/>class = died>, fillcolor="#399de5"] ;
168 -> 169 ;
170 [label=< Patient year of operation &le; 66.0<br/>gini = 0.48<br/>samples = 15<br/>value = [9, 6]<br/>class = suvived>, fillcolor="#f6d5bd"] ;
168 -> 170 ;
171 [label=<Number of positive axillary nodes detected &le; 5.5<br/>gini = 0.426<br/>samples = 13<br/>value = [9, 4]<br/>class = suvived>, fillcolor="#f1b991"] ;
170 -> 171 ;
172 [label=<Age &le; 53.0<br/>gini = 0.375<br/>samples = 4<br/>value = [1, 3]<br/>class = died>, fillcolor="#7bbeee"] ;
171 -> 172 ;
173 [label=<gini = 0.0<br/>samples = 1<br/>value = [1, 0]<br/>class = suvived>, fillcolor="#e58139"] ;
172 -> 173 ;
174 [label=<gini = 0.0<br/>samples = 3<br/>value = [0, 3]<br/>class = died>, fillcolor="#399de5"] ;
172 -> 174 ;
175 [label=<Number of positive axillary nodes detected &le; 6.5<br/>gini = 0.198<br/>samples = 9<br/>value = [8, 1]<br/>class = suvived>, fillcolor="#e89152"] ;
171 -> 175 ;
176 [label=<Age &le; 52.5<br/>gini = 0.375<br/>samples = 4<br/>value = [3, 1]<br/>class = suvived>, fillcolor="#eeab7b"] ;
175 -> 176 ;
177 [label=<gini = 0.0<br/>samples = 2<br/>value = [2, 0]<br/>class = suvived>, fillcolor="#e58139"] ;
176 -> 177 ;
178 [label=<Age &le; 58.5<br/>gini = 0.5<br/>samples = 2<br/>value = [1, 1]<br/>class = suvived>, fillcolor="#ffffff"] ;
176 -> 178 ;
179 [label=<gini = 0.0<br/>samples = 1<br/>value = [0, 1]<br/>class = died>, fillcolor="#399de5"] ;
178 -> 179 ;
180 [label=<gini = 0.0<br/>samples = 1<br/>value = [1, 0]<br/>class = suvived>, fillcolor="#e58139"] ;
178 -> 180 ;
181 [label=<gini = 0.0<br/>samples = 5<br/>value = [5, 0]<br/>class = suvived>, fillcolor="#e58139"] ;
175 -> 181 ;
182 [label=<gini = 0.0<br/>samples = 2<br/>value = [0, 2]<br/>class = died>, fillcolor="#399de5"] ;
170 -> 182 ;
183 [label=< Patient year of operation &le; 65.5<br/>gini = 0.426<br/>samples = 26<br/>value = [8, 18]<br/>class = died>, fillcolor="#91c9f1"] ;
167 -> 183 ;
184 [label=<Age &le; 45.5<br/>gini = 0.351<br/>samples = 22<br/>value = [5, 17]<br/>class = died>, fillcolor="#73baed"] ;
183 -> 184 ;
185 [label=<Number of positive axillary nodes detected &le; 16.5<br/>gini = 0.444<br/>samples = 3<br/>value = [2, 1]<br/>class = suvived>, fillcolor="#f2c09c"] ;
184 -> 185 ;
186 [label=<gini = 0.0<br/>samples = 2<br/>value = [2, 0]<br/>class = suvived>, fillcolor="#e58139"] ;
185 -> 186 ;
187 [label=<gini = 0.0<br/>samples = 1<br/>value = [0, 1]<br/>class = died>, fillcolor="#399de5"] ;
185 -> 187 ;
188 [label=<Age &le; 53.5<br/>gini = 0.266<br/>samples = 19<br/>value = [3, 16]<br/>class = died>, fillcolor="#5eafea"] ;
184 -> 188 ;
189 [label=<gini = 0.0<br/>samples = 8<br/>value = [0, 8]<br/>class = died>, fillcolor="#399de5"] ;
188 -> 189 ;
190 [label=< Patient year of operation &le; 60.5<br/>gini = 0.397<br/>samples = 11<br/>value = [3, 8]<br/>class = died>, fillcolor="#83c2ef"] ;
188 -> 190 ;
191 [label=<gini = 0.0<br/>samples = 3<br/>value = [0, 3]<br/>class = died>, fillcolor="#399de5"] ;
190 -> 191 ;
192 [label=< Patient year of operation &le; 64.5<br/>gini = 0.469<br/>samples = 8<br/>value = [3, 5]<br/>class = died>, fillcolor="#b0d8f5"] ;
190 -> 192 ;
193 [label=< Patient year of operation &le; 62.5<br/>gini = 0.48<br/>samples = 5<br/>value = [3, 2]<br/>class = suvived>, fillcolor="#f6d5bd"] ;
192 -> 193 ;
194 [label=<Age &le; 59.5<br/>gini = 0.444<br/>samples = 3<br/>value = [1, 2]<br/>class = died>, fillcolor="#9ccef2"] ;
193 -> 194 ;
195 [label=<gini = 0.0<br/>samples = 2<br/>value = [0, 2]<br/>class = died>, fillcolor="#399de5"] ;
194 -> 195 ;
196 [label=<gini = 0.0<br/>samples = 1<br/>value = [1, 0]<br/>class = suvived>, fillcolor="#e58139"] ;
194 -> 196 ;
197 [label=<gini = 0.0<br/>samples = 2<br/>value = [2, 0]<br/>class = suvived>, fillcolor="#e58139"] ;
193 -> 197 ;
198 [label=<gini = 0.0<br/>samples = 3<br/>value = [0, 3]<br/>class = died>, fillcolor="#399de5"] ;
192 -> 198 ;
199 [label=< Patient year of operation &le; 67.5<br/>gini = 0.375<br/>samples = 4<br/>value = [3, 1]<br/>class = suvived>, fillcolor="#eeab7b"] ;
183 -> 199 ;
200 [label=<gini = 0.0<br/>samples = 3<br/>value = [3, 0]<br/>class = suvived>, fillcolor="#e58139"] ;
199 -> 200 ;
201 [label=<gini = 0.0<br/>samples = 1<br/>value = [0, 1]<br/>class = died>, fillcolor="#399de5"] ;
199 -> 201 ;
202 [label=<gini = 0.0<br/>samples = 1<br/>value = [1, 0]<br/>class = suvived>, fillcolor="#e58139"] ;
166 -> 202 ;
203 [label=<gini = 0.0<br/>samples = 3<br/>value = [3, 0]<br/>class = suvived>, fillcolor="#e58139"] ;
163 -> 203 ;
204 [label=<gini = 0.0<br/>samples = 5<br/>value = [0, 5]<br/>class = died>, fillcolor="#399de5"] ;
162 -> 204 ;
205 [label=<gini = 0.0<br/>samples = 2<br/>value = [2, 0]<br/>class = suvived>, fillcolor="#e58139"] ;
161 -> 205 ;
206 [label=<gini = 0.0<br/>samples = 2<br/>value = [2, 0]<br/>class = suvived>, fillcolor="#e58139"] ;
160 -> 206 ;
}
