digraph Tree {
node [shape=box, style="filled, rounded", color="black", fontname=helvetica] ;
edge [fontname=helvetica] ;
0 [label=<NumberOfTimes90DaysLate &le; 0.5<br/>gini = 0.129<br/>samples = 120269<br/>value = [111912, 8357]<br/>class = no SeriousDlqin2yrs>, fillcolor="#e78a48"] ;
1 [label=<RevolvingUtilizationOfUnsecuredLines &le; 0.548<br/>gini = 0.093<br/>samples = 113544<br/>value = [107978, 5566]<br/>class = no SeriousDlqin2yrs>, fillcolor="#e68743"] ;
0 -> 1 [labeldistance=2.5, labelangle=45, headlabel="True"] ;
2 [label=<NumberOfTime60-89DaysPastDueNotWorse &le; 0.5<br/>gini = 0.051<br/>samples = 86768<br/>value = [84494, 2274]<br/>class = no SeriousDlqin2yrs>, fillcolor="#e6843e"] ;
1 -> 2 ;
3 [label=<NumberOfTime30-59DaysPastDueNotWorse &le; 0.5<br/>gini = 0.045<br/>samples = 84825<br/>value = [82862, 1963]<br/>class = no SeriousDlqin2yrs>, fillcolor="#e6843e"] ;
2 -> 3 ;
4 [label=<RevolvingUtilizationOfUnsecuredLines &le; 0.296<br/>gini = 0.034<br/>samples = 75870<br/>value = [74540, 1330]<br/>class = no SeriousDlqin2yrs>, fillcolor="#e5833d"] ;
3 -> 4 ;
5 [label=<NumberRealEstateLoansOrLines &le; 3.5<br/>gini = 0.027<br/>samples = 62900<br/>value = [62048, 852]<br/>class = no SeriousDlqin2yrs>, fillcolor="#e5833c"] ;
4 -> 5 ;
6 [label=<DebtRatio &le; 0.318<br/>gini = 0.025<br/>samples = 61402<br/>value = [60631, 771]<br/>class = no SeriousDlqin2yrs>, fillcolor="#e5833c"] ;
5 -> 6 ;
7 [label=<NumberOfOpenCreditLinesAndLoans &le; 56.5<br/>gini = 0.018<br/>samples = 38450<br/>value = [38103, 347]<br/>class = no SeriousDlqin2yrs>, fillcolor="#e5823b"] ;
6 -> 7 ;
8 [label=<RevolvingUtilizationOfUnsecuredLines &le; 0.115<br/>gini = 0.018<br/>samples = 38448<br/>value = [38102, 346]<br/>class = no SeriousDlqin2yrs>, fillcolor="#e5823b"] ;
7 -> 8 ;
9 [label=<age &le; 28.5<br/>gini = 0.015<br/>samples = 30047<br/>value = [29821, 226]<br/>class = no SeriousDlqin2yrs>, fillcolor="#e5823b"] ;
8 -> 9 ;
10 [label=<gini = 0.043<br/>samples = 1098<br/>value = [1074, 24]<br/>class = no SeriousDlqin2yrs>, fillcolor="#e6843d"] ;
9 -> 10 ;
11 [label=<gini = 0.014<br/>samples = 28949<br/>value = [28747, 202]<br/>class = no SeriousDlqin2yrs>, fillcolor="#e5823a"] ;
9 -> 11 ;
12 [label=<RevolvingUtilizationOfUnsecuredLines &le; 0.115<br/>gini = 0.028<br/>samples = 8401<br/>value = [8281, 120]<br/>class = no SeriousDlqin2yrs>, fillcolor="#e5833c"] ;
8 -> 12 ;
13 [label=<gini = 0.0<br/>samples = 1<br/>value = [0, 1]<br/>class = SeriousDlqin2yrs>, fillcolor="#399de5"] ;
12 -> 13 ;
14 [label=<gini = 0.028<br/>samples = 8400<br/>value = [8281, 119]<br/>class = no SeriousDlqin2yrs>, fillcolor="#e5833c"] ;
12 -> 14 ;
15 [label=<MonthlyIncome &le; 22878.0<br/>gini = 0.5<br/>samples = 2<br/>value = [1, 1]<br/>class = no SeriousDlqin2yrs>, fillcolor="#ffffff"] ;
7 -> 15 ;
16 [label=<gini = 0.0<br/>samples = 1<br/>value = [1, 0]<br/>class = no SeriousDlqin2yrs>, fillcolor="#e58139"] ;
15 -> 16 ;
17 [label=<gini = 0.0<br/>samples = 1<br/>value = [0, 1]<br/>class = SeriousDlqin2yrs>, fillcolor="#399de5"] ;
15 -> 17 ;
18 [label=<DebtRatio &le; 0.318<br/>gini = 0.036<br/>samples = 22952<br/>value = [22528, 424]<br/>class = no SeriousDlqin2yrs>, fillcolor="#e5833d"] ;
6 -> 18 ;
19 [label=<gini = 0.0<br/>samples = 1<br/>value = [0, 1]<br/>class = SeriousDlqin2yrs>, fillcolor="#399de5"] ;
18 -> 19 ;
20 [label=<age &le; 43.5<br/>gini = 0.036<br/>samples = 22951<br/>value = [22528, 423]<br/>class = no SeriousDlqin2yrs>, fillcolor="#e5833d"] ;
18 -> 20 ;
21 [label=<NumberOfOpenCreditLinesAndLoans &le; 36.5<br/>gini = 0.051<br/>samples = 6608<br/>value = [6436, 172]<br/>class = no SeriousDlqin2yrs>, fillcolor="#e6843e"] ;
20 -> 21 ;
22 [label=<gini = 0.05<br/>samples = 6605<br/>value = [6435, 170]<br/>class = no SeriousDlqin2yrs>, fillcolor="#e6843e"] ;
21 -> 22 ;
23 [label=<gini = 0.444<br/>samples = 3<br/>value = [1, 2]<br/>class = SeriousDlqin2yrs>, fillcolor="#9ccef2"] ;
21 -> 23 ;
24 [label=<DebtRatio &le; 0.665<br/>gini = 0.03<br/>samples = 16343<br/>value = [16092, 251]<br/>class = no SeriousDlqin2yrs>, fillcolor="#e5833c"] ;
20 -> 24 ;
25 [label=<gini = 0.026<br/>samples = 12327<br/>value = [12164, 163]<br/>class = no SeriousDlqin2yrs>, fillcolor="#e5833c"] ;
24 -> 25 ;
26 [label=<gini = 0.043<br/>samples = 4016<br/>value = [3928, 88]<br/>class = no SeriousDlqin2yrs>, fillcolor="#e6843d"] ;
24 -> 26 ;
27 [label=<DebtRatio &le; 1.38<br/>gini = 0.102<br/>samples = 1498<br/>value = [1417, 81]<br/>class = no SeriousDlqin2yrs>, fillcolor="#e68844"] ;
5 -> 27 ;
28 [label=<age &le; 33.5<br/>gini = 0.082<br/>samples = 1357<br/>value = [1299, 58]<br/>class = no SeriousDlqin2yrs>, fillcolor="#e68742"] ;
27 -> 28 ;
29 [label=<MonthlyIncome &le; 18291.5<br/>gini = 0.346<br/>samples = 36<br/>value = [28, 8]<br/>class = no SeriousDlqin2yrs>, fillcolor="#eca572"] ;
28 -> 29 ;
30 [label=<RevolvingUtilizationOfUnsecuredLines &le; 0.001<br/>gini = 0.219<br/>samples = 32<br/>value = [28, 4]<br/>class = no SeriousDlqin2yrs>, fillcolor="#e99355"] ;
29 -> 30 ;
31 [label=<gini = 0.0<br/>samples = 2<br/>value = [0, 2]<br/>class = SeriousDlqin2yrs>, fillcolor="#399de5"] ;
30 -> 31 ;
32 [label=<gini = 0.124<br/>samples = 30<br/>value = [28, 2]<br/>class = no SeriousDlqin2yrs>, fillcolor="#e78a47"] ;
30 -> 32 ;
33 [label=<gini = 0.0<br/>samples = 4<br/>value = [0, 4]<br/>class = SeriousDlqin2yrs>, fillcolor="#399de5"] ;
29 -> 33 ;
34 [label=<NumberRealEstateLoansOrLines &le; 25.0<br/>gini = 0.073<br/>samples = 1321<br/>value = [1271, 50]<br/>class = no SeriousDlqin2yrs>, fillcolor="#e68641"] ;
28 -> 34 ;
35 [label=<DebtRatio &le; 0.466<br/>gini = 0.072<br/>samples = 1319<br/>value = [1270, 49]<br/>class = no SeriousDlqin2yrs>, fillcolor="#e68641"] ;
34 -> 35 ;
36 [label=<gini = 0.029<br/>samples = 483<br/>value = [476, 7]<br/>class = no SeriousDlqin2yrs>, fillcolor="#e5833c"] ;
35 -> 36 ;
37 [label=<gini = 0.095<br/>samples = 836<br/>value = [794, 42]<br/>class = no SeriousDlqin2yrs>, fillcolor="#e68843"] ;
35 -> 37 ;
38 [label=<MonthlyIncome &le; 62983.0<br/>gini = 0.5<br/>samples = 2<br/>value = [1, 1]<br/>class = no SeriousDlqin2yrs>, fillcolor="#ffffff"] ;
34 -> 38 ;
39 [label=<gini = 0.0<br/>samples = 1<br/>value = [0, 1]<br/>class = SeriousDlqin2yrs>, fillcolor="#399de5"] ;
38 -> 39 ;
40 [label=<gini = 0.0<br/>samples = 1<br/>value = [1, 0]<br/>class = no SeriousDlqin2yrs>, fillcolor="#e58139"] ;
38 -> 40 ;
41 [label=<RevolvingUtilizationOfUnsecuredLines &le; 0.162<br/>gini = 0.273<br/>samples = 141<br/>value = [118, 23]<br/>class = no SeriousDlqin2yrs>, fillcolor="#ea9a60"] ;
27 -> 41 ;
42 [label=<DebtRatio &le; 1.446<br/>gini = 0.171<br/>samples = 106<br/>value = [96, 10]<br/>class = no SeriousDlqin2yrs>, fillcolor="#e88e4e"] ;
41 -> 42 ;
43 [label=<RevolvingUtilizationOfUnsecuredLines &le; 0.041<br/>gini = 0.43<br/>samples = 16<br/>value = [11, 5]<br/>class = no SeriousDlqin2yrs>, fillcolor="#f1ba93"] ;
42 -> 43 ;
44 [label=<gini = 0.0<br/>samples = 7<br/>value = [7, 0]<br/>class = no SeriousDlqin2yrs>, fillcolor="#e58139"] ;
43 -> 44 ;
45 [label=<gini = 0.494<br/>samples = 9<br/>value = [4, 5]<br/>class = SeriousDlqin2yrs>, fillcolor="#d7ebfa"] ;
43 -> 45 ;
46 [label=<NumberRealEstateLoansOrLines &le; 5.5<br/>gini = 0.105<br/>samples = 90<br/>value = [85, 5]<br/>class = no SeriousDlqin2yrs>, fillcolor="#e78845"] ;
42 -> 46 ;
47 [label=<gini = 0.0<br/>samples = 56<br/>value = [56, 0]<br/>class = no SeriousDlqin2yrs>, fillcolor="#e58139"] ;
46 -> 47 ;
48 [label=<gini = 0.251<br/>samples = 34<br/>value = [29, 5]<br/>class = no SeriousDlqin2yrs>, fillcolor="#e9975b"] ;
46 -> 48 ;
49 [label=<age &le; 51.5<br/>gini = 0.467<br/>samples = 35<br/>value = [22, 13]<br/>class = no SeriousDlqin2yrs>, fillcolor="#f4cbae"] ;
41 -> 49 ;
50 [label=<NumberOfOpenCreditLinesAndLoans &le; 23.5<br/>gini = 0.231<br/>samples = 15<br/>value = [13, 2]<br/>class = no SeriousDlqin2yrs>, fillcolor="#e99457"] ;
49 -> 50 ;
51 [label=<gini = 0.133<br/>samples = 14<br/>value = [13, 1]<br/>class = no SeriousDlqin2yrs>, fillcolor="#e78b48"] ;
50 -> 51 ;
52 [label=<gini = 0.0<br/>samples = 1<br/>value = [0, 1]<br/>class = SeriousDlqin2yrs>, fillcolor="#399de5"] ;
50 -> 52 ;
53 [label=<NumberOfOpenCreditLinesAndLoans &le; 18.5<br/>gini = 0.495<br/>samples = 20<br/>value = [9, 11]<br/>class = SeriousDlqin2yrs>, fillcolor="#dbedfa"] ;
49 -> 53 ;
54 [label=<gini = 0.43<br/>samples = 16<br/>value = [5, 11]<br/>class = SeriousDlqin2yrs>, fillcolor="#93caf1"] ;
53 -> 54 ;
55 [label=<gini = 0.0<br/>samples = 4<br/>value = [4, 0]<br/>class = no SeriousDlqin2yrs>, fillcolor="#e58139"] ;
53 -> 55 ;
56 [label=<DebtRatio &le; 0.695<br/>gini = 0.071<br/>samples = 12970<br/>value = [12492, 478]<br/>class = no SeriousDlqin2yrs>, fillcolor="#e68641"] ;
4 -> 56 ;
57 [label=<RevolvingUtilizationOfUnsecuredLines &le; 0.501<br/>gini = 0.062<br/>samples = 10965<br/>value = [10612, 353]<br/>class = no SeriousDlqin2yrs>, fillcolor="#e68540"] ;
56 -> 57 ;
58 [label=<NumberOfOpenCreditLinesAndLoans &le; 38.5<br/>gini = 0.057<br/>samples = 9305<br/>value = [9033, 272]<br/>class = no SeriousDlqin2yrs>, fillcolor="#e6853f"] ;
57 -> 58 ;
59 [label=<MonthlyIncome &le; 211500.0<br/>gini = 0.057<br/>samples = 9304<br/>value = [9033, 271]<br/>class = no SeriousDlqin2yrs>, fillcolor="#e6853f"] ;
58 -> 59 ;
60 [label=<DebtRatio &le; 0.003<br/>gini = 0.056<br/>samples = 9302<br/>value = [9032, 270]<br/>class = no SeriousDlqin2yrs>, fillcolor="#e6853f"] ;
59 -> 60 ;
61 [label=<gini = 0.255<br/>samples = 20<br/>value = [17, 3]<br/>class = no SeriousDlqin2yrs>, fillcolor="#ea975c"] ;
60 -> 61 ;
62 [label=<gini = 0.056<br/>samples = 9282<br/>value = [9015, 267]<br/>class = no SeriousDlqin2yrs>, fillcolor="#e6853f"] ;
60 -> 62 ;
63 [label=<age &le; 63.0<br/>gini = 0.5<br/>samples = 2<br/>value = [1, 1]<br/>class = no SeriousDlqin2yrs>, fillcolor="#ffffff"] ;
59 -> 63 ;
64 [label=<gini = 0.0<br/>samples = 1<br/>value = [0, 1]<br/>class = SeriousDlqin2yrs>, fillcolor="#399de5"] ;
63 -> 64 ;
65 [label=<gini = 0.0<br/>samples = 1<br/>value = [1, 0]<br/>class = no SeriousDlqin2yrs>, fillcolor="#e58139"] ;
63 -> 65 ;
66 [label=<gini = 0.0<br/>samples = 1<br/>value = [0, 1]<br/>class = SeriousDlqin2yrs>, fillcolor="#399de5"] ;
58 -> 66 ;
67 [label=<RevolvingUtilizationOfUnsecuredLines &le; 0.501<br/>gini = 0.093<br/>samples = 1660<br/>value = [1579, 81]<br/>class = no SeriousDlqin2yrs>, fillcolor="#e68743"] ;
57 -> 67 ;
68 [label=<gini = 0.0<br/>samples = 1<br/>value = [0, 1]<br/>class = SeriousDlqin2yrs>, fillcolor="#399de5"] ;
67 -> 68 ;
69 [label=<NumberOfOpenCreditLinesAndLoans &le; 26.5<br/>gini = 0.092<br/>samples = 1659<br/>value = [1579, 80]<br/>class = no SeriousDlqin2yrs>, fillcolor="#e68743"] ;
67 -> 69 ;
70 [label=<age &le; 47.5<br/>gini = 0.089<br/>samples = 1646<br/>value = [1569, 77]<br/>class = no SeriousDlqin2yrs>, fillcolor="#e68743"] ;
69 -> 70 ;
71 [label=<gini = 0.12<br/>samples = 794<br/>value = [743, 51]<br/>class = no SeriousDlqin2yrs>, fillcolor="#e78a47"] ;
70 -> 71 ;
72 [label=<gini = 0.059<br/>samples = 852<br/>value = [826, 26]<br/>class = no SeriousDlqin2yrs>, fillcolor="#e6853f"] ;
70 -> 72 ;
73 [label=<NumberOfOpenCreditLinesAndLoans &le; 28.0<br/>gini = 0.355<br/>samples = 13<br/>value = [10, 3]<br/>class = no SeriousDlqin2yrs>, fillcolor="#eda774"] ;
69 -> 73 ;
74 [label=<gini = 0.444<br/>samples = 3<br/>value = [1, 2]<br/>class = SeriousDlqin2yrs>, fillcolor="#9ccef2"] ;
73 -> 74 ;
75 [label=<gini = 0.18<br/>samples = 10<br/>value = [9, 1]<br/>class = no SeriousDlqin2yrs>, fillcolor="#e88f4f"] ;
73 -> 75 ;
76 [label=<NumberRealEstateLoansOrLines &le; 2.5<br/>gini = 0.117<br/>samples = 2005<br/>value = [1880, 125]<br/>class = no SeriousDlqin2yrs>, fillcolor="#e78946"] ;
56 -> 76 ;
77 [label=<MonthlyIncome &le; 10795.5<br/>gini = 0.094<br/>samples = 1627<br/>value = [1547, 80]<br/>class = no SeriousDlqin2yrs>, fillcolor="#e68843"] ;
76 -> 77 ;
78 [label=<RevolvingUtilizationOfUnsecuredLines &le; 0.296<br/>gini = 0.09<br/>samples = 1616<br/>value = [1540, 76]<br/>class = no SeriousDlqin2yrs>, fillcolor="#e68743"] ;
77 -> 78 ;
79 [label=<gini = 0.0<br/>samples = 1<br/>value = [0, 1]<br/>class = SeriousDlqin2yrs>, fillcolor="#399de5"] ;
78 -> 79 ;
80 [label=<age &le; 50.5<br/>gini = 0.089<br/>samples = 1615<br/>value = [1540, 75]<br/>class = no SeriousDlqin2yrs>, fillcolor="#e68743"] ;
78 -> 80 ;
81 [label=<gini = 0.125<br/>samples = 849<br/>value = [792, 57]<br/>class = no SeriousDlqin2yrs>, fillcolor="#e78a47"] ;
80 -> 81 ;
82 [label=<gini = 0.046<br/>samples = 766<br/>value = [748, 18]<br/>class = no SeriousDlqin2yrs>, fillcolor="#e6843e"] ;
80 -> 82 ;
83 [label=<NumberOfOpenCreditLinesAndLoans &le; 18.5<br/>gini = 0.463<br/>samples = 11<br/>value = [7, 4]<br/>class = no SeriousDlqin2yrs>, fillcolor="#f4c9aa"] ;
77 -> 83 ;
84 [label=<gini = 0.0<br/>samples = 7<br/>value = [7, 0]<br/>class = no SeriousDlqin2yrs>, fillcolor="#e58139"] ;
83 -> 84 ;
85 [label=<gini = 0.0<br/>samples = 4<br/>value = [0, 4]<br/>class = SeriousDlqin2yrs>, fillcolor="#399de5"] ;
83 -> 85 ;
86 [label=<DebtRatio &le; 0.702<br/>gini = 0.21<br/>samples = 378<br/>value = [333, 45]<br/>class = no SeriousDlqin2yrs>, fillcolor="#e99254"] ;
76 -> 86 ;
87 [label=<NumberOfOpenCreditLinesAndLoans &le; 12.0<br/>gini = 0.494<br/>samples = 9<br/>value = [5, 4]<br/>class = no SeriousDlqin2yrs>, fillcolor="#fae6d7"] ;
86 -> 87 ;
88 [label=<gini = 0.0<br/>samples = 3<br/>value = [3, 0]<br/>class = no SeriousDlqin2yrs>, fillcolor="#e58139"] ;
87 -> 88 ;
89 [label=<MonthlyIncome &le; 7016.5<br/>gini = 0.444<br/>samples = 6<br/>value = [2, 4]<br/>class = SeriousDlqin2yrs>, fillcolor="#9ccef2"] ;
87 -> 89 ;
90 [label=<gini = 0.0<br/>samples = 2<br/>value = [2, 0]<br/>class = no SeriousDlqin2yrs>, fillcolor="#e58139"] ;
89 -> 90 ;
91 [label=<gini = 0.0<br/>samples = 4<br/>value = [0, 4]<br/>class = SeriousDlqin2yrs>, fillcolor="#399de5"] ;
89 -> 91 ;
92 [label=<NumberOfDependents &le; 5.5<br/>gini = 0.198<br/>samples = 369<br/>value = [328, 41]<br/>class = no SeriousDlqin2yrs>, fillcolor="#e89152"] ;
86 -> 92 ;
93 [label=<age &le; 27.5<br/>gini = 0.194<br/>samples = 368<br/>value = [328, 40]<br/>class = no SeriousDlqin2yrs>, fillcolor="#e89051"] ;
92 -> 93 ;
94 [label=<gini = 0.0<br/>samples = 1<br/>value = [0, 1]<br/>class = SeriousDlqin2yrs>, fillcolor="#399de5"] ;
93 -> 94 ;
95 [label=<gini = 0.19<br/>samples = 367<br/>value = [328, 39]<br/>class = no SeriousDlqin2yrs>, fillcolor="#e89051"] ;
93 -> 95 ;
96 [label=<gini = 0.0<br/>samples = 1<br/>value = [0, 1]<br/>class = SeriousDlqin2yrs>, fillcolor="#399de5"] ;
92 -> 96 ;
97 [label=<NumberOfTime30-59DaysPastDueNotWorse &le; 1.5<br/>gini = 0.131<br/>samples = 8955<br/>value = [8322, 633]<br/>class = no SeriousDlqin2yrs>, fillcolor="#e78b48"] ;
3 -> 97 ;
98 [label=<RevolvingUtilizationOfUnsecuredLines &le; 0.46<br/>gini = 0.105<br/>samples = 6990<br/>value = [6601, 389]<br/>class = no SeriousDlqin2yrs>, fillcolor="#e78845"] ;
97 -> 98 ;
99 [label=<NumberRealEstateLoansOrLines &le; 11.5<br/>gini = 0.096<br/>samples = 6438<br/>value = [6111, 327]<br/>class = no SeriousDlqin2yrs>, fillcolor="#e68844"] ;
98 -> 99 ;
100 [label=<RevolvingUtilizationOfUnsecuredLines &le; 0.098<br/>gini = 0.095<br/>samples = 6428<br/>value = [6105, 323]<br/>class = no SeriousDlqin2yrs>, fillcolor="#e68843"] ;
99 -> 100 ;
101 [label=<DebtRatio &le; 0.912<br/>gini = 0.07<br/>samples = 2986<br/>value = [2877, 109]<br/>class = no SeriousDlqin2yrs>, fillcolor="#e68641"] ;
100 -> 101 ;
102 [label=<NumberOfDependents &le; 3.5<br/>gini = 0.063<br/>samples = 2783<br/>value = [2692, 91]<br/>class = no SeriousDlqin2yrs>, fillcolor="#e68540"] ;
101 -> 102 ;
103 [label=<gini = 0.06<br/>samples = 2698<br/>value = [2614, 84]<br/>class = no SeriousDlqin2yrs>, fillcolor="#e6853f"] ;
102 -> 103 ;
104 [label=<gini = 0.151<br/>samples = 85<br/>value = [78, 7]<br/>class = no SeriousDlqin2yrs>, fillcolor="#e78c4b"] ;
102 -> 104 ;
105 [label=<NumberRealEstateLoansOrLines &le; 2.5<br/>gini = 0.162<br/>samples = 203<br/>value = [185, 18]<br/>class = no SeriousDlqin2yrs>, fillcolor="#e88d4c"] ;
101 -> 105 ;
106 [label=<gini = 0.079<br/>samples = 146<br/>value = [140, 6]<br/>class = no SeriousDlqin2yrs>, fillcolor="#e68641"] ;
105 -> 106 ;
107 [label=<gini = 0.332<br/>samples = 57<br/>value = [45, 12]<br/>class = no SeriousDlqin2yrs>, fillcolor="#eca36e"] ;
105 -> 107 ;
108 [label=<RevolvingUtilizationOfUnsecuredLines &le; 0.098<br/>gini = 0.117<br/>samples = 3442<br/>value = [3228, 214]<br/>class = no SeriousDlqin2yrs>, fillcolor="#e78946"] ;
100 -> 108 ;
109 [label=<NumberOfDependents &le; 0.5<br/>gini = 0.444<br/>samples = 3<br/>value = [1, 2]<br/>class = SeriousDlqin2yrs>, fillcolor="#9ccef2"] ;
108 -> 109 ;
110 [label=<gini = 0.0<br/>samples = 1<br/>value = [1, 0]<br/>class = no SeriousDlqin2yrs>, fillcolor="#e58139"] ;
109 -> 110 ;
111 [label=<gini = 0.0<br/>samples = 2<br/>value = [0, 2]<br/>class = SeriousDlqin2yrs>, fillcolor="#399de5"] ;
109 -> 111 ;
112 [label=<NumberOfOpenCreditLinesAndLoans &le; 34.5<br/>gini = 0.116<br/>samples = 3439<br/>value = [3227, 212]<br/>class = no SeriousDlqin2yrs>, fillcolor="#e78946"] ;
108 -> 112 ;
113 [label=<gini = 0.114<br/>samples = 3431<br/>value = [3222, 209]<br/>class = no SeriousDlqin2yrs>, fillcolor="#e78946"] ;
112 -> 113 ;
114 [label=<gini = 0.469<br/>samples = 8<br/>value = [5, 3]<br/>class = no SeriousDlqin2yrs>, fillcolor="#f5cdb0"] ;
112 -> 114 ;
115 [label=<age &le; 45.0<br/>gini = 0.48<br/>samples = 10<br/>value = [6, 4]<br/>class = no SeriousDlqin2yrs>, fillcolor="#f6d5bd"] ;
99 -> 115 ;
116 [label=<gini = 0.0<br/>samples = 3<br/>value = [0, 3]<br/>class = SeriousDlqin2yrs>, fillcolor="#399de5"] ;
115 -> 116 ;
117 [label=<age &le; 62.5<br/>gini = 0.245<br/>samples = 7<br/>value = [6, 1]<br/>class = no SeriousDlqin2yrs>, fillcolor="#e9965a"] ;
115 -> 117 ;
118 [label=<gini = 0.0<br/>samples = 6<br/>value = [6, 0]<br/>class = no SeriousDlqin2yrs>, fillcolor="#e58139"] ;
117 -> 118 ;
119 [label=<gini = 0.0<br/>samples = 1<br/>value = [0, 1]<br/>class = SeriousDlqin2yrs>, fillcolor="#399de5"] ;
117 -> 119 ;
120 [label=<RevolvingUtilizationOfUnsecuredLines &le; 0.462<br/>gini = 0.199<br/>samples = 552<br/>value = [490, 62]<br/>class = no SeriousDlqin2yrs>, fillcolor="#e89152"] ;
98 -> 120 ;
121 [label=<age &le; 50.5<br/>gini = 0.48<br/>samples = 10<br/>value = [6, 4]<br/>class = no SeriousDlqin2yrs>, fillcolor="#f6d5bd"] ;
120 -> 121 ;
122 [label=<DebtRatio &le; 0.583<br/>gini = 0.32<br/>samples = 5<br/>value = [1, 4]<br/>class = SeriousDlqin2yrs>, fillcolor="#6ab6ec"] ;
121 -> 122 ;
123 [label=<gini = 0.0<br/>samples = 4<br/>value = [0, 4]<br/>class = SeriousDlqin2yrs>, fillcolor="#399de5"] ;
122 -> 123 ;
124 [label=<gini = 0.0<br/>samples = 1<br/>value = [1, 0]<br/>class = no SeriousDlqin2yrs>, fillcolor="#e58139"] ;
122 -> 124 ;
125 [label=<gini = 0.0<br/>samples = 5<br/>value = [5, 0]<br/>class = no SeriousDlqin2yrs>, fillcolor="#e58139"] ;
121 -> 125 ;
126 [label=<DebtRatio &le; 0.364<br/>gini = 0.191<br/>samples = 542<br/>value = [484, 58]<br/>class = no SeriousDlqin2yrs>, fillcolor="#e89051"] ;
120 -> 126 ;
127 [label=<MonthlyIncome &le; 5225.0<br/>gini = 0.111<br/>samples = 220<br/>value = [207, 13]<br/>class = no SeriousDlqin2yrs>, fillcolor="#e78945"] ;
126 -> 127 ;
128 [label=<MonthlyIncome &le; 5183.0<br/>gini = 0.207<br/>samples = 94<br/>value = [83, 11]<br/>class = no SeriousDlqin2yrs>, fillcolor="#e89253"] ;
127 -> 128 ;
129 [label=<gini = 0.178<br/>samples = 91<br/>value = [82, 9]<br/>class = no SeriousDlqin2yrs>, fillcolor="#e88f4f"] ;
128 -> 129 ;
130 [label=<gini = 0.444<br/>samples = 3<br/>value = [1, 2]<br/>class = SeriousDlqin2yrs>, fillcolor="#9ccef2"] ;
128 -> 130 ;
131 [label=<NumberOfOpenCreditLinesAndLoans &le; 3.5<br/>gini = 0.031<br/>samples = 126<br/>value = [124, 2]<br/>class = no SeriousDlqin2yrs>, fillcolor="#e5833c"] ;
127 -> 131 ;
132 [label=<gini = 0.198<br/>samples = 9<br/>value = [8, 1]<br/>class = no SeriousDlqin2yrs>, fillcolor="#e89152"] ;
131 -> 132 ;
133 [label=<gini = 0.017<br/>samples = 117<br/>value = [116, 1]<br/>class = no SeriousDlqin2yrs>, fillcolor="#e5823b"] ;
131 -> 133 ;
134 [label=<DebtRatio &le; 0.364<br/>gini = 0.24<br/>samples = 322<br/>value = [277, 45]<br/>class = no SeriousDlqin2yrs>, fillcolor="#e99559"] ;
126 -> 134 ;
135 [label=<gini = 0.0<br/>samples = 2<br/>value = [0, 2]<br/>class = SeriousDlqin2yrs>, fillcolor="#399de5"] ;
134 -> 135 ;
136 [label=<MonthlyIncome &le; 33916.5<br/>gini = 0.233<br/>samples = 320<br/>value = [277, 43]<br/>class = no SeriousDlqin2yrs>, fillcolor="#e99558"] ;
134 -> 136 ;
137 [label=<gini = 0.229<br/>samples = 319<br/>value = [277, 42]<br/>class = no SeriousDlqin2yrs>, fillcolor="#e99457"] ;
136 -> 137 ;
138 [label=<gini = 0.0<br/>samples = 1<br/>value = [0, 1]<br/>class = SeriousDlqin2yrs>, fillcolor="#399de5"] ;
136 -> 138 ;
139 [label=<NumberRealEstateLoansOrLines &le; 8.5<br/>gini = 0.218<br/>samples = 1965<br/>value = [1721, 244]<br/>class = no SeriousDlqin2yrs>, fillcolor="#e99355"] ;
97 -> 139 ;
140 [label=<NumberOfTime30-59DaysPastDueNotWorse &le; 2.5<br/>gini = 0.213<br/>samples = 1953<br/>value = [1716, 237]<br/>class = no SeriousDlqin2yrs>, fillcolor="#e99254"] ;
139 -> 140 ;
141 [label=<age &le; 38.5<br/>gini = 0.188<br/>samples = 1394<br/>value = [1248, 146]<br/>class = no SeriousDlqin2yrs>, fillcolor="#e89050"] ;
140 -> 141 ;
142 [label=<NumberRealEstateLoansOrLines &le; 3.5<br/>gini = 0.295<br/>samples = 217<br/>value = [178, 39]<br/>class = no SeriousDlqin2yrs>, fillcolor="#eb9d64"] ;
141 -> 142 ;
143 [label=<DebtRatio &le; 0.676<br/>gini = 0.285<br/>samples = 215<br/>value = [178, 37]<br/>class = no SeriousDlqin2yrs>, fillcolor="#ea9b62"] ;
142 -> 143 ;
144 [label=<gini = 0.316<br/>samples = 188<br/>value = [151, 37]<br/>class = no SeriousDlqin2yrs>, fillcolor="#eba06a"] ;
143 -> 144 ;
145 [label=<gini = 0.0<br/>samples = 27<br/>value = [27, 0]<br/>class = no SeriousDlqin2yrs>, fillcolor="#e58139"] ;
143 -> 145 ;
146 [label=<gini = 0.0<br/>samples = 2<br/>value = [0, 2]<br/>class = SeriousDlqin2yrs>, fillcolor="#399de5"] ;
142 -> 146 ;
147 [label=<DebtRatio &le; 3544.5<br/>gini = 0.165<br/>samples = 1177<br/>value = [1070, 107]<br/>class = no SeriousDlqin2yrs>, fillcolor="#e88e4d"] ;
141 -> 147 ;
148 [label=<age &le; 96.0<br/>gini = 0.163<br/>samples = 1174<br/>value = [1069, 105]<br/>class = no SeriousDlqin2yrs>, fillcolor="#e88d4c"] ;
147 -> 148 ;
149 [label=<gini = 0.162<br/>samples = 1173<br/>value = [1069, 104]<br/>class = no SeriousDlqin2yrs>, fillcolor="#e88d4c"] ;
148 -> 149 ;
150 [label=<gini = 0.0<br/>samples = 1<br/>value = [0, 1]<br/>class = SeriousDlqin2yrs>, fillcolor="#399de5"] ;
148 -> 150 ;
151 [label=<age &le; 43.5<br/>gini = 0.444<br/>samples = 3<br/>value = [1, 2]<br/>class = SeriousDlqin2yrs>, fillcolor="#9ccef2"] ;
147 -> 151 ;
152 [label=<gini = 0.0<br/>samples = 1<br/>value = [1, 0]<br/>class = no SeriousDlqin2yrs>, fillcolor="#e58139"] ;
151 -> 152 ;
153 [label=<gini = 0.0<br/>samples = 2<br/>value = [0, 2]<br/>class = SeriousDlqin2yrs>, fillcolor="#399de5"] ;
151 -> 153 ;
154 [label=<DebtRatio &le; 0.517<br/>gini = 0.273<br/>samples = 559<br/>value = [468, 91]<br/>class = no SeriousDlqin2yrs>, fillcolor="#ea9a5f"] ;
140 -> 154 ;
155 [label=<MonthlyIncome &le; 32000.0<br/>gini = 0.222<br/>samples = 393<br/>value = [343, 50]<br/>class = no SeriousDlqin2yrs>, fillcolor="#e99356"] ;
154 -> 155 ;
156 [label=<NumberOfOpenCreditLinesAndLoans &le; 7.5<br/>gini = 0.219<br/>samples = 392<br/>value = [343, 49]<br/>class = no SeriousDlqin2yrs>, fillcolor="#e99355"] ;
155 -> 156 ;
157 [label=<gini = 0.316<br/>samples = 66<br/>value = [53, 13]<br/>class = no SeriousDlqin2yrs>, fillcolor="#eba06a"] ;
156 -> 157 ;
158 [label=<gini = 0.196<br/>samples = 326<br/>value = [290, 36]<br/>class = no SeriousDlqin2yrs>, fillcolor="#e89152"] ;
156 -> 158 ;
159 [label=<gini = 0.0<br/>samples = 1<br/>value = [0, 1]<br/>class = SeriousDlqin2yrs>, fillcolor="#399de5"] ;
155 -> 159 ;
160 [label=<DebtRatio &le; 0.522<br/>gini = 0.372<br/>samples = 166<br/>value = [125, 41]<br/>class = no SeriousDlqin2yrs>, fillcolor="#eeaa7a"] ;
154 -> 160 ;
161 [label=<gini = 0.0<br/>samples = 2<br/>value = [0, 2]<br/>class = SeriousDlqin2yrs>, fillcolor="#399de5"] ;
160 -> 161 ;
162 [label=<NumberOfOpenCreditLinesAndLoans &le; 9.5<br/>gini = 0.363<br/>samples = 164<br/>value = [125, 39]<br/>class = no SeriousDlqin2yrs>, fillcolor="#eda877"] ;
160 -> 162 ;
163 [label=<gini = 0.219<br/>samples = 40<br/>value = [35, 5]<br/>class = no SeriousDlqin2yrs>, fillcolor="#e99355"] ;
162 -> 163 ;
164 [label=<gini = 0.398<br/>samples = 124<br/>value = [90, 34]<br/>class = no SeriousDlqin2yrs>, fillcolor="#efb184"] ;
162 -> 164 ;
165 [label=<RevolvingUtilizationOfUnsecuredLines &le; 0.056<br/>gini = 0.486<br/>samples = 12<br/>value = [5, 7]<br/>class = SeriousDlqin2yrs>, fillcolor="#c6e3f8"] ;
139 -> 165 ;
166 [label=<gini = 0.0<br/>samples = 4<br/>value = [4, 0]<br/>class = no SeriousDlqin2yrs>, fillcolor="#e58139"] ;
165 -> 166 ;
167 [label=<MonthlyIncome &le; 24468.0<br/>gini = 0.219<br/>samples = 8<br/>value = [1, 7]<br/>class = SeriousDlqin2yrs>, fillcolor="#55abe9"] ;
165 -> 167 ;
168 [label=<gini = 0.0<br/>samples = 7<br/>value = [0, 7]<br/>class = SeriousDlqin2yrs>, fillcolor="#399de5"] ;
167 -> 168 ;
169 [label=<gini = 0.0<br/>samples = 1<br/>value = [1, 0]<br/>class = no SeriousDlqin2yrs>, fillcolor="#e58139"] ;
167 -> 169 ;
170 [label=<NumberOfTime30-59DaysPastDueNotWorse &le; 0.5<br/>gini = 0.269<br/>samples = 1943<br/>value = [1632, 311]<br/>class = no SeriousDlqin2yrs>, fillcolor="#ea995f"] ;
2 -> 170 ;
171 [label=<NumberOfTime60-89DaysPastDueNotWorse &le; 1.5<br/>gini = 0.207<br/>samples = 1135<br/>value = [1002, 133]<br/>class = no SeriousDlqin2yrs>, fillcolor="#e89253"] ;
170 -> 171 ;
172 [label=<age &le; 22.5<br/>gini = 0.19<br/>samples = 1042<br/>value = [931, 111]<br/>class = no SeriousDlqin2yrs>, fillcolor="#e89051"] ;
171 -> 172 ;
173 [label=<gini = 0.0<br/>samples = 1<br/>value = [0, 1]<br/>class = SeriousDlqin2yrs>, fillcolor="#399de5"] ;
172 -> 173 ;
174 [label=<RevolvingUtilizationOfUnsecuredLines &le; 0.061<br/>gini = 0.189<br/>samples = 1041<br/>value = [931, 110]<br/>class = no SeriousDlqin2yrs>, fillcolor="#e89050"] ;
172 -> 174 ;
175 [label=<NumberOfOpenCreditLinesAndLoans &le; 1.5<br/>gini = 0.135<br/>samples = 372<br/>value = [345, 27]<br/>class = no SeriousDlqin2yrs>, fillcolor="#e78b48"] ;
174 -> 175 ;
176 [label=<MonthlyIncome &le; 1320.0<br/>gini = 0.444<br/>samples = 3<br/>value = [1, 2]<br/>class = SeriousDlqin2yrs>, fillcolor="#9ccef2"] ;
175 -> 176 ;
177 [label=<gini = 0.0<br/>samples = 1<br/>value = [1, 0]<br/>class = no SeriousDlqin2yrs>, fillcolor="#e58139"] ;
176 -> 177 ;
178 [label=<gini = 0.0<br/>samples = 2<br/>value = [0, 2]<br/>class = SeriousDlqin2yrs>, fillcolor="#399de5"] ;
176 -> 178 ;
179 [label=<age &le; 51.5<br/>gini = 0.126<br/>samples = 369<br/>value = [344, 25]<br/>class = no SeriousDlqin2yrs>, fillcolor="#e78a47"] ;
175 -> 179 ;
180 [label=<NumberOfDependents &le; 0.5<br/>gini = 0.066<br/>samples = 175<br/>value = [169, 6]<br/>class = no SeriousDlqin2yrs>, fillcolor="#e68540"] ;
179 -> 180 ;
181 [label=<gini = 0.119<br/>samples = 79<br/>value = [74, 5]<br/>class = no SeriousDlqin2yrs>, fillcolor="#e78a46"] ;
180 -> 181 ;
182 [label=<gini = 0.021<br/>samples = 96<br/>value = [95, 1]<br/>class = no SeriousDlqin2yrs>, fillcolor="#e5823b"] ;
180 -> 182 ;
183 [label=<age &le; 56.5<br/>gini = 0.177<br/>samples = 194<br/>value = [175, 19]<br/>class = no SeriousDlqin2yrs>, fillcolor="#e88f4e"] ;
179 -> 183 ;
184 [label=<gini = 0.375<br/>samples = 44<br/>value = [33, 11]<br/>class = no SeriousDlqin2yrs>, fillcolor="#eeab7b"] ;
183 -> 184 ;
185 [label=<gini = 0.101<br/>samples = 150<br/>value = [142, 8]<br/>class = no SeriousDlqin2yrs>, fillcolor="#e68844"] ;
183 -> 185 ;
186 [label=<RevolvingUtilizationOfUnsecuredLines &le; 0.061<br/>gini = 0.217<br/>samples = 669<br/>value = [586, 83]<br/>class = no SeriousDlqin2yrs>, fillcolor="#e99355"] ;
174 -> 186 ;
187 [label=<gini = 0.0<br/>samples = 1<br/>value = [0, 1]<br/>class = SeriousDlqin2yrs>, fillcolor="#399de5"] ;
186 -> 187 ;
188 [label=<DebtRatio &le; 0.683<br/>gini = 0.215<br/>samples = 668<br/>value = [586, 82]<br/>class = no SeriousDlqin2yrs>, fillcolor="#e99355"] ;
186 -> 188 ;
189 [label=<RevolvingUtilizationOfUnsecuredLines &le; 0.145<br/>gini = 0.198<br/>samples = 583<br/>value = [518, 65]<br/>class = no SeriousDlqin2yrs>, fillcolor="#e89152"] ;
188 -> 189 ;
190 [label=<gini = 0.272<br/>samples = 166<br/>value = [139, 27]<br/>class = no SeriousDlqin2yrs>, fillcolor="#ea995f"] ;
189 -> 190 ;
191 [label=<gini = 0.166<br/>samples = 417<br/>value = [379, 38]<br/>class = no SeriousDlqin2yrs>, fillcolor="#e88e4d"] ;
189 -> 191 ;
192 [label=<DebtRatio &le; 0.713<br/>gini = 0.32<br/>samples = 85<br/>value = [68, 17]<br/>class = no SeriousDlqin2yrs>, fillcolor="#eca06a"] ;
188 -> 192 ;
193 [label=<gini = 0.48<br/>samples = 10<br/>value = [4, 6]<br/>class = SeriousDlqin2yrs>, fillcolor="#bddef6"] ;
192 -> 193 ;
194 [label=<gini = 0.25<br/>samples = 75<br/>value = [64, 11]<br/>class = no SeriousDlqin2yrs>, fillcolor="#e9975b"] ;
192 -> 194 ;
195 [label=<age &le; 63.5<br/>gini = 0.361<br/>samples = 93<br/>value = [71, 22]<br/>class = no SeriousDlqin2yrs>, fillcolor="#eda876"] ;
171 -> 195 ;
196 [label=<MonthlyIncome &le; 1600.0<br/>gini = 0.32<br/>samples = 85<br/>value = [68, 17]<br/>class = no SeriousDlqin2yrs>, fillcolor="#eca06a"] ;
195 -> 196 ;
197 [label=<gini = 0.0<br/>samples = 2<br/>value = [0, 2]<br/>class = SeriousDlqin2yrs>, fillcolor="#399de5"] ;
196 -> 197 ;
198 [label=<NumberOfDependents &le; 2.5<br/>gini = 0.296<br/>samples = 83<br/>value = [68, 15]<br/>class = no SeriousDlqin2yrs>, fillcolor="#eb9d65"] ;
196 -> 198 ;
199 [label=<RevolvingUtilizationOfUnsecuredLines &le; 0.423<br/>gini = 0.236<br/>samples = 73<br/>value = [63, 10]<br/>class = no SeriousDlqin2yrs>, fillcolor="#e99558"] ;
198 -> 199 ;
200 [label=<RevolvingUtilizationOfUnsecuredLines &le; 0.418<br/>gini = 0.311<br/>samples = 52<br/>value = [42, 10]<br/>class = no SeriousDlqin2yrs>, fillcolor="#eb9f68"] ;
199 -> 200 ;
201 [label=<gini = 0.291<br/>samples = 51<br/>value = [42, 9]<br/>class = no SeriousDlqin2yrs>, fillcolor="#eb9c63"] ;
200 -> 201 ;
202 [label=<gini = 0.0<br/>samples = 1<br/>value = [0, 1]<br/>class = SeriousDlqin2yrs>, fillcolor="#399de5"] ;
200 -> 202 ;
203 [label=<gini = 0.0<br/>samples = 21<br/>value = [21, 0]<br/>class = no SeriousDlqin2yrs>, fillcolor="#e58139"] ;
199 -> 203 ;
204 [label=<age &le; 48.0<br/>gini = 0.5<br/>samples = 10<br/>value = [5, 5]<br/>class = no SeriousDlqin2yrs>, fillcolor="#ffffff"] ;
198 -> 204 ;
205 [label=<NumberOfOpenCreditLinesAndLoans &le; 3.5<br/>gini = 0.408<br/>samples = 7<br/>value = [2, 5]<br/>class = SeriousDlqin2yrs>, fillcolor="#88c4ef"] ;
204 -> 205 ;
206 [label=<gini = 0.0<br/>samples = 1<br/>value = [1, 0]<br/>class = no SeriousDlqin2yrs>, fillcolor="#e58139"] ;
205 -> 206 ;
207 [label=<gini = 0.278<br/>samples = 6<br/>value = [1, 5]<br/>class = SeriousDlqin2yrs>, fillcolor="#61b1ea"] ;
205 -> 207 ;
208 [label=<gini = 0.0<br/>samples = 3<br/>value = [3, 0]<br/>class = no SeriousDlqin2yrs>, fillcolor="#e58139"] ;
204 -> 208 ;
209 [label=<age &le; 72.5<br/>gini = 0.469<br/>samples = 8<br/>value = [3, 5]<br/>class = SeriousDlqin2yrs>, fillcolor="#b0d8f5"] ;
195 -> 209 ;
210 [label=<gini = 0.0<br/>samples = 4<br/>value = [0, 4]<br/>class = SeriousDlqin2yrs>, fillcolor="#399de5"] ;
209 -> 210 ;
211 [label=<age &le; 79.5<br/>gini = 0.375<br/>samples = 4<br/>value = [3, 1]<br/>class = no SeriousDlqin2yrs>, fillcolor="#eeab7b"] ;
209 -> 211 ;
212 [label=<gini = 0.0<br/>samples = 3<br/>value = [3, 0]<br/>class = no SeriousDlqin2yrs>, fillcolor="#e58139"] ;
211 -> 212 ;
213 [label=<gini = 0.0<br/>samples = 1<br/>value = [0, 1]<br/>class = SeriousDlqin2yrs>, fillcolor="#399de5"] ;
211 -> 213 ;
214 [label=<NumberOfTime60-89DaysPastDueNotWorse &le; 1.5<br/>gini = 0.344<br/>samples = 808<br/>value = [630, 178]<br/>class = no SeriousDlqin2yrs>, fillcolor="#eca571"] ;
170 -> 214 ;
215 [label=<MonthlyIncome &le; 5303.0<br/>gini = 0.317<br/>samples = 684<br/>value = [549, 135]<br/>class = no SeriousDlqin2yrs>, fillcolor="#eba06a"] ;
214 -> 215 ;
216 [label=<NumberOfTime30-59DaysPastDueNotWorse &le; 3.5<br/>gini = 0.374<br/>samples = 342<br/>value = [257, 85]<br/>class = no SeriousDlqin2yrs>, fillcolor="#eeab7a"] ;
215 -> 216 ;
217 [label=<age &le; 39.5<br/>gini = 0.357<br/>samples = 323<br/>value = [248, 75]<br/>class = no SeriousDlqin2yrs>, fillcolor="#eda775"] ;
216 -> 217 ;
218 [label=<RevolvingUtilizationOfUnsecuredLines &le; 0.084<br/>gini = 0.427<br/>samples = 94<br/>value = [65, 29]<br/>class = no SeriousDlqin2yrs>, fillcolor="#f1b991"] ;
217 -> 218 ;
219 [label=<RevolvingUtilizationOfUnsecuredLines &le; 0.035<br/>gini = 0.493<br/>samples = 34<br/>value = [19, 15]<br/>class = no SeriousDlqin2yrs>, fillcolor="#fae4d5"] ;
218 -> 219 ;
220 [label=<gini = 0.435<br/>samples = 25<br/>value = [17, 8]<br/>class = no SeriousDlqin2yrs>, fillcolor="#f1bc96"] ;
219 -> 220 ;
221 [label=<gini = 0.346<br/>samples = 9<br/>value = [2, 7]<br/>class = SeriousDlqin2yrs>, fillcolor="#72b9ec"] ;
219 -> 221 ;
222 [label=<age &le; 24.5<br/>gini = 0.358<br/>samples = 60<br/>value = [46, 14]<br/>class = no SeriousDlqin2yrs>, fillcolor="#eda775"] ;
218 -> 222 ;
223 [label=<gini = 0.375<br/>samples = 4<br/>value = [1, 3]<br/>class = SeriousDlqin2yrs>, fillcolor="#7bbeee"] ;
222 -> 223 ;
224 [label=<gini = 0.316<br/>samples = 56<br/>value = [45, 11]<br/>class = no SeriousDlqin2yrs>, fillcolor="#eba069"] ;
222 -> 224 ;
225 [label=<NumberOfOpenCreditLinesAndLoans &le; 17.5<br/>gini = 0.321<br/>samples = 229<br/>value = [183, 46]<br/>class = no SeriousDlqin2yrs>, fillcolor="#eca16b"] ;
217 -> 225 ;
226 [label=<NumberOfTime30-59DaysPastDueNotWorse &le; 1.5<br/>gini = 0.292<br/>samples = 208<br/>value = [171, 37]<br/>class = no SeriousDlqin2yrs>, fillcolor="#eb9c64"] ;
225 -> 226 ;
227 [label=<gini = 0.195<br/>samples = 128<br/>value = [114, 14]<br/>class = no SeriousDlqin2yrs>, fillcolor="#e89051"] ;
226 -> 227 ;
228 [label=<gini = 0.41<br/>samples = 80<br/>value = [57, 23]<br/>class = no SeriousDlqin2yrs>, fillcolor="#efb489"] ;
226 -> 228 ;
229 [label=<RevolvingUtilizationOfUnsecuredLines &le; 0.454<br/>gini = 0.49<br/>samples = 21<br/>value = [12, 9]<br/>class = no SeriousDlqin2yrs>, fillcolor="#f8e0ce"] ;
225 -> 229 ;
230 [label=<gini = 0.5<br/>samples = 18<br/>value = [9, 9]<br/>class = no SeriousDlqin2yrs>, fillcolor="#ffffff"] ;
229 -> 230 ;
231 [label=<gini = 0.0<br/>samples = 3<br/>value = [3, 0]<br/>class = no SeriousDlqin2yrs>, fillcolor="#e58139"] ;
229 -> 231 ;
232 [label=<NumberOfOpenCreditLinesAndLoans &le; 10.5<br/>gini = 0.499<br/>samples = 19<br/>value = [9, 10]<br/>class = SeriousDlqin2yrs>, fillcolor="#ebf5fc"] ;
216 -> 232 ;
233 [label=<gini = 0.0<br/>samples = 7<br/>value = [0, 7]<br/>class = SeriousDlqin2yrs>, fillcolor="#399de5"] ;
232 -> 233 ;
234 [label=<RevolvingUtilizationOfUnsecuredLines &le; 0.276<br/>gini = 0.375<br/>samples = 12<br/>value = [9, 3]<br/>class = no SeriousDlqin2yrs>, fillcolor="#eeab7b"] ;
232 -> 234 ;
235 [label=<gini = 0.0<br/>samples = 7<br/>value = [7, 0]<br/>class = no SeriousDlqin2yrs>, fillcolor="#e58139"] ;
234 -> 235 ;
236 [label=<NumberRealEstateLoansOrLines &le; 0.5<br/>gini = 0.48<br/>samples = 5<br/>value = [2, 3]<br/>class = SeriousDlqin2yrs>, fillcolor="#bddef6"] ;
234 -> 236 ;
237 [label=<gini = 0.0<br/>samples = 2<br/>value = [0, 2]<br/>class = SeriousDlqin2yrs>, fillcolor="#399de5"] ;
236 -> 237 ;
238 [label=<gini = 0.444<br/>samples = 3<br/>value = [2, 1]<br/>class = no SeriousDlqin2yrs>, fillcolor="#f2c09c"] ;
236 -> 238 ;
239 [label=<DebtRatio &le; 0.071<br/>gini = 0.25<br/>samples = 342<br/>value = [292, 50]<br/>class = no SeriousDlqin2yrs>, fillcolor="#e9975b"] ;
215 -> 239 ;
240 [label=<DebtRatio &le; 0.07<br/>gini = 0.435<br/>samples = 25<br/>value = [17, 8]<br/>class = no SeriousDlqin2yrs>, fillcolor="#f1bc96"] ;
239 -> 240 ;
241 [label=<MonthlyIncome &le; 8701.0<br/>gini = 0.386<br/>samples = 23<br/>value = [17, 6]<br/>class = no SeriousDlqin2yrs>, fillcolor="#eead7f"] ;
240 -> 241 ;
242 [label=<MonthlyIncome &le; 6504.5<br/>gini = 0.497<br/>samples = 13<br/>value = [7, 6]<br/>class = no SeriousDlqin2yrs>, fillcolor="#fbede3"] ;
241 -> 242 ;
243 [label=<gini = 0.0<br/>samples = 5<br/>value = [5, 0]<br/>class = no SeriousDlqin2yrs>, fillcolor="#e58139"] ;
242 -> 243 ;
244 [label=<gini = 0.375<br/>samples = 8<br/>value = [2, 6]<br/>class = SeriousDlqin2yrs>, fillcolor="#7bbeee"] ;
242 -> 244 ;
245 [label=<gini = 0.0<br/>samples = 10<br/>value = [10, 0]<br/>class = no SeriousDlqin2yrs>, fillcolor="#e58139"] ;
241 -> 245 ;
246 [label=<gini = 0.0<br/>samples = 2<br/>value = [0, 2]<br/>class = SeriousDlqin2yrs>, fillcolor="#399de5"] ;
240 -> 246 ;
247 [label=<RevolvingUtilizationOfUnsecuredLines &le; 0.524<br/>gini = 0.23<br/>samples = 317<br/>value = [275, 42]<br/>class = no SeriousDlqin2yrs>, fillcolor="#e99457"] ;
239 -> 247 ;
248 [label=<RevolvingUtilizationOfUnsecuredLines &le; 0.452<br/>gini = 0.22<br/>samples = 310<br/>value = [271, 39]<br/>class = no SeriousDlqin2yrs>, fillcolor="#e99355"] ;
247 -> 248 ;
249 [label=<RevolvingUtilizationOfUnsecuredLines &le; 0.445<br/>gini = 0.246<br/>samples = 272<br/>value = [233, 39]<br/>class = no SeriousDlqin2yrs>, fillcolor="#e9965a"] ;
248 -> 249 ;
250 [label=<gini = 0.237<br/>samples = 269<br/>value = [232, 37]<br/>class = no SeriousDlqin2yrs>, fillcolor="#e99559"] ;
249 -> 250 ;
251 [label=<gini = 0.444<br/>samples = 3<br/>value = [1, 2]<br/>class = SeriousDlqin2yrs>, fillcolor="#9ccef2"] ;
249 -> 251 ;
252 [label=<gini = 0.0<br/>samples = 38<br/>value = [38, 0]<br/>class = no SeriousDlqin2yrs>, fillcolor="#e58139"] ;
248 -> 252 ;
253 [label=<age &le; 56.0<br/>gini = 0.49<br/>samples = 7<br/>value = [4, 3]<br/>class = no SeriousDlqin2yrs>, fillcolor="#f8e0ce"] ;
247 -> 253 ;
254 [label=<DebtRatio &le; 0.184<br/>gini = 0.375<br/>samples = 4<br/>value = [1, 3]<br/>class = SeriousDlqin2yrs>, fillcolor="#7bbeee"] ;
253 -> 254 ;
255 [label=<gini = 0.0<br/>samples = 1<br/>value = [1, 0]<br/>class = no SeriousDlqin2yrs>, fillcolor="#e58139"] ;
254 -> 255 ;
256 [label=<gini = 0.0<br/>samples = 3<br/>value = [0, 3]<br/>class = SeriousDlqin2yrs>, fillcolor="#399de5"] ;
254 -> 256 ;
257 [label=<gini = 0.0<br/>samples = 3<br/>value = [3, 0]<br/>class = no SeriousDlqin2yrs>, fillcolor="#e58139"] ;
253 -> 257 ;
258 [label=<age &le; 34.0<br/>gini = 0.453<br/>samples = 124<br/>value = [81, 43]<br/>class = no SeriousDlqin2yrs>, fillcolor="#f3c4a2"] ;
214 -> 258 ;
259 [label=<NumberOfDependents &le; 1.5<br/>gini = 0.475<br/>samples = 18<br/>value = [7, 11]<br/>class = SeriousDlqin2yrs>, fillcolor="#b7dbf6"] ;
258 -> 259 ;
260 [label=<MonthlyIncome &le; 3494.0<br/>gini = 0.497<br/>samples = 13<br/>value = [7, 6]<br/>class = no SeriousDlqin2yrs>, fillcolor="#fbede3"] ;
259 -> 260 ;
261 [label=<DebtRatio &le; 0.05<br/>gini = 0.444<br/>samples = 9<br/>value = [3, 6]<br/>class = SeriousDlqin2yrs>, fillcolor="#9ccef2"] ;
260 -> 261 ;
262 [label=<gini = 0.0<br/>samples = 1<br/>value = [1, 0]<br/>class = no SeriousDlqin2yrs>, fillcolor="#e58139"] ;
261 -> 262 ;
263 [label=<NumberOfTime30-59DaysPastDueNotWorse &le; 4.0<br/>gini = 0.375<br/>samples = 8<br/>value = [2, 6]<br/>class = SeriousDlqin2yrs>, fillcolor="#7bbeee"] ;
261 -> 263 ;
264 [label=<gini = 0.245<br/>samples = 7<br/>value = [1, 6]<br/>class = SeriousDlqin2yrs>, fillcolor="#5aade9"] ;
263 -> 264 ;
265 [label=<gini = 0.0<br/>samples = 1<br/>value = [1, 0]<br/>class = no SeriousDlqin2yrs>, fillcolor="#e58139"] ;
263 -> 265 ;
266 [label=<gini = 0.0<br/>samples = 4<br/>value = [4, 0]<br/>class = no SeriousDlqin2yrs>, fillcolor="#e58139"] ;
260 -> 266 ;
267 [label=<gini = 0.0<br/>samples = 5<br/>value = [0, 5]<br/>class = SeriousDlqin2yrs>, fillcolor="#399de5"] ;
259 -> 267 ;
268 [label=<age &le; 77.5<br/>gini = 0.422<br/>samples = 106<br/>value = [74, 32]<br/>class = no SeriousDlqin2yrs>, fillcolor="#f0b78f"] ;
258 -> 268 ;
269 [label=<RevolvingUtilizationOfUnsecuredLines &le; 0.534<br/>gini = 0.411<br/>samples = 104<br/>value = [74, 30]<br/>class = no SeriousDlqin2yrs>, fillcolor="#f0b489"] ;
268 -> 269 ;
270 [label=<NumberOfDependents &le; 1.5<br/>gini = 0.398<br/>samples = 102<br/>value = [74, 28]<br/>class = no SeriousDlqin2yrs>, fillcolor="#efb184"] ;
269 -> 270 ;
271 [label=<RevolvingUtilizationOfUnsecuredLines &le; 0.337<br/>gini = 0.324<br/>samples = 64<br/>value = [51, 13]<br/>class = no SeriousDlqin2yrs>, fillcolor="#eca16b"] ;
270 -> 271 ;
272 [label=<gini = 0.21<br/>samples = 42<br/>value = [37, 5]<br/>class = no SeriousDlqin2yrs>, fillcolor="#e99254"] ;
271 -> 272 ;
273 [label=<gini = 0.463<br/>samples = 22<br/>value = [14, 8]<br/>class = no SeriousDlqin2yrs>, fillcolor="#f4c9aa"] ;
271 -> 273 ;
274 [label=<DebtRatio &le; 0.296<br/>gini = 0.478<br/>samples = 38<br/>value = [23, 15]<br/>class = no SeriousDlqin2yrs>, fillcolor="#f6d3ba"] ;
270 -> 274 ;
275 [label=<gini = 0.165<br/>samples = 11<br/>value = [10, 1]<br/>class = no SeriousDlqin2yrs>, fillcolor="#e88e4d"] ;
274 -> 275 ;
276 [label=<gini = 0.499<br/>samples = 27<br/>value = [13, 14]<br/>class = SeriousDlqin2yrs>, fillcolor="#f1f8fd"] ;
274 -> 276 ;
277 [label=<gini = 0.0<br/>samples = 2<br/>value = [0, 2]<br/>class = SeriousDlqin2yrs>, fillcolor="#399de5"] ;
269 -> 277 ;
278 [label=<gini = 0.0<br/>samples = 2<br/>value = [0, 2]<br/>class = SeriousDlqin2yrs>, fillcolor="#399de5"] ;
268 -> 278 ;
279 [label=<NumberOfTime30-59DaysPastDueNotWorse &le; 0.5<br/>gini = 0.216<br/>samples = 26776<br/>value = [23484, 3292]<br/>class = no SeriousDlqin2yrs>, fillcolor="#e99355"] ;
1 -> 279 ;
280 [label=<NumberOfTime60-89DaysPastDueNotWorse &le; 0.5<br/>gini = 0.156<br/>samples = 19817<br/>value = [18124, 1693]<br/>class = no SeriousDlqin2yrs>, fillcolor="#e78d4b"] ;
279 -> 280 ;
281 [label=<NumberRealEstateLoansOrLines &le; 4.5<br/>gini = 0.142<br/>samples = 18962<br/>value = [17503, 1459]<br/>class = no SeriousDlqin2yrs>, fillcolor="#e78c4a"] ;
280 -> 281 ;
282 [label=<RevolvingUtilizationOfUnsecuredLines &le; 1.003<br/>gini = 0.139<br/>samples = 18810<br/>value = [17392, 1418]<br/>class = no SeriousDlqin2yrs>, fillcolor="#e78b49"] ;
281 -> 282 ;
283 [label=<age &le; 58.5<br/>gini = 0.133<br/>samples = 17922<br/>value = [16633, 1289]<br/>class = no SeriousDlqin2yrs>, fillcolor="#e78b48"] ;
282 -> 283 ;
284 [label=<NumberOfOpenCreditLinesAndLoans &le; 0.5<br/>gini = 0.146<br/>samples = 14315<br/>value = [13183, 1132]<br/>class = no SeriousDlqin2yrs>, fillcolor="#e78c4a"] ;
283 -> 284 ;
285 [label=<age &le; 33.5<br/>gini = 0.276<br/>samples = 483<br/>value = [403, 80]<br/>class = no SeriousDlqin2yrs>, fillcolor="#ea9a60"] ;
284 -> 285 ;
286 [label=<DebtRatio &le; 0.002<br/>gini = 0.203<br/>samples = 192<br/>value = [170, 22]<br/>class = no SeriousDlqin2yrs>, fillcolor="#e89153"] ;
285 -> 286 ;
287 [label=<gini = 0.258<br/>samples = 138<br/>value = [117, 21]<br/>class = no SeriousDlqin2yrs>, fillcolor="#ea985d"] ;
286 -> 287 ;
288 [label=<gini = 0.036<br/>samples = 54<br/>value = [53, 1]<br/>class = no SeriousDlqin2yrs>, fillcolor="#e5833d"] ;
286 -> 288 ;
289 [label=<MonthlyIncome &le; 34949.0<br/>gini = 0.319<br/>samples = 291<br/>value = [233, 58]<br/>class = no SeriousDlqin2yrs>, fillcolor="#eba06a"] ;
285 -> 289 ;
290 [label=<gini = 0.316<br/>samples = 290<br/>value = [233, 57]<br/>class = no SeriousDlqin2yrs>, fillcolor="#eba069"] ;
289 -> 290 ;
291 [label=<gini = 0.0<br/>samples = 1<br/>value = [0, 1]<br/>class = SeriousDlqin2yrs>, fillcolor="#399de5"] ;
289 -> 291 ;
292 [label=<DebtRatio &le; 0.526<br/>gini = 0.141<br/>samples = 13832<br/>value = [12780, 1052]<br/>class = no SeriousDlqin2yrs>, fillcolor="#e78b49"] ;
284 -> 292 ;
293 [label=<RevolvingUtilizationOfUnsecuredLines &le; 0.752<br/>gini = 0.122<br/>samples = 9958<br/>value = [9307, 651]<br/>class = no SeriousDlqin2yrs>, fillcolor="#e78a47"] ;
292 -> 293 ;
294 [label=<gini = 0.086<br/>samples = 3485<br/>value = [3329, 156]<br/>class = no SeriousDlqin2yrs>, fillcolor="#e68742"] ;
293 -> 294 ;
295 [label=<gini = 0.141<br/>samples = 6473<br/>value = [5978, 495]<br/>class = no SeriousDlqin2yrs>, fillcolor="#e78b49"] ;
293 -> 295 ;
296 [label=<NumberOfOpenCreditLinesAndLoans &le; 9.5<br/>gini = 0.186<br/>samples = 3874<br/>value = [3473, 401]<br/>class = no SeriousDlqin2yrs>, fillcolor="#e89050"] ;
292 -> 296 ;
297 [label=<gini = 0.138<br/>samples = 2188<br/>value = [2025, 163]<br/>class = no SeriousDlqin2yrs>, fillcolor="#e78b49"] ;
296 -> 297 ;
298 [label=<gini = 0.242<br/>samples = 1686<br/>value = [1448, 238]<br/>class = no SeriousDlqin2yrs>, fillcolor="#e9965a"] ;
296 -> 298 ;
299 [label=<NumberOfOpenCreditLinesAndLoans &le; 8.5<br/>gini = 0.083<br/>samples = 3607<br/>value = [3450, 157]<br/>class = no SeriousDlqin2yrs>, fillcolor="#e68742"] ;
283 -> 299 ;
300 [label=<RevolvingUtilizationOfUnsecuredLines &le; 1.002<br/>gini = 0.067<br/>samples = 2072<br/>value = [2000, 72]<br/>class = no SeriousDlqin2yrs>, fillcolor="#e68640"] ;
299 -> 300 ;
301 [label=<MonthlyIncome &le; 41200.0<br/>gini = 0.066<br/>samples = 2070<br/>value = [1999, 71]<br/>class = no SeriousDlqin2yrs>, fillcolor="#e68540"] ;
300 -> 301 ;
302 [label=<gini = 0.065<br/>samples = 2066<br/>value = [1996, 70]<br/>class = no SeriousDlqin2yrs>, fillcolor="#e68540"] ;
301 -> 302 ;
303 [label=<gini = 0.375<br/>samples = 4<br/>value = [3, 1]<br/>class = no SeriousDlqin2yrs>, fillcolor="#eeab7b"] ;
301 -> 303 ;
304 [label=<NumberRealEstateLoansOrLines &le; 1.5<br/>gini = 0.5<br/>samples = 2<br/>value = [1, 1]<br/>class = no SeriousDlqin2yrs>, fillcolor="#ffffff"] ;
300 -> 304 ;
305 [label=<gini = 0.0<br/>samples = 1<br/>value = [0, 1]<br/>class = SeriousDlqin2yrs>, fillcolor="#399de5"] ;
304 -> 305 ;
306 [label=<gini = 0.0<br/>samples = 1<br/>value = [1, 0]<br/>class = no SeriousDlqin2yrs>, fillcolor="#e58139"] ;
304 -> 306 ;
307 [label=<MonthlyIncome &le; 7752.0<br/>gini = 0.105<br/>samples = 1535<br/>value = [1450, 85]<br/>class = no SeriousDlqin2yrs>, fillcolor="#e78845"] ;
299 -> 307 ;
308 [label=<RevolvingUtilizationOfUnsecuredLines &le; 0.883<br/>gini = 0.14<br/>samples = 954<br/>value = [882, 72]<br/>class = no SeriousDlqin2yrs>, fillcolor="#e78b49"] ;
307 -> 308 ;
309 [label=<gini = 0.11<br/>samples = 756<br/>value = [712, 44]<br/>class = no SeriousDlqin2yrs>, fillcolor="#e78945"] ;
308 -> 309 ;
310 [label=<gini = 0.243<br/>samples = 198<br/>value = [170, 28]<br/>class = no SeriousDlqin2yrs>, fillcolor="#e9965a"] ;
308 -> 310 ;
311 [label=<DebtRatio &le; 0.113<br/>gini = 0.044<br/>samples = 581<br/>value = [568, 13]<br/>class = no SeriousDlqin2yrs>, fillcolor="#e6843e"] ;
307 -> 311 ;
312 [label=<gini = 0.245<br/>samples = 14<br/>value = [12, 2]<br/>class = no SeriousDlqin2yrs>, fillcolor="#e9965a"] ;
311 -> 312 ;
313 [label=<gini = 0.038<br/>samples = 567<br/>value = [556, 11]<br/>class = no SeriousDlqin2yrs>, fillcolor="#e6833d"] ;
311 -> 313 ;
314 [label=<MonthlyIncome &le; 4707.0<br/>gini = 0.248<br/>samples = 888<br/>value = [759, 129]<br/>class = no SeriousDlqin2yrs>, fillcolor="#e9965b"] ;
282 -> 314 ;
315 [label=<DebtRatio &le; 0.006<br/>gini = 0.342<br/>samples = 448<br/>value = [350, 98]<br/>class = no SeriousDlqin2yrs>, fillcolor="#eca470"] ;
314 -> 315 ;
316 [label=<age &le; 60.5<br/>gini = 0.444<br/>samples = 12<br/>value = [4, 8]<br/>class = SeriousDlqin2yrs>, fillcolor="#9ccef2"] ;
315 -> 316 ;
317 [label=<DebtRatio &le; 0.002<br/>gini = 0.32<br/>samples = 10<br/>value = [2, 8]<br/>class = SeriousDlqin2yrs>, fillcolor="#6ab6ec"] ;
316 -> 317 ;
318 [label=<gini = 0.0<br/>samples = 1<br/>value = [1, 0]<br/>class = no SeriousDlqin2yrs>, fillcolor="#e58139"] ;
317 -> 318 ;
319 [label=<gini = 0.198<br/>samples = 9<br/>value = [1, 8]<br/>class = SeriousDlqin2yrs>, fillcolor="#52a9e8"] ;
317 -> 319 ;
320 [label=<gini = 0.0<br/>samples = 2<br/>value = [2, 0]<br/>class = no SeriousDlqin2yrs>, fillcolor="#e58139"] ;
316 -> 320 ;
321 [label=<NumberOfDependents &le; 0.5<br/>gini = 0.328<br/>samples = 436<br/>value = [346, 90]<br/>class = no SeriousDlqin2yrs>, fillcolor="#eca26d"] ;
315 -> 321 ;
322 [label=<RevolvingUtilizationOfUnsecuredLines &le; 1.003<br/>gini = 0.26<br/>samples = 260<br/>value = [220, 40]<br/>class = no SeriousDlqin2yrs>, fillcolor="#ea985d"] ;
321 -> 322 ;
323 [label=<gini = 0.444<br/>samples = 3<br/>value = [1, 2]<br/>class = SeriousDlqin2yrs>, fillcolor="#9ccef2"] ;
322 -> 323 ;
324 [label=<gini = 0.252<br/>samples = 257<br/>value = [219, 38]<br/>class = no SeriousDlqin2yrs>, fillcolor="#ea975b"] ;
322 -> 324 ;
325 [label=<NumberOfOpenCreditLinesAndLoans &le; 8.5<br/>gini = 0.407<br/>samples = 176<br/>value = [126, 50]<br/>class = no SeriousDlqin2yrs>, fillcolor="#efb388"] ;
321 -> 325 ;
326 [label=<gini = 0.357<br/>samples = 142<br/>value = [109, 33]<br/>class = no SeriousDlqin2yrs>, fillcolor="#eda775"] ;
325 -> 326 ;
327 [label=<gini = 0.5<br/>samples = 34<br/>value = [17, 17]<br/>class = no SeriousDlqin2yrs>, fillcolor="#ffffff"] ;
325 -> 327 ;
328 [label=<DebtRatio &le; 0.634<br/>gini = 0.131<br/>samples = 440<br/>value = [409, 31]<br/>class = no SeriousDlqin2yrs>, fillcolor="#e78b48"] ;
314 -> 328 ;
329 [label=<NumberOfOpenCreditLinesAndLoans &le; 19.5<br/>gini = 0.109<br/>samples = 396<br/>value = [373, 23]<br/>class = no SeriousDlqin2yrs>, fillcolor="#e78945"] ;
328 -> 329 ;
330 [label=<age &le; 43.5<br/>gini = 0.098<br/>samples = 387<br/>value = [367, 20]<br/>class = no SeriousDlqin2yrs>, fillcolor="#e68844"] ;
329 -> 330 ;
331 [label=<gini = 0.156<br/>samples = 164<br/>value = [150, 14]<br/>class = no SeriousDlqin2yrs>, fillcolor="#e78d4b"] ;
330 -> 331 ;
332 [label=<gini = 0.052<br/>samples = 223<br/>value = [217, 6]<br/>class = no SeriousDlqin2yrs>, fillcolor="#e6843e"] ;
330 -> 332 ;
333 [label=<RevolvingUtilizationOfUnsecuredLines &le; 1.057<br/>gini = 0.444<br/>samples = 9<br/>value = [6, 3]<br/>class = no SeriousDlqin2yrs>, fillcolor="#f2c09c"] ;
329 -> 333 ;
334 [label=<gini = 0.375<br/>samples = 4<br/>value = [1, 3]<br/>class = SeriousDlqin2yrs>, fillcolor="#7bbeee"] ;
333 -> 334 ;
335 [label=<gini = 0.0<br/>samples = 5<br/>value = [5, 0]<br/>class = no SeriousDlqin2yrs>, fillcolor="#e58139"] ;
333 -> 335 ;
336 [label=<DebtRatio &le; 0.685<br/>gini = 0.298<br/>samples = 44<br/>value = [36, 8]<br/>class = no SeriousDlqin2yrs>, fillcolor="#eb9d65"] ;
328 -> 336 ;
337 [label=<RevolvingUtilizationOfUnsecuredLines &le; 1.004<br/>gini = 0.486<br/>samples = 12<br/>value = [7, 5]<br/>class = no SeriousDlqin2yrs>, fillcolor="#f8dbc6"] ;
336 -> 337 ;
338 [label=<gini = 0.0<br/>samples = 2<br/>value = [0, 2]<br/>class = SeriousDlqin2yrs>, fillcolor="#399de5"] ;
337 -> 338 ;
339 [label=<gini = 0.42<br/>samples = 10<br/>value = [7, 3]<br/>class = no SeriousDlqin2yrs>, fillcolor="#f0b78e"] ;
337 -> 339 ;
340 [label=<DebtRatio &le; 1.546<br/>gini = 0.17<br/>samples = 32<br/>value = [29, 3]<br/>class = no SeriousDlqin2yrs>, fillcolor="#e88e4d"] ;
336 -> 340 ;
341 [label=<gini = 0.124<br/>samples = 30<br/>value = [28, 2]<br/>class = no SeriousDlqin2yrs>, fillcolor="#e78a47"] ;
340 -> 341 ;
342 [label=<gini = 0.5<br/>samples = 2<br/>value = [1, 1]<br/>class = no SeriousDlqin2yrs>, fillcolor="#ffffff"] ;
340 -> 342 ;
343 [label=<age &le; 37.5<br/>gini = 0.394<br/>samples = 152<br/>value = [111, 41]<br/>class = no SeriousDlqin2yrs>, fillcolor="#efb082"] ;
281 -> 343 ;
344 [label=<NumberOfOpenCreditLinesAndLoans &le; 14.0<br/>gini = 0.463<br/>samples = 11<br/>value = [4, 7]<br/>class = SeriousDlqin2yrs>, fillcolor="#aad5f4"] ;
343 -> 344 ;
345 [label=<DebtRatio &le; 1.402<br/>gini = 0.444<br/>samples = 6<br/>value = [4, 2]<br/>class = no SeriousDlqin2yrs>, fillcolor="#f2c09c"] ;
344 -> 345 ;
346 [label=<gini = 0.0<br/>samples = 4<br/>value = [4, 0]<br/>class = no SeriousDlqin2yrs>, fillcolor="#e58139"] ;
345 -> 346 ;
347 [label=<gini = 0.0<br/>samples = 2<br/>value = [0, 2]<br/>class = SeriousDlqin2yrs>, fillcolor="#399de5"] ;
345 -> 347 ;
348 [label=<gini = 0.0<br/>samples = 5<br/>value = [0, 5]<br/>class = SeriousDlqin2yrs>, fillcolor="#399de5"] ;
344 -> 348 ;
349 [label=<DebtRatio &le; 0.464<br/>gini = 0.366<br/>samples = 141<br/>value = [107, 34]<br/>class = no SeriousDlqin2yrs>, fillcolor="#eda978"] ;
343 -> 349 ;
350 [label=<MonthlyIncome &le; 10779.5<br/>gini = 0.087<br/>samples = 22<br/>value = [21, 1]<br/>class = no SeriousDlqin2yrs>, fillcolor="#e68742"] ;
349 -> 350 ;
351 [label=<NumberRealEstateLoansOrLines &le; 6.0<br/>gini = 0.5<br/>samples = 2<br/>value = [1, 1]<br/>class = no SeriousDlqin2yrs>, fillcolor="#ffffff"] ;
350 -> 351 ;
352 [label=<gini = 0.0<br/>samples = 1<br/>value = [0, 1]<br/>class = SeriousDlqin2yrs>, fillcolor="#399de5"] ;
351 -> 352 ;
353 [label=<gini = 0.0<br/>samples = 1<br/>value = [1, 0]<br/>class = no SeriousDlqin2yrs>, fillcolor="#e58139"] ;
351 -> 353 ;
354 [label=<gini = 0.0<br/>samples = 20<br/>value = [20, 0]<br/>class = no SeriousDlqin2yrs>, fillcolor="#e58139"] ;
350 -> 354 ;
355 [label=<NumberOfOpenCreditLinesAndLoans &le; 22.5<br/>gini = 0.401<br/>samples = 119<br/>value = [86, 33]<br/>class = no SeriousDlqin2yrs>, fillcolor="#efb185"] ;
349 -> 355 ;
356 [label=<NumberOfOpenCreditLinesAndLoans &le; 16.5<br/>gini = 0.426<br/>samples = 104<br/>value = [72, 32]<br/>class = no SeriousDlqin2yrs>, fillcolor="#f1b991"] ;
355 -> 356 ;
357 [label=<DebtRatio &le; 1.143<br/>gini = 0.372<br/>samples = 73<br/>value = [55, 18]<br/>class = no SeriousDlqin2yrs>, fillcolor="#eeaa7a"] ;
356 -> 357 ;
358 [label=<gini = 0.265<br/>samples = 51<br/>value = [43, 8]<br/>class = no SeriousDlqin2yrs>, fillcolor="#ea985e"] ;
357 -> 358 ;
359 [label=<gini = 0.496<br/>samples = 22<br/>value = [12, 10]<br/>class = no SeriousDlqin2yrs>, fillcolor="#fbeade"] ;
357 -> 359 ;
360 [label=<MonthlyIncome &le; 8763.0<br/>gini = 0.495<br/>samples = 31<br/>value = [17, 14]<br/>class = no SeriousDlqin2yrs>, fillcolor="#fae9dc"] ;
356 -> 360 ;
361 [label=<gini = 0.18<br/>samples = 10<br/>value = [9, 1]<br/>class = no SeriousDlqin2yrs>, fillcolor="#e88f4f"] ;
360 -> 361 ;
362 [label=<gini = 0.472<br/>samples = 21<br/>value = [8, 13]<br/>class = SeriousDlqin2yrs>, fillcolor="#b3d9f5"] ;
360 -> 362 ;
363 [label=<age &le; 66.5<br/>gini = 0.124<br/>samples = 15<br/>value = [14, 1]<br/>class = no SeriousDlqin2yrs>, fillcolor="#e78a47"] ;
355 -> 363 ;
364 [label=<gini = 0.0<br/>samples = 11<br/>value = [11, 0]<br/>class = no SeriousDlqin2yrs>, fillcolor="#e58139"] ;
363 -> 364 ;
365 [label=<RevolvingUtilizationOfUnsecuredLines &le; 0.631<br/>gini = 0.375<br/>samples = 4<br/>value = [3, 1]<br/>class = no SeriousDlqin2yrs>, fillcolor="#eeab7b"] ;
363 -> 365 ;
366 [label=<gini = 0.0<br/>samples = 2<br/>value = [2, 0]<br/>class = no SeriousDlqin2yrs>, fillcolor="#e58139"] ;
365 -> 366 ;
367 [label=<gini = 0.5<br/>samples = 2<br/>value = [1, 1]<br/>class = no SeriousDlqin2yrs>, fillcolor="#ffffff"] ;
365 -> 367 ;
368 [label=<RevolvingUtilizationOfUnsecuredLines &le; 0.962<br/>gini = 0.398<br/>samples = 855<br/>value = [621, 234]<br/>class = no SeriousDlqin2yrs>, fillcolor="#efb084"] ;
280 -> 368 ;
369 [label=<DebtRatio &le; 0.105<br/>gini = 0.331<br/>samples = 439<br/>value = [347, 92]<br/>class = no SeriousDlqin2yrs>, fillcolor="#eca26d"] ;
368 -> 369 ;
370 [label=<DebtRatio &le; 0.002<br/>gini = 0.46<br/>samples = 67<br/>value = [43, 24]<br/>class = no SeriousDlqin2yrs>, fillcolor="#f4c7a8"] ;
369 -> 370 ;
371 [label=<gini = 0.0<br/>samples = 2<br/>value = [0, 2]<br/>class = SeriousDlqin2yrs>, fillcolor="#399de5"] ;
370 -> 371 ;
372 [label=<DebtRatio &le; 0.064<br/>gini = 0.448<br/>samples = 65<br/>value = [43, 22]<br/>class = no SeriousDlqin2yrs>, fillcolor="#f2c19e"] ;
370 -> 372 ;
373 [label=<DebtRatio &le; 0.04<br/>gini = 0.353<br/>samples = 35<br/>value = [27, 8]<br/>class = no SeriousDlqin2yrs>, fillcolor="#eda674"] ;
372 -> 373 ;
374 [label=<DebtRatio &le; 0.019<br/>gini = 0.48<br/>samples = 15<br/>value = [9, 6]<br/>class = no SeriousDlqin2yrs>, fillcolor="#f6d5bd"] ;
373 -> 374 ;
375 [label=<gini = 0.0<br/>samples = 4<br/>value = [4, 0]<br/>class = no SeriousDlqin2yrs>, fillcolor="#e58139"] ;
374 -> 375 ;
376 [label=<gini = 0.496<br/>samples = 11<br/>value = [5, 6]<br/>class = SeriousDlqin2yrs>, fillcolor="#deeffb"] ;
374 -> 376 ;
377 [label=<MonthlyIncome &le; 2584.5<br/>gini = 0.18<br/>samples = 20<br/>value = [18, 2]<br/>class = no SeriousDlqin2yrs>, fillcolor="#e88f4f"] ;
373 -> 377 ;
378 [label=<gini = 0.444<br/>samples = 3<br/>value = [2, 1]<br/>class = no SeriousDlqin2yrs>, fillcolor="#f2c09c"] ;
377 -> 378 ;
379 [label=<gini = 0.111<br/>samples = 17<br/>value = [16, 1]<br/>class = no SeriousDlqin2yrs>, fillcolor="#e78945"] ;
377 -> 379 ;
380 [label=<MonthlyIncome &le; 2958.0<br/>gini = 0.498<br/>samples = 30<br/>value = [16, 14]<br/>class = no SeriousDlqin2yrs>, fillcolor="#fcefe6"] ;
372 -> 380 ;
381 [label=<gini = 0.0<br/>samples = 4<br/>value = [4, 0]<br/>class = no SeriousDlqin2yrs>, fillcolor="#e58139"] ;
380 -> 381 ;
382 [label=<age &le; 32.5<br/>gini = 0.497<br/>samples = 26<br/>value = [12, 14]<br/>class = SeriousDlqin2yrs>, fillcolor="#e3f1fb"] ;
380 -> 382 ;
383 [label=<gini = 0.245<br/>samples = 7<br/>value = [1, 6]<br/>class = SeriousDlqin2yrs>, fillcolor="#5aade9"] ;
382 -> 383 ;
384 [label=<gini = 0.488<br/>samples = 19<br/>value = [11, 8]<br/>class = no SeriousDlqin2yrs>, fillcolor="#f8ddc9"] ;
382 -> 384 ;
385 [label=<DebtRatio &le; 0.949<br/>gini = 0.299<br/>samples = 372<br/>value = [304, 68]<br/>class = no SeriousDlqin2yrs>, fillcolor="#eb9d65"] ;
369 -> 385 ;
386 [label=<MonthlyIncome &le; 792.0<br/>gini = 0.276<br/>samples = 339<br/>value = [283, 56]<br/>class = no SeriousDlqin2yrs>, fillcolor="#ea9a60"] ;
385 -> 386 ;
387 [label=<gini = 0.0<br/>samples = 1<br/>value = [0, 1]<br/>class = SeriousDlqin2yrs>, fillcolor="#399de5"] ;
386 -> 387 ;
388 [label=<DebtRatio &le; 0.259<br/>gini = 0.272<br/>samples = 338<br/>value = [283, 55]<br/>class = no SeriousDlqin2yrs>, fillcolor="#ea995f"] ;
386 -> 388 ;
389 [label=<age &le; 29.5<br/>gini = 0.182<br/>samples = 99<br/>value = [89, 10]<br/>class = no SeriousDlqin2yrs>, fillcolor="#e88f4f"] ;
388 -> 389 ;
390 [label=<gini = 0.426<br/>samples = 13<br/>value = [9, 4]<br/>class = no SeriousDlqin2yrs>, fillcolor="#f1b991"] ;
389 -> 390 ;
391 [label=<gini = 0.13<br/>samples = 86<br/>value = [80, 6]<br/>class = no SeriousDlqin2yrs>, fillcolor="#e78a48"] ;
389 -> 391 ;
392 [label=<DebtRatio &le; 0.259<br/>gini = 0.306<br/>samples = 239<br/>value = [194, 45]<br/>class = no SeriousDlqin2yrs>, fillcolor="#eb9e67"] ;
388 -> 392 ;
393 [label=<gini = 0.0<br/>samples = 2<br/>value = [0, 2]<br/>class = SeriousDlqin2yrs>, fillcolor="#399de5"] ;
392 -> 393 ;
394 [label=<gini = 0.297<br/>samples = 237<br/>value = [194, 43]<br/>class = no SeriousDlqin2yrs>, fillcolor="#eb9d65"] ;
392 -> 394 ;
395 [label=<DebtRatio &le; 2.341<br/>gini = 0.463<br/>samples = 33<br/>value = [21, 12]<br/>class = no SeriousDlqin2yrs>, fillcolor="#f4c9aa"] ;
385 -> 395 ;
396 [label=<MonthlyIncome &le; 2111.0<br/>gini = 0.499<br/>samples = 23<br/>value = [12, 11]<br/>class = no SeriousDlqin2yrs>, fillcolor="#fdf5ef"] ;
395 -> 396 ;
397 [label=<NumberRealEstateLoansOrLines &le; 3.5<br/>gini = 0.219<br/>samples = 8<br/>value = [1, 7]<br/>class = SeriousDlqin2yrs>, fillcolor="#55abe9"] ;
396 -> 397 ;
398 [label=<gini = 0.0<br/>samples = 7<br/>value = [0, 7]<br/>class = SeriousDlqin2yrs>, fillcolor="#399de5"] ;
397 -> 398 ;
399 [label=<gini = 0.0<br/>samples = 1<br/>value = [1, 0]<br/>class = no SeriousDlqin2yrs>, fillcolor="#e58139"] ;
397 -> 399 ;
400 [label=<RevolvingUtilizationOfUnsecuredLines &le; 0.726<br/>gini = 0.391<br/>samples = 15<br/>value = [11, 4]<br/>class = no SeriousDlqin2yrs>, fillcolor="#eeaf81"] ;
396 -> 400 ;
401 [label=<gini = 0.494<br/>samples = 9<br/>value = [5, 4]<br/>class = no SeriousDlqin2yrs>, fillcolor="#fae6d7"] ;
400 -> 401 ;
402 [label=<gini = 0.0<br/>samples = 6<br/>value = [6, 0]<br/>class = no SeriousDlqin2yrs>, fillcolor="#e58139"] ;
400 -> 402 ;
403 [label=<NumberOfDependents &le; 2.5<br/>gini = 0.18<br/>samples = 10<br/>value = [9, 1]<br/>class = no SeriousDlqin2yrs>, fillcolor="#e88f4f"] ;
395 -> 403 ;
404 [label=<gini = 0.0<br/>samples = 8<br/>value = [8, 0]<br/>class = no SeriousDlqin2yrs>, fillcolor="#e58139"] ;
403 -> 404 ;
405 [label=<RevolvingUtilizationOfUnsecuredLines &le; 0.856<br/>gini = 0.5<br/>samples = 2<br/>value = [1, 1]<br/>class = no SeriousDlqin2yrs>, fillcolor="#ffffff"] ;
403 -> 405 ;
406 [label=<gini = 0.0<br/>samples = 1<br/>value = [0, 1]<br/>class = SeriousDlqin2yrs>, fillcolor="#399de5"] ;
405 -> 406 ;
407 [label=<gini = 0.0<br/>samples = 1<br/>value = [1, 0]<br/>class = no SeriousDlqin2yrs>, fillcolor="#e58139"] ;
405 -> 407 ;
408 [label=<RevolvingUtilizationOfUnsecuredLines &le; 0.965<br/>gini = 0.45<br/>samples = 416<br/>value = [274, 142]<br/>class = no SeriousDlqin2yrs>, fillcolor="#f2c2a0"] ;
368 -> 408 ;
409 [label=<DebtRatio &le; 0.264<br/>gini = 0.32<br/>samples = 10<br/>value = [2, 8]<br/>class = SeriousDlqin2yrs>, fillcolor="#6ab6ec"] ;
408 -> 409 ;
410 [label=<NumberOfOpenCreditLinesAndLoans &le; 2.5<br/>gini = 0.444<br/>samples = 3<br/>value = [2, 1]<br/>class = no SeriousDlqin2yrs>, fillcolor="#f2c09c"] ;
409 -> 410 ;
411 [label=<gini = 0.0<br/>samples = 1<br/>value = [0, 1]<br/>class = SeriousDlqin2yrs>, fillcolor="#399de5"] ;
410 -> 411 ;
412 [label=<gini = 0.0<br/>samples = 2<br/>value = [2, 0]<br/>class = no SeriousDlqin2yrs>, fillcolor="#e58139"] ;
410 -> 412 ;
413 [label=<gini = 0.0<br/>samples = 7<br/>value = [0, 7]<br/>class = SeriousDlqin2yrs>, fillcolor="#399de5"] ;
409 -> 413 ;
414 [label=<age &le; 23.5<br/>gini = 0.442<br/>samples = 406<br/>value = [272, 134]<br/>class = no SeriousDlqin2yrs>, fillcolor="#f2bf9b"] ;
408 -> 414 ;
415 [label=<gini = 0.0<br/>samples = 4<br/>value = [0, 4]<br/>class = SeriousDlqin2yrs>, fillcolor="#399de5"] ;
414 -> 415 ;
416 [label=<DebtRatio &le; 0.402<br/>gini = 0.438<br/>samples = 402<br/>value = [272, 130]<br/>class = no SeriousDlqin2yrs>, fillcolor="#f1bd98"] ;
414 -> 416 ;
417 [label=<DebtRatio &le; 0.388<br/>gini = 0.413<br/>samples = 295<br/>value = [209, 86]<br/>class = no SeriousDlqin2yrs>, fillcolor="#f0b58a"] ;
416 -> 417 ;
418 [label=<age &le; 70.5<br/>gini = 0.421<br/>samples = 286<br/>value = [200, 86]<br/>class = no SeriousDlqin2yrs>, fillcolor="#f0b78e"] ;
417 -> 418 ;
419 [label=<gini = 0.426<br/>samples = 279<br/>value = [193, 86]<br/>class = no SeriousDlqin2yrs>, fillcolor="#f1b991"] ;
418 -> 419 ;
420 [label=<gini = 0.0<br/>samples = 7<br/>value = [7, 0]<br/>class = no SeriousDlqin2yrs>, fillcolor="#e58139"] ;
418 -> 420 ;
421 [label=<gini = 0.0<br/>samples = 9<br/>value = [9, 0]<br/>class = no SeriousDlqin2yrs>, fillcolor="#e58139"] ;
417 -> 421 ;
422 [label=<RevolvingUtilizationOfUnsecuredLines &le; 1.115<br/>gini = 0.484<br/>samples = 107<br/>value = [63, 44]<br/>class = no SeriousDlqin2yrs>, fillcolor="#f7d9c3"] ;
416 -> 422 ;
423 [label=<DebtRatio &le; 0.873<br/>gini = 0.469<br/>samples = 96<br/>value = [60, 36]<br/>class = no SeriousDlqin2yrs>, fillcolor="#f5cdb0"] ;
422 -> 423 ;
424 [label=<gini = 0.492<br/>samples = 73<br/>value = [41, 32]<br/>class = no SeriousDlqin2yrs>, fillcolor="#f9e3d4"] ;
423 -> 424 ;
425 [label=<gini = 0.287<br/>samples = 23<br/>value = [19, 4]<br/>class = no SeriousDlqin2yrs>, fillcolor="#ea9c63"] ;
423 -> 425 ;
426 [label=<DebtRatio &le; 0.648<br/>gini = 0.397<br/>samples = 11<br/>value = [3, 8]<br/>class = SeriousDlqin2yrs>, fillcolor="#83c2ef"] ;
422 -> 426 ;
427 [label=<gini = 0.5<br/>samples = 6<br/>value = [3, 3]<br/>class = no SeriousDlqin2yrs>, fillcolor="#ffffff"] ;
426 -> 427 ;
428 [label=<gini = 0.0<br/>samples = 5<br/>value = [0, 5]<br/>class = SeriousDlqin2yrs>, fillcolor="#399de5"] ;
426 -> 428 ;
429 [label=<RevolvingUtilizationOfUnsecuredLines &le; 1.0<br/>gini = 0.354<br/>samples = 6959<br/>value = [5360, 1599]<br/>class = no SeriousDlqin2yrs>, fillcolor="#eda774"] ;
279 -> 429 ;
430 [label=<NumberOfTime30-59DaysPastDueNotWorse &le; 1.5<br/>gini = 0.325<br/>samples = 6097<br/>value = [4851, 1246]<br/>class = no SeriousDlqin2yrs>, fillcolor="#eca16c"] ;
429 -> 430 ;
431 [label=<NumberOfTime60-89DaysPastDueNotWorse &le; 0.5<br/>gini = 0.27<br/>samples = 3927<br/>value = [3294, 633]<br/>class = no SeriousDlqin2yrs>, fillcolor="#ea995f"] ;
430 -> 431 ;
432 [label=<RevolvingUtilizationOfUnsecuredLines &le; 0.802<br/>gini = 0.244<br/>samples = 3457<br/>value = [2966, 491]<br/>class = no SeriousDlqin2yrs>, fillcolor="#e9965a"] ;
431 -> 432 ;
433 [label=<DebtRatio &le; 0.028<br/>gini = 0.185<br/>samples = 1483<br/>value = [1330, 153]<br/>class = no SeriousDlqin2yrs>, fillcolor="#e88f50"] ;
432 -> 433 ;
434 [label=<DebtRatio &le; 0.02<br/>gini = 0.454<br/>samples = 23<br/>value = [15, 8]<br/>class = no SeriousDlqin2yrs>, fillcolor="#f3c4a3"] ;
433 -> 434 ;
435 [label=<NumberOfDependents &le; 2.5<br/>gini = 0.124<br/>samples = 15<br/>value = [14, 1]<br/>class = no SeriousDlqin2yrs>, fillcolor="#e78a47"] ;
434 -> 435 ;
436 [label=<gini = 0.0<br/>samples = 14<br/>value = [14, 0]<br/>class = no SeriousDlqin2yrs>, fillcolor="#e58139"] ;
435 -> 436 ;
437 [label=<gini = 0.0<br/>samples = 1<br/>value = [0, 1]<br/>class = SeriousDlqin2yrs>, fillcolor="#399de5"] ;
435 -> 437 ;
438 [label=<NumberOfOpenCreditLinesAndLoans &le; 1.5<br/>gini = 0.219<br/>samples = 8<br/>value = [1, 7]<br/>class = SeriousDlqin2yrs>, fillcolor="#55abe9"] ;
434 -> 438 ;
439 [label=<gini = 0.5<br/>samples = 2<br/>value = [1, 1]<br/>class = no SeriousDlqin2yrs>, fillcolor="#ffffff"] ;
438 -> 439 ;
440 [label=<gini = 0.0<br/>samples = 6<br/>value = [0, 6]<br/>class = SeriousDlqin2yrs>, fillcolor="#399de5"] ;
438 -> 440 ;
441 [label=<NumberOfDependents &le; 2.5<br/>gini = 0.179<br/>samples = 1460<br/>value = [1315, 145]<br/>class = no SeriousDlqin2yrs>, fillcolor="#e88f4f"] ;
433 -> 441 ;
442 [label=<NumberOfOpenCreditLinesAndLoans &le; 25.5<br/>gini = 0.165<br/>samples = 1264<br/>value = [1149, 115]<br/>class = no SeriousDlqin2yrs>, fillcolor="#e88e4d"] ;
441 -> 442 ;
443 [label=<gini = 0.162<br/>samples = 1256<br/>value = [1144, 112]<br/>class = no SeriousDlqin2yrs>, fillcolor="#e88d4c"] ;
442 -> 443 ;
444 [label=<gini = 0.469<br/>samples = 8<br/>value = [5, 3]<br/>class = no SeriousDlqin2yrs>, fillcolor="#f5cdb0"] ;
442 -> 444 ;
445 [label=<age &le; 54.5<br/>gini = 0.259<br/>samples = 196<br/>value = [166, 30]<br/>class = no SeriousDlqin2yrs>, fillcolor="#ea985d"] ;
441 -> 445 ;
446 [label=<gini = 0.229<br/>samples = 182<br/>value = [158, 24]<br/>class = no SeriousDlqin2yrs>, fillcolor="#e99457"] ;
445 -> 446 ;
447 [label=<gini = 0.49<br/>samples = 14<br/>value = [8, 6]<br/>class = no SeriousDlqin2yrs>, fillcolor="#f8e0ce"] ;
445 -> 447 ;
448 [label=<NumberOfDependents &le; 5.5<br/>gini = 0.284<br/>samples = 1974<br/>value = [1636, 338]<br/>class = no SeriousDlqin2yrs>, fillcolor="#ea9b62"] ;
432 -> 448 ;
449 [label=<age &le; 63.5<br/>gini = 0.283<br/>samples = 1972<br/>value = [1636, 336]<br/>class = no SeriousDlqin2yrs>, fillcolor="#ea9b62"] ;
448 -> 449 ;
450 [label=<MonthlyIncome &le; 9474.5<br/>gini = 0.293<br/>samples = 1815<br/>value = [1492, 323]<br/>class = no SeriousDlqin2yrs>, fillcolor="#eb9c64"] ;
449 -> 450 ;
451 [label=<gini = 0.306<br/>samples = 1581<br/>value = [1283, 298]<br/>class = no SeriousDlqin2yrs>, fillcolor="#eb9e67"] ;
450 -> 451 ;
452 [label=<gini = 0.191<br/>samples = 234<br/>value = [209, 25]<br/>class = no SeriousDlqin2yrs>, fillcolor="#e89051"] ;
450 -> 452 ;
453 [label=<MonthlyIncome &le; 21665.0<br/>gini = 0.152<br/>samples = 157<br/>value = [144, 13]<br/>class = no SeriousDlqin2yrs>, fillcolor="#e78c4b"] ;
449 -> 453 ;
454 [label=<gini = 0.132<br/>samples = 155<br/>value = [144, 11]<br/>class = no SeriousDlqin2yrs>, fillcolor="#e78b48"] ;
453 -> 454 ;
455 [label=<gini = 0.0<br/>samples = 2<br/>value = [0, 2]<br/>class = SeriousDlqin2yrs>, fillcolor="#399de5"] ;
453 -> 455 ;
456 [label=<gini = 0.0<br/>samples = 2<br/>value = [0, 2]<br/>class = SeriousDlqin2yrs>, fillcolor="#399de5"] ;
448 -> 456 ;
457 [label=<DebtRatio &le; 0.529<br/>gini = 0.422<br/>samples = 470<br/>value = [328, 142]<br/>class = no SeriousDlqin2yrs>, fillcolor="#f0b88f"] ;
431 -> 457 ;
458 [label=<MonthlyIncome &le; 5684.0<br/>gini = 0.388<br/>samples = 349<br/>value = [257, 92]<br/>class = no SeriousDlqin2yrs>, fillcolor="#eeae80"] ;
457 -> 458 ;
459 [label=<NumberOfDependents &le; 0.5<br/>gini = 0.427<br/>samples = 220<br/>value = [152, 68]<br/>class = no SeriousDlqin2yrs>, fillcolor="#f1b992"] ;
458 -> 459 ;
460 [label=<MonthlyIncome &le; 5621.5<br/>gini = 0.364<br/>samples = 113<br/>value = [86, 27]<br/>class = no SeriousDlqin2yrs>, fillcolor="#eda977"] ;
459 -> 460 ;
461 [label=<gini = 0.349<br/>samples = 111<br/>value = [86, 25]<br/>class = no SeriousDlqin2yrs>, fillcolor="#eda673"] ;
460 -> 461 ;
462 [label=<gini = 0.0<br/>samples = 2<br/>value = [0, 2]<br/>class = SeriousDlqin2yrs>, fillcolor="#399de5"] ;
460 -> 462 ;
463 [label=<RevolvingUtilizationOfUnsecuredLines &le; 0.673<br/>gini = 0.473<br/>samples = 107<br/>value = [66, 41]<br/>class = no SeriousDlqin2yrs>, fillcolor="#f5cfb4"] ;
459 -> 463 ;
464 [label=<gini = 0.391<br/>samples = 15<br/>value = [4, 11]<br/>class = SeriousDlqin2yrs>, fillcolor="#81c1ee"] ;
463 -> 464 ;
465 [label=<gini = 0.44<br/>samples = 92<br/>value = [62, 30]<br/>class = no SeriousDlqin2yrs>, fillcolor="#f2be99"] ;
463 -> 465 ;
466 [label=<RevolvingUtilizationOfUnsecuredLines &le; 0.984<br/>gini = 0.303<br/>samples = 129<br/>value = [105, 24]<br/>class = no SeriousDlqin2yrs>, fillcolor="#eb9e66"] ;
458 -> 466 ;
467 [label=<DebtRatio &le; 0.069<br/>gini = 0.227<br/>samples = 107<br/>value = [93, 14]<br/>class = no SeriousDlqin2yrs>, fillcolor="#e99457"] ;
466 -> 467 ;
468 [label=<gini = 0.48<br/>samples = 5<br/>value = [2, 3]<br/>class = SeriousDlqin2yrs>, fillcolor="#bddef6"] ;
467 -> 468 ;
469 [label=<gini = 0.192<br/>samples = 102<br/>value = [91, 11]<br/>class = no SeriousDlqin2yrs>, fillcolor="#e89051"] ;
467 -> 469 ;
470 [label=<DebtRatio &le; 0.176<br/>gini = 0.496<br/>samples = 22<br/>value = [12, 10]<br/>class = no SeriousDlqin2yrs>, fillcolor="#fbeade"] ;
466 -> 470 ;
471 [label=<gini = 0.0<br/>samples = 4<br/>value = [0, 4]<br/>class = SeriousDlqin2yrs>, fillcolor="#399de5"] ;
470 -> 471 ;
472 [label=<gini = 0.444<br/>samples = 18<br/>value = [12, 6]<br/>class = no SeriousDlqin2yrs>, fillcolor="#f2c09c"] ;
470 -> 472 ;
473 [label=<NumberOfTime60-89DaysPastDueNotWorse &le; 1.5<br/>gini = 0.485<br/>samples = 121<br/>value = [71, 50]<br/>class = no SeriousDlqin2yrs>, fillcolor="#f7dac4"] ;
457 -> 473 ;
474 [label=<MonthlyIncome &le; 7473.0<br/>gini = 0.456<br/>samples = 94<br/>value = [61, 33]<br/>class = no SeriousDlqin2yrs>, fillcolor="#f3c5a4"] ;
473 -> 474 ;
475 [label=<NumberOfOpenCreditLinesAndLoans &le; 11.5<br/>gini = 0.482<br/>samples = 79<br/>value = [47, 32]<br/>class = no SeriousDlqin2yrs>, fillcolor="#f7d7c0"] ;
474 -> 475 ;
476 [label=<gini = 0.441<br/>samples = 58<br/>value = [39, 19]<br/>class = no SeriousDlqin2yrs>, fillcolor="#f2be99"] ;
475 -> 476 ;
477 [label=<gini = 0.472<br/>samples = 21<br/>value = [8, 13]<br/>class = SeriousDlqin2yrs>, fillcolor="#b3d9f5"] ;
475 -> 477 ;
478 [label=<RevolvingUtilizationOfUnsecuredLines &le; 0.957<br/>gini = 0.124<br/>samples = 15<br/>value = [14, 1]<br/>class = no SeriousDlqin2yrs>, fillcolor="#e78a47"] ;
474 -> 478 ;
479 [label=<gini = 0.0<br/>samples = 14<br/>value = [14, 0]<br/>class = no SeriousDlqin2yrs>, fillcolor="#e58139"] ;
478 -> 479 ;
480 [label=<gini = 0.0<br/>samples = 1<br/>value = [0, 1]<br/>class = SeriousDlqin2yrs>, fillcolor="#399de5"] ;
478 -> 480 ;
481 [label=<DebtRatio &le; 0.584<br/>gini = 0.466<br/>samples = 27<br/>value = [10, 17]<br/>class = SeriousDlqin2yrs>, fillcolor="#add7f4"] ;
473 -> 481 ;
482 [label=<gini = 0.0<br/>samples = 8<br/>value = [0, 8]<br/>class = SeriousDlqin2yrs>, fillcolor="#399de5"] ;
481 -> 482 ;
483 [label=<NumberOfOpenCreditLinesAndLoans &le; 7.5<br/>gini = 0.499<br/>samples = 19<br/>value = [10, 9]<br/>class = no SeriousDlqin2yrs>, fillcolor="#fcf2eb"] ;
481 -> 483 ;
484 [label=<gini = 0.397<br/>samples = 11<br/>value = [8, 3]<br/>class = no SeriousDlqin2yrs>, fillcolor="#efb083"] ;
483 -> 484 ;
485 [label=<gini = 0.375<br/>samples = 8<br/>value = [2, 6]<br/>class = SeriousDlqin2yrs>, fillcolor="#7bbeee"] ;
483 -> 485 ;
486 [label=<DebtRatio &le; 0.564<br/>gini = 0.405<br/>samples = 2170<br/>value = [1557, 613]<br/>class = no SeriousDlqin2yrs>, fillcolor="#efb387"] ;
430 -> 486 ;
487 [label=<NumberOfTime30-59DaysPastDueNotWorse &le; 3.5<br/>gini = 0.369<br/>samples = 1498<br/>value = [1132, 366]<br/>class = no SeriousDlqin2yrs>, fillcolor="#edaa79"] ;
486 -> 487 ;
488 [label=<NumberOfTime60-89DaysPastDueNotWorse &le; 1.5<br/>gini = 0.344<br/>samples = 1272<br/>value = [991, 281]<br/>class = no SeriousDlqin2yrs>, fillcolor="#eca571"] ;
487 -> 488 ;
489 [label=<MonthlyIncome &le; 10020.5<br/>gini = 0.331<br/>samples = 1203<br/>value = [951, 252]<br/>class = no SeriousDlqin2yrs>, fillcolor="#eca26d"] ;
488 -> 489 ;
490 [label=<MonthlyIncome &le; 1444.0<br/>gini = 0.354<br/>samples = 991<br/>value = [763, 228]<br/>class = no SeriousDlqin2yrs>, fillcolor="#eda774"] ;
489 -> 490 ;
491 [label=<gini = 0.498<br/>samples = 17<br/>value = [8, 9]<br/>class = SeriousDlqin2yrs>, fillcolor="#e9f4fc"] ;
490 -> 491 ;
492 [label=<gini = 0.349<br/>samples = 974<br/>value = [755, 219]<br/>class = no SeriousDlqin2yrs>, fillcolor="#eda672"] ;
490 -> 492 ;
493 [label=<RevolvingUtilizationOfUnsecuredLines &le; 0.549<br/>gini = 0.201<br/>samples = 212<br/>value = [188, 24]<br/>class = no SeriousDlqin2yrs>, fillcolor="#e89152"] ;
489 -> 493 ;
494 [label=<gini = 0.0<br/>samples = 1<br/>value = [0, 1]<br/>class = SeriousDlqin2yrs>, fillcolor="#399de5"] ;
493 -> 494 ;
495 [label=<gini = 0.194<br/>samples = 211<br/>value = [188, 23]<br/>class = no SeriousDlqin2yrs>, fillcolor="#e89051"] ;
493 -> 495 ;
496 [label=<DebtRatio &le; 0.326<br/>gini = 0.487<br/>samples = 69<br/>value = [40, 29]<br/>class = no SeriousDlqin2yrs>, fillcolor="#f8dcc9"] ;
488 -> 496 ;
497 [label=<age &le; 55.5<br/>gini = 0.499<br/>samples = 40<br/>value = [19, 21]<br/>class = SeriousDlqin2yrs>, fillcolor="#ecf6fd"] ;
496 -> 497 ;
498 [label=<gini = 0.498<br/>samples = 36<br/>value = [19, 17]<br/>class = no SeriousDlqin2yrs>, fillcolor="#fcf2ea"] ;
497 -> 498 ;
499 [label=<gini = 0.0<br/>samples = 4<br/>value = [0, 4]<br/>class = SeriousDlqin2yrs>, fillcolor="#399de5"] ;
497 -> 499 ;
500 [label=<NumberOfOpenCreditLinesAndLoans &le; 11.5<br/>gini = 0.4<br/>samples = 29<br/>value = [21, 8]<br/>class = no SeriousDlqin2yrs>, fillcolor="#efb184"] ;
496 -> 500 ;
501 [label=<gini = 0.255<br/>samples = 20<br/>value = [17, 3]<br/>class = no SeriousDlqin2yrs>, fillcolor="#ea975c"] ;
500 -> 501 ;
502 [label=<gini = 0.494<br/>samples = 9<br/>value = [4, 5]<br/>class = SeriousDlqin2yrs>, fillcolor="#d7ebfa"] ;
500 -> 502 ;
503 [label=<DebtRatio &le; 0.177<br/>gini = 0.469<br/>samples = 226<br/>value = [141, 85]<br/>class = no SeriousDlqin2yrs>, fillcolor="#f5cdb0"] ;
487 -> 503 ;
504 [label=<RevolvingUtilizationOfUnsecuredLines &le; 1.0<br/>gini = 0.137<br/>samples = 27<br/>value = [25, 2]<br/>class = no SeriousDlqin2yrs>, fillcolor="#e78b49"] ;
503 -> 504 ;
505 [label=<NumberOfDependents &le; 2.5<br/>gini = 0.074<br/>samples = 26<br/>value = [25, 1]<br/>class = no SeriousDlqin2yrs>, fillcolor="#e68641"] ;
504 -> 505 ;
506 [label=<gini = 0.0<br/>samples = 24<br/>value = [24, 0]<br/>class = no SeriousDlqin2yrs>, fillcolor="#e58139"] ;
505 -> 506 ;
507 [label=<gini = 0.5<br/>samples = 2<br/>value = [1, 1]<br/>class = no SeriousDlqin2yrs>, fillcolor="#ffffff"] ;
505 -> 507 ;
508 [label=<gini = 0.0<br/>samples = 1<br/>value = [0, 1]<br/>class = SeriousDlqin2yrs>, fillcolor="#399de5"] ;
504 -> 508 ;
509 [label=<MonthlyIncome &le; 12305.5<br/>gini = 0.486<br/>samples = 199<br/>value = [116, 83]<br/>class = no SeriousDlqin2yrs>, fillcolor="#f8dbc7"] ;
503 -> 509 ;
510 [label=<RevolvingUtilizationOfUnsecuredLines &le; 0.675<br/>gini = 0.495<br/>samples = 180<br/>value = [99, 81]<br/>class = no SeriousDlqin2yrs>, fillcolor="#fae8db"] ;
509 -> 510 ;
511 [label=<gini = 0.32<br/>samples = 25<br/>value = [20, 5]<br/>class = no SeriousDlqin2yrs>, fillcolor="#eca06a"] ;
510 -> 511 ;
512 [label=<gini = 0.5<br/>samples = 155<br/>value = [79, 76]<br/>class = no SeriousDlqin2yrs>, fillcolor="#fefaf7"] ;
510 -> 512 ;
513 [label=<NumberRealEstateLoansOrLines &le; 5.5<br/>gini = 0.188<br/>samples = 19<br/>value = [17, 2]<br/>class = no SeriousDlqin2yrs>, fillcolor="#e89050"] ;
509 -> 513 ;
514 [label=<gini = 0.105<br/>samples = 18<br/>value = [17, 1]<br/>class = no SeriousDlqin2yrs>, fillcolor="#e78845"] ;
513 -> 514 ;
515 [label=<gini = 0.0<br/>samples = 1<br/>value = [0, 1]<br/>class = SeriousDlqin2yrs>, fillcolor="#399de5"] ;
513 -> 515 ;
516 [label=<NumberRealEstateLoansOrLines &le; 7.5<br/>gini = 0.465<br/>samples = 672<br/>value = [425, 247]<br/>class = no SeriousDlqin2yrs>, fillcolor="#f4caac"] ;
486 -> 516 ;
517 [label=<MonthlyIncome &le; 860.0<br/>gini = 0.46<br/>samples = 663<br/>value = [425, 238]<br/>class = no SeriousDlqin2yrs>, fillcolor="#f4c8a8"] ;
516 -> 517 ;
518 [label=<DebtRatio &le; 1402.5<br/>gini = 0.139<br/>samples = 40<br/>value = [37, 3]<br/>class = no SeriousDlqin2yrs>, fillcolor="#e78b49"] ;
517 -> 518 ;
519 [label=<gini = 0.0<br/>samples = 28<br/>value = [28, 0]<br/>class = no SeriousDlqin2yrs>, fillcolor="#e58139"] ;
518 -> 519 ;
520 [label=<DebtRatio &le; 2514.5<br/>gini = 0.375<br/>samples = 12<br/>value = [9, 3]<br/>class = no SeriousDlqin2yrs>, fillcolor="#eeab7b"] ;
518 -> 520 ;
521 [label=<gini = 0.375<br/>samples = 4<br/>value = [1, 3]<br/>class = SeriousDlqin2yrs>, fillcolor="#7bbeee"] ;
520 -> 521 ;
522 [label=<gini = 0.0<br/>samples = 8<br/>value = [8, 0]<br/>class = no SeriousDlqin2yrs>, fillcolor="#e58139"] ;
520 -> 522 ;
523 [label=<NumberOfTime60-89DaysPastDueNotWorse &le; 1.5<br/>gini = 0.47<br/>samples = 623<br/>value = [388, 235]<br/>class = no SeriousDlqin2yrs>, fillcolor="#f5cdb1"] ;
517 -> 523 ;
524 [label=<RevolvingUtilizationOfUnsecuredLines &le; 0.7<br/>gini = 0.461<br/>samples = 569<br/>value = [364, 205]<br/>class = no SeriousDlqin2yrs>, fillcolor="#f4c8a9"] ;
523 -> 524 ;
525 [label=<gini = 0.379<br/>samples = 114<br/>value = [85, 29]<br/>class = no SeriousDlqin2yrs>, fillcolor="#eeac7d"] ;
524 -> 525 ;
526 [label=<gini = 0.474<br/>samples = 455<br/>value = [279, 176]<br/>class = no SeriousDlqin2yrs>, fillcolor="#f5d0b6"] ;
524 -> 526 ;
527 [label=<DebtRatio &le; 0.755<br/>gini = 0.494<br/>samples = 54<br/>value = [24, 30]<br/>class = SeriousDlqin2yrs>, fillcolor="#d7ebfa"] ;
523 -> 527 ;
528 [label=<gini = 0.444<br/>samples = 24<br/>value = [16, 8]<br/>class = no SeriousDlqin2yrs>, fillcolor="#f2c09c"] ;
527 -> 528 ;
529 [label=<gini = 0.391<br/>samples = 30<br/>value = [8, 22]<br/>class = SeriousDlqin2yrs>, fillcolor="#81c1ee"] ;
527 -> 529 ;
530 [label=<gini = 0.0<br/>samples = 9<br/>value = [0, 9]<br/>class = SeriousDlqin2yrs>, fillcolor="#399de5"] ;
516 -> 530 ;
531 [label=<NumberOfTime60-89DaysPastDueNotWorse &le; 0.5<br/>gini = 0.484<br/>samples = 862<br/>value = [509, 353]<br/>class = no SeriousDlqin2yrs>, fillcolor="#f7d8c2"] ;
429 -> 531 ;
532 [label=<NumberOfTime30-59DaysPastDueNotWorse &le; 2.5<br/>gini = 0.458<br/>samples = 620<br/>value = [400, 220]<br/>class = no SeriousDlqin2yrs>, fillcolor="#f3c6a6"] ;
531 -> 532 ;
533 [label=<age &le; 23.5<br/>gini = 0.434<br/>samples = 511<br/>value = [348, 163]<br/>class = no SeriousDlqin2yrs>, fillcolor="#f1bc96"] ;
532 -> 533 ;
534 [label=<RevolvingUtilizationOfUnsecuredLines &le; 1.028<br/>gini = 0.375<br/>samples = 8<br/>value = [2, 6]<br/>class = SeriousDlqin2yrs>, fillcolor="#7bbeee"] ;
533 -> 534 ;
535 [label=<gini = 0.0<br/>samples = 2<br/>value = [2, 0]<br/>class = no SeriousDlqin2yrs>, fillcolor="#e58139"] ;
534 -> 535 ;
536 [label=<gini = 0.0<br/>samples = 6<br/>value = [0, 6]<br/>class = SeriousDlqin2yrs>, fillcolor="#399de5"] ;
534 -> 536 ;
537 [label=<RevolvingUtilizationOfUnsecuredLines &le; 1.001<br/>gini = 0.429<br/>samples = 503<br/>value = [346, 157]<br/>class = no SeriousDlqin2yrs>, fillcolor="#f1ba93"] ;
533 -> 537 ;
538 [label=<gini = 0.0<br/>samples = 3<br/>value = [0, 3]<br/>class = SeriousDlqin2yrs>, fillcolor="#399de5"] ;
537 -> 538 ;
539 [label=<NumberOfOpenCreditLinesAndLoans &le; 3.5<br/>gini = 0.426<br/>samples = 500<br/>value = [346, 154]<br/>class = no SeriousDlqin2yrs>, fillcolor="#f1b991"] ;
537 -> 539 ;
540 [label=<RevolvingUtilizationOfUnsecuredLines &le; 1.499<br/>gini = 0.338<br/>samples = 102<br/>value = [80, 22]<br/>class = no SeriousDlqin2yrs>, fillcolor="#eca46f"] ;
539 -> 540 ;
541 [label=<gini = 0.28<br/>samples = 89<br/>value = [74, 15]<br/>class = no SeriousDlqin2yrs>, fillcolor="#ea9b61"] ;
540 -> 541 ;
542 [label=<gini = 0.497<br/>samples = 13<br/>value = [6, 7]<br/>class = SeriousDlqin2yrs>, fillcolor="#e3f1fb"] ;
540 -> 542 ;
543 [label=<NumberRealEstateLoansOrLines &le; 1.5<br/>gini = 0.443<br/>samples = 398<br/>value = [266, 132]<br/>class = no SeriousDlqin2yrs>, fillcolor="#f2c09b"] ;
539 -> 543 ;
544 [label=<gini = 0.468<br/>samples = 287<br/>value = [180, 107]<br/>class = no SeriousDlqin2yrs>, fillcolor="#f4ccaf"] ;
543 -> 544 ;
545 [label=<gini = 0.349<br/>samples = 111<br/>value = [86, 25]<br/>class = no SeriousDlqin2yrs>, fillcolor="#eda673"] ;
543 -> 545 ;
546 [label=<RevolvingUtilizationOfUnsecuredLines &le; 1.407<br/>gini = 0.499<br/>samples = 109<br/>value = [52, 57]<br/>class = SeriousDlqin2yrs>, fillcolor="#eef6fd"] ;
532 -> 546 ;
547 [label=<age &le; 42.5<br/>gini = 0.493<br/>samples = 102<br/>value = [45, 57]<br/>class = SeriousDlqin2yrs>, fillcolor="#d5eafa"] ;
546 -> 547 ;
548 [label=<MonthlyIncome &le; 4653.0<br/>gini = 0.387<br/>samples = 42<br/>value = [11, 31]<br/>class = SeriousDlqin2yrs>, fillcolor="#7fc0ee"] ;
547 -> 548 ;
549 [label=<DebtRatio &le; 0.742<br/>gini = 0.473<br/>samples = 26<br/>value = [10, 16]<br/>class = SeriousDlqin2yrs>, fillcolor="#b5daf5"] ;
548 -> 549 ;
550 [label=<gini = 0.499<br/>samples = 21<br/>value = [10, 11]<br/>class = SeriousDlqin2yrs>, fillcolor="#edf6fd"] ;
549 -> 550 ;
551 [label=<gini = 0.0<br/>samples = 5<br/>value = [0, 5]<br/>class = SeriousDlqin2yrs>, fillcolor="#399de5"] ;
549 -> 551 ;
552 [label=<MonthlyIncome &le; 7221.5<br/>gini = 0.117<br/>samples = 16<br/>value = [1, 15]<br/>class = SeriousDlqin2yrs>, fillcolor="#46a4e7"] ;
548 -> 552 ;
553 [label=<gini = 0.0<br/>samples = 12<br/>value = [0, 12]<br/>class = SeriousDlqin2yrs>, fillcolor="#399de5"] ;
552 -> 553 ;
554 [label=<gini = 0.375<br/>samples = 4<br/>value = [1, 3]<br/>class = SeriousDlqin2yrs>, fillcolor="#7bbeee"] ;
552 -> 554 ;
555 [label=<DebtRatio &le; 0.349<br/>gini = 0.491<br/>samples = 60<br/>value = [34, 26]<br/>class = no SeriousDlqin2yrs>, fillcolor="#f9e1d0"] ;
547 -> 555 ;
556 [label=<RevolvingUtilizationOfUnsecuredLines &le; 1.036<br/>gini = 0.408<br/>samples = 21<br/>value = [6, 15]<br/>class = SeriousDlqin2yrs>, fillcolor="#88c4ef"] ;
555 -> 556 ;
557 [label=<gini = 0.408<br/>samples = 7<br/>value = [5, 2]<br/>class = no SeriousDlqin2yrs>, fillcolor="#efb388"] ;
556 -> 557 ;
558 [label=<gini = 0.133<br/>samples = 14<br/>value = [1, 13]<br/>class = SeriousDlqin2yrs>, fillcolor="#48a5e7"] ;
556 -> 558 ;
559 [label=<MonthlyIncome &le; 2131.0<br/>gini = 0.405<br/>samples = 39<br/>value = [28, 11]<br/>class = no SeriousDlqin2yrs>, fillcolor="#efb287"] ;
555 -> 559 ;
560 [label=<gini = 0.278<br/>samples = 6<br/>value = [1, 5]<br/>class = SeriousDlqin2yrs>, fillcolor="#61b1ea"] ;
559 -> 560 ;
561 [label=<gini = 0.298<br/>samples = 33<br/>value = [27, 6]<br/>class = no SeriousDlqin2yrs>, fillcolor="#eb9d65"] ;
559 -> 561 ;
562 [label=<gini = 0.0<br/>samples = 7<br/>value = [7, 0]<br/>class = no SeriousDlqin2yrs>, fillcolor="#e58139"] ;
546 -> 562 ;
563 [label=<MonthlyIncome &le; 2016.0<br/>gini = 0.495<br/>samples = 242<br/>value = [109, 133]<br/>class = SeriousDlqin2yrs>, fillcolor="#dbedfa"] ;
531 -> 563 ;
564 [label=<MonthlyIncome &le; 1725.0<br/>gini = 0.397<br/>samples = 33<br/>value = [24, 9]<br/>class = no SeriousDlqin2yrs>, fillcolor="#efb083"] ;
563 -> 564 ;
565 [label=<DebtRatio &le; 0.472<br/>gini = 0.476<br/>samples = 23<br/>value = [14, 9]<br/>class = no SeriousDlqin2yrs>, fillcolor="#f6d2b8"] ;
564 -> 565 ;
566 [label=<NumberOfTime60-89DaysPastDueNotWorse &le; 1.5<br/>gini = 0.463<br/>samples = 11<br/>value = [4, 7]<br/>class = SeriousDlqin2yrs>, fillcolor="#aad5f4"] ;
565 -> 566 ;
567 [label=<age &le; 41.5<br/>gini = 0.49<br/>samples = 7<br/>value = [4, 3]<br/>class = no SeriousDlqin2yrs>, fillcolor="#f8e0ce"] ;
566 -> 567 ;
568 [label=<gini = 0.0<br/>samples = 3<br/>value = [3, 0]<br/>class = no SeriousDlqin2yrs>, fillcolor="#e58139"] ;
567 -> 568 ;
569 [label=<gini = 0.375<br/>samples = 4<br/>value = [1, 3]<br/>class = SeriousDlqin2yrs>, fillcolor="#7bbeee"] ;
567 -> 569 ;
570 [label=<gini = 0.0<br/>samples = 4<br/>value = [0, 4]<br/>class = SeriousDlqin2yrs>, fillcolor="#399de5"] ;
566 -> 570 ;
571 [label=<age &le; 27.0<br/>gini = 0.278<br/>samples = 12<br/>value = [10, 2]<br/>class = no SeriousDlqin2yrs>, fillcolor="#ea9a61"] ;
565 -> 571 ;
572 [label=<gini = 0.0<br/>samples = 1<br/>value = [0, 1]<br/>class = SeriousDlqin2yrs>, fillcolor="#399de5"] ;
571 -> 572 ;
573 [label=<NumberRealEstateLoansOrLines &le; 1.5<br/>gini = 0.165<br/>samples = 11<br/>value = [10, 1]<br/>class = no SeriousDlqin2yrs>, fillcolor="#e88e4d"] ;
571 -> 573 ;
574 [label=<gini = 0.0<br/>samples = 10<br/>value = [10, 0]<br/>class = no SeriousDlqin2yrs>, fillcolor="#e58139"] ;
573 -> 574 ;
575 [label=<gini = 0.0<br/>samples = 1<br/>value = [0, 1]<br/>class = SeriousDlqin2yrs>, fillcolor="#399de5"] ;
573 -> 575 ;
576 [label=<gini = 0.0<br/>samples = 10<br/>value = [10, 0]<br/>class = no SeriousDlqin2yrs>, fillcolor="#e58139"] ;
564 -> 576 ;
577 [label=<NumberOfOpenCreditLinesAndLoans &le; 4.5<br/>gini = 0.483<br/>samples = 209<br/>value = [85, 124]<br/>class = SeriousDlqin2yrs>, fillcolor="#c1e0f7"] ;
563 -> 577 ;
578 [label=<MonthlyIncome &le; 8408.0<br/>gini = 0.474<br/>samples = 44<br/>value = [27, 17]<br/>class = no SeriousDlqin2yrs>, fillcolor="#f5d0b6"] ;
577 -> 578 ;
579 [label=<RevolvingUtilizationOfUnsecuredLines &le; 1.607<br/>gini = 0.426<br/>samples = 39<br/>value = [27, 12]<br/>class = no SeriousDlqin2yrs>, fillcolor="#f1b991"] ;
578 -> 579 ;
580 [label=<NumberOfTime30-59DaysPastDueNotWorse &le; 1.5<br/>gini = 0.36<br/>samples = 34<br/>value = [26, 8]<br/>class = no SeriousDlqin2yrs>, fillcolor="#eda876"] ;
579 -> 580 ;
581 [label=<gini = 0.153<br/>samples = 24<br/>value = [22, 2]<br/>class = no SeriousDlqin2yrs>, fillcolor="#e78c4b"] ;
580 -> 581 ;
582 [label=<gini = 0.48<br/>samples = 10<br/>value = [4, 6]<br/>class = SeriousDlqin2yrs>, fillcolor="#bddef6"] ;
580 -> 582 ;
583 [label=<NumberOfTime30-59DaysPastDueNotWorse &le; 2.0<br/>gini = 0.32<br/>samples = 5<br/>value = [1, 4]<br/>class = SeriousDlqin2yrs>, fillcolor="#6ab6ec"] ;
579 -> 583 ;
584 [label=<gini = 0.0<br/>samples = 4<br/>value = [0, 4]<br/>class = SeriousDlqin2yrs>, fillcolor="#399de5"] ;
583 -> 584 ;
585 [label=<gini = 0.0<br/>samples = 1<br/>value = [1, 0]<br/>class = no SeriousDlqin2yrs>, fillcolor="#e58139"] ;
583 -> 585 ;
586 [label=<gini = 0.0<br/>samples = 5<br/>value = [0, 5]<br/>class = SeriousDlqin2yrs>, fillcolor="#399de5"] ;
578 -> 586 ;
587 [label=<NumberOfTime60-89DaysPastDueNotWorse &le; 1.5<br/>gini = 0.456<br/>samples = 165<br/>value = [58, 107]<br/>class = SeriousDlqin2yrs>, fillcolor="#a4d2f3"] ;
577 -> 587 ;
588 [label=<DebtRatio &le; 0.439<br/>gini = 0.481<br/>samples = 114<br/>value = [46, 68]<br/>class = SeriousDlqin2yrs>, fillcolor="#bfdff7"] ;
587 -> 588 ;
589 [label=<MonthlyIncome &le; 8750.5<br/>gini = 0.5<br/>samples = 63<br/>value = [32, 31]<br/>class = no SeriousDlqin2yrs>, fillcolor="#fefbf9"] ;
588 -> 589 ;
590 [label=<gini = 0.494<br/>samples = 56<br/>value = [25, 31]<br/>class = SeriousDlqin2yrs>, fillcolor="#d9ecfa"] ;
589 -> 590 ;
591 [label=<gini = 0.0<br/>samples = 7<br/>value = [7, 0]<br/>class = no SeriousDlqin2yrs>, fillcolor="#e58139"] ;
589 -> 591 ;
592 [label=<MonthlyIncome &le; 3075.0<br/>gini = 0.398<br/>samples = 51<br/>value = [14, 37]<br/>class = SeriousDlqin2yrs>, fillcolor="#84c2ef"] ;
588 -> 592 ;
593 [label=<gini = 0.5<br/>samples = 10<br/>value = [5, 5]<br/>class = no SeriousDlqin2yrs>, fillcolor="#ffffff"] ;
592 -> 593 ;
594 [label=<gini = 0.343<br/>samples = 41<br/>value = [9, 32]<br/>class = SeriousDlqin2yrs>, fillcolor="#71b9ec"] ;
592 -> 594 ;
595 [label=<age &le; 55.5<br/>gini = 0.36<br/>samples = 51<br/>value = [12, 39]<br/>class = SeriousDlqin2yrs>, fillcolor="#76bbed"] ;
587 -> 595 ;
596 [label=<DebtRatio &le; 0.059<br/>gini = 0.287<br/>samples = 46<br/>value = [8, 38]<br/>class = SeriousDlqin2yrs>, fillcolor="#63b2ea"] ;
595 -> 596 ;
597 [label=<gini = 0.0<br/>samples = 1<br/>value = [1, 0]<br/>class = no SeriousDlqin2yrs>, fillcolor="#e58139"] ;
596 -> 597 ;
598 [label=<gini = 0.263<br/>samples = 45<br/>value = [7, 38]<br/>class = SeriousDlqin2yrs>, fillcolor="#5dafea"] ;
596 -> 598 ;
599 [label=<NumberRealEstateLoansOrLines &le; 0.5<br/>gini = 0.32<br/>samples = 5<br/>value = [4, 1]<br/>class = no SeriousDlqin2yrs>, fillcolor="#eca06a"] ;
595 -> 599 ;
600 [label=<gini = 0.0<br/>samples = 1<br/>value = [0, 1]<br/>class = SeriousDlqin2yrs>, fillcolor="#399de5"] ;
599 -> 600 ;
601 [label=<gini = 0.0<br/>samples = 4<br/>value = [4, 0]<br/>class = no SeriousDlqin2yrs>, fillcolor="#e58139"] ;
599 -> 601 ;
602 [label=<NumberOfTimes90DaysLate &le; 1.5<br/>gini = 0.486<br/>samples = 6725<br/>value = [3934, 2791]<br/>class = no SeriousDlqin2yrs>, fillcolor="#f7dac5"] ;
0 -> 602 [labeldistance=2.5, labelangle=-45, headlabel="False"] ;
603 [label=<NumberOfTime60-89DaysPastDueNotWorse &le; 0.5<br/>gini = 0.447<br/>samples = 4312<br/>value = [2861, 1451]<br/>class = no SeriousDlqin2yrs>, fillcolor="#f2c19d"] ;
602 -> 603 ;
604 [label=<RevolvingUtilizationOfUnsecuredLines &le; 0.482<br/>gini = 0.407<br/>samples = 3202<br/>value = [2293, 909]<br/>class = no SeriousDlqin2yrs>, fillcolor="#efb387"] ;
603 -> 604 ;
605 [label=<NumberOfTime30-59DaysPastDueNotWorse &le; 0.5<br/>gini = 0.291<br/>samples = 1149<br/>value = [946, 203]<br/>class = no SeriousDlqin2yrs>, fillcolor="#eb9c63"] ;
604 -> 605 ;
606 [label=<DebtRatio &le; 0.838<br/>gini = 0.235<br/>samples = 756<br/>value = [653, 103]<br/>class = no SeriousDlqin2yrs>, fillcolor="#e99558"] ;
605 -> 606 ;
607 [label=<age &le; 88.5<br/>gini = 0.22<br/>samples = 706<br/>value = [617, 89]<br/>class = no SeriousDlqin2yrs>, fillcolor="#e99356"] ;
606 -> 607 ;
608 [label=<MonthlyIncome &le; 0.5<br/>gini = 0.217<br/>samples = 703<br/>value = [616, 87]<br/>class = no SeriousDlqin2yrs>, fillcolor="#e99355"] ;
607 -> 608 ;
609 [label=<gini = 0.0<br/>samples = 1<br/>value = [0, 1]<br/>class = SeriousDlqin2yrs>, fillcolor="#399de5"] ;
608 -> 609 ;
610 [label=<RevolvingUtilizationOfUnsecuredLines &le; 0.272<br/>gini = 0.215<br/>samples = 702<br/>value = [616, 86]<br/>class = no SeriousDlqin2yrs>, fillcolor="#e99355"] ;
608 -> 610 ;
611 [label=<DebtRatio &le; 0.407<br/>gini = 0.192<br/>samples = 521<br/>value = [465, 56]<br/>class = no SeriousDlqin2yrs>, fillcolor="#e89051"] ;
610 -> 611 ;
612 [label=<gini = 0.168<br/>samples = 431<br/>value = [391, 40]<br/>class = no SeriousDlqin2yrs>, fillcolor="#e88e4d"] ;
611 -> 612 ;
613 [label=<gini = 0.292<br/>samples = 90<br/>value = [74, 16]<br/>class = no SeriousDlqin2yrs>, fillcolor="#eb9c64"] ;
611 -> 613 ;
614 [label=<RevolvingUtilizationOfUnsecuredLines &le; 0.274<br/>gini = 0.277<br/>samples = 181<br/>value = [151, 30]<br/>class = no SeriousDlqin2yrs>, fillcolor="#ea9a60"] ;
610 -> 614 ;
615 [label=<gini = 0.0<br/>samples = 2<br/>value = [0, 2]<br/>class = SeriousDlqin2yrs>, fillcolor="#399de5"] ;
614 -> 615 ;
616 [label=<gini = 0.264<br/>samples = 179<br/>value = [151, 28]<br/>class = no SeriousDlqin2yrs>, fillcolor="#ea985e"] ;
614 -> 616 ;
617 [label=<RevolvingUtilizationOfUnsecuredLines &le; 0.008<br/>gini = 0.444<br/>samples = 3<br/>value = [1, 2]<br/>class = SeriousDlqin2yrs>, fillcolor="#9ccef2"] ;
607 -> 617 ;
618 [label=<gini = 0.0<br/>samples = 1<br/>value = [1, 0]<br/>class = no SeriousDlqin2yrs>, fillcolor="#e58139"] ;
617 -> 618 ;
619 [label=<gini = 0.0<br/>samples = 2<br/>value = [0, 2]<br/>class = SeriousDlqin2yrs>, fillcolor="#399de5"] ;
617 -> 619 ;
620 [label=<DebtRatio &le; 0.896<br/>gini = 0.403<br/>samples = 50<br/>value = [36, 14]<br/>class = no SeriousDlqin2yrs>, fillcolor="#efb286"] ;
606 -> 620 ;
621 [label=<NumberRealEstateLoansOrLines &le; 2.5<br/>gini = 0.32<br/>samples = 5<br/>value = [1, 4]<br/>class = SeriousDlqin2yrs>, fillcolor="#6ab6ec"] ;
620 -> 621 ;
622 [label=<gini = 0.0<br/>samples = 4<br/>value = [0, 4]<br/>class = SeriousDlqin2yrs>, fillcolor="#399de5"] ;
621 -> 622 ;
623 [label=<gini = 0.0<br/>samples = 1<br/>value = [1, 0]<br/>class = no SeriousDlqin2yrs>, fillcolor="#e58139"] ;
621 -> 623 ;
624 [label=<DebtRatio &le; 1.424<br/>gini = 0.346<br/>samples = 45<br/>value = [35, 10]<br/>class = no SeriousDlqin2yrs>, fillcolor="#eca572"] ;
620 -> 624 ;
625 [label=<RevolvingUtilizationOfUnsecuredLines &le; 0.031<br/>gini = 0.231<br/>samples = 30<br/>value = [26, 4]<br/>class = no SeriousDlqin2yrs>, fillcolor="#e99457"] ;
624 -> 625 ;
626 [label=<RevolvingUtilizationOfUnsecuredLines &le; 0.022<br/>gini = 0.5<br/>samples = 4<br/>value = [2, 2]<br/>class = no SeriousDlqin2yrs>, fillcolor="#ffffff"] ;
625 -> 626 ;
627 [label=<gini = 0.0<br/>samples = 2<br/>value = [2, 0]<br/>class = no SeriousDlqin2yrs>, fillcolor="#e58139"] ;
626 -> 627 ;
628 [label=<gini = 0.0<br/>samples = 2<br/>value = [0, 2]<br/>class = SeriousDlqin2yrs>, fillcolor="#399de5"] ;
626 -> 628 ;
629 [label=<MonthlyIncome &le; 900.0<br/>gini = 0.142<br/>samples = 26<br/>value = [24, 2]<br/>class = no SeriousDlqin2yrs>, fillcolor="#e78c49"] ;
625 -> 629 ;
630 [label=<gini = 0.5<br/>samples = 2<br/>value = [1, 1]<br/>class = no SeriousDlqin2yrs>, fillcolor="#ffffff"] ;
629 -> 630 ;
631 [label=<gini = 0.08<br/>samples = 24<br/>value = [23, 1]<br/>class = no SeriousDlqin2yrs>, fillcolor="#e68642"] ;
629 -> 631 ;
632 [label=<MonthlyIncome &le; 2141.5<br/>gini = 0.48<br/>samples = 15<br/>value = [9, 6]<br/>class = no SeriousDlqin2yrs>, fillcolor="#f6d5bd"] ;
624 -> 632 ;
633 [label=<NumberOfOpenCreditLinesAndLoans &le; 5.5<br/>gini = 0.375<br/>samples = 12<br/>value = [9, 3]<br/>class = no SeriousDlqin2yrs>, fillcolor="#eeab7b"] ;
632 -> 633 ;
634 [label=<gini = 0.0<br/>samples = 2<br/>value = [0, 2]<br/>class = SeriousDlqin2yrs>, fillcolor="#399de5"] ;
633 -> 634 ;
635 [label=<gini = 0.18<br/>samples = 10<br/>value = [9, 1]<br/>class = no SeriousDlqin2yrs>, fillcolor="#e88f4f"] ;
633 -> 635 ;
636 [label=<gini = 0.0<br/>samples = 3<br/>value = [0, 3]<br/>class = SeriousDlqin2yrs>, fillcolor="#399de5"] ;
632 -> 636 ;
637 [label=<NumberOfTime30-59DaysPastDueNotWorse &le; 4.5<br/>gini = 0.379<br/>samples = 393<br/>value = [293, 100]<br/>class = no SeriousDlqin2yrs>, fillcolor="#eeac7d"] ;
605 -> 637 ;
638 [label=<MonthlyIncome &le; 21150.0<br/>gini = 0.368<br/>samples = 379<br/>value = [287, 92]<br/>class = no SeriousDlqin2yrs>, fillcolor="#eda978"] ;
637 -> 638 ;
639 [label=<MonthlyIncome &le; 13030.0<br/>gini = 0.359<br/>samples = 371<br/>value = [284, 87]<br/>class = no SeriousDlqin2yrs>, fillcolor="#eda876"] ;
638 -> 639 ;
640 [label=<age &le; 27.5<br/>gini = 0.372<br/>samples = 352<br/>value = [265, 87]<br/>class = no SeriousDlqin2yrs>, fillcolor="#eeaa7a"] ;
639 -> 640 ;
641 [label=<DebtRatio &le; 0.064<br/>gini = 0.494<br/>samples = 9<br/>value = [4, 5]<br/>class = SeriousDlqin2yrs>, fillcolor="#d7ebfa"] ;
640 -> 641 ;
642 [label=<gini = 0.32<br/>samples = 5<br/>value = [4, 1]<br/>class = no SeriousDlqin2yrs>, fillcolor="#eca06a"] ;
641 -> 642 ;
643 [label=<gini = 0.0<br/>samples = 4<br/>value = [0, 4]<br/>class = SeriousDlqin2yrs>, fillcolor="#399de5"] ;
641 -> 643 ;
644 [label=<RevolvingUtilizationOfUnsecuredLines &le; 0.225<br/>gini = 0.364<br/>samples = 343<br/>value = [261, 82]<br/>class = no SeriousDlqin2yrs>, fillcolor="#eda977"] ;
640 -> 644 ;
645 [label=<gini = 0.325<br/>samples = 201<br/>value = [160, 41]<br/>class = no SeriousDlqin2yrs>, fillcolor="#eca16c"] ;
644 -> 645 ;
646 [label=<gini = 0.411<br/>samples = 142<br/>value = [101, 41]<br/>class = no SeriousDlqin2yrs>, fillcolor="#f0b489"] ;
644 -> 646 ;
647 [label=<gini = 0.0<br/>samples = 19<br/>value = [19, 0]<br/>class = no SeriousDlqin2yrs>, fillcolor="#e58139"] ;
639 -> 647 ;
648 [label=<MonthlyIncome &le; 25906.0<br/>gini = 0.469<br/>samples = 8<br/>value = [3, 5]<br/>class = SeriousDlqin2yrs>, fillcolor="#b0d8f5"] ;
638 -> 648 ;
649 [label=<gini = 0.0<br/>samples = 4<br/>value = [0, 4]<br/>class = SeriousDlqin2yrs>, fillcolor="#399de5"] ;
648 -> 649 ;
650 [label=<NumberOfTime30-59DaysPastDueNotWorse &le; 2.0<br/>gini = 0.375<br/>samples = 4<br/>value = [3, 1]<br/>class = no SeriousDlqin2yrs>, fillcolor="#eeab7b"] ;
648 -> 650 ;
651 [label=<gini = 0.0<br/>samples = 3<br/>value = [3, 0]<br/>class = no SeriousDlqin2yrs>, fillcolor="#e58139"] ;
650 -> 651 ;
652 [label=<gini = 0.0<br/>samples = 1<br/>value = [0, 1]<br/>class = SeriousDlqin2yrs>, fillcolor="#399de5"] ;
650 -> 652 ;
653 [label=<age &le; 46.5<br/>gini = 0.49<br/>samples = 14<br/>value = [6, 8]<br/>class = SeriousDlqin2yrs>, fillcolor="#cee6f8"] ;
637 -> 653 ;
654 [label=<gini = 0.0<br/>samples = 4<br/>value = [4, 0]<br/>class = no SeriousDlqin2yrs>, fillcolor="#e58139"] ;
653 -> 654 ;
655 [label=<RevolvingUtilizationOfUnsecuredLines &le; 0.021<br/>gini = 0.32<br/>samples = 10<br/>value = [2, 8]<br/>class = SeriousDlqin2yrs>, fillcolor="#6ab6ec"] ;
653 -> 655 ;
656 [label=<gini = 0.0<br/>samples = 1<br/>value = [1, 0]<br/>class = no SeriousDlqin2yrs>, fillcolor="#e58139"] ;
655 -> 656 ;
657 [label=<age &le; 66.5<br/>gini = 0.198<br/>samples = 9<br/>value = [1, 8]<br/>class = SeriousDlqin2yrs>, fillcolor="#52a9e8"] ;
655 -> 657 ;
658 [label=<gini = 0.0<br/>samples = 8<br/>value = [0, 8]<br/>class = SeriousDlqin2yrs>, fillcolor="#399de5"] ;
657 -> 658 ;
659 [label=<gini = 0.0<br/>samples = 1<br/>value = [1, 0]<br/>class = no SeriousDlqin2yrs>, fillcolor="#e58139"] ;
657 -> 659 ;
660 [label=<NumberOfTime30-59DaysPastDueNotWorse &le; 1.5<br/>gini = 0.451<br/>samples = 2053<br/>value = [1347, 706]<br/>class = no SeriousDlqin2yrs>, fillcolor="#f3c3a1"] ;
