digraph Tree {
node [shape=box, style="filled, rounded", color="black", fontname=helvetica] ;
edge [fontname=helvetica] ;
0 [label=<Glucose &le; 127.5<br/>gini = 0.454<br/>samples = 768<br/>value = [500, 268]<br/>class = no>, fillcolor="#f3c5a3"] ;
1 [label=<Age &le; 28.5<br/>gini = 0.313<br/>samples = 485<br/>value = [391, 94]<br/>class = no>, fillcolor="#eb9f69"] ;
0 -> 1 [labeldistance=2.5, labelangle=45, headlabel="True"] ;
2 [label=<BMI &le; 45.4<br/>gini = 0.155<br/>samples = 271<br/>value = [248, 23]<br/>class = no>, fillcolor="#e78d4b"] ;
1 -> 2 ;
3 [label=<BMI &le; 30.95<br/>gini = 0.139<br/>samples = 267<br/>value = [247, 20]<br/>class = no>, fillcolor="#e78b49"] ;
2 -> 3 ;
4 [label=<Pregnancies &le; 7.5<br/>gini = 0.026<br/>samples = 151<br/>value = [149, 2]<br/>class = no>, fillcolor="#e5833c"] ;
3 -> 4 ;
5 [label=<DiabetesPedigreeFunction &le; 0.672<br/>gini = 0.013<br/>samples = 150<br/>value = [149, 1]<br/>class = no>, fillcolor="#e5823a"] ;
4 -> 5 ;
6 [label=<gini = 0.0<br/>samples = 131<br/>value = [131, 0]<br/>class = no>, fillcolor="#e58139"] ;
5 -> 6 ;
7 [label=<DiabetesPedigreeFunction &le; 0.686<br/>gini = 0.1<br/>samples = 19<br/>value = [18, 1]<br/>class = no>, fillcolor="#e68844"] ;
5 -> 7 ;
8 [label=<gini = 0.0<br/>samples = 1<br/>value = [0, 1]<br/>class = yes>, fillcolor="#399de5"] ;
7 -> 8 ;
9 [label=<gini = 0.0<br/>samples = 18<br/>value = [18, 0]<br/>class = no>, fillcolor="#e58139"] ;
7 -> 9 ;
10 [label=<gini = 0.0<br/>samples = 1<br/>value = [0, 1]<br/>class = yes>, fillcolor="#399de5"] ;
4 -> 10 ;
11 [label=<DiabetesPedigreeFunction &le; 0.501<br/>gini = 0.262<br/>samples = 116<br/>value = [98, 18]<br/>class = no>, fillcolor="#ea985d"] ;
3 -> 11 ;
12 [label=<BloodPressure &le; 53.0<br/>gini = 0.153<br/>samples = 72<br/>value = [66, 6]<br/>class = no>, fillcolor="#e78c4b"] ;
11 -> 12 ;
13 [label=<BMI &le; 32.45<br/>gini = 0.5<br/>samples = 6<br/>value = [3, 3]<br/>class = no>, fillcolor="#ffffff"] ;
12 -> 13 ;
14 [label=<gini = 0.0<br/>samples = 2<br/>value = [0, 2]<br/>class = yes>, fillcolor="#399de5"] ;
13 -> 14 ;
15 [label=<SkinThickness &le; 10.5<br/>gini = 0.375<br/>samples = 4<br/>value = [3, 1]<br/>class = no>, fillcolor="#eeab7b"] ;
13 -> 15 ;
16 [label=<gini = 0.0<br/>samples = 1<br/>value = [0, 1]<br/>class = yes>, fillcolor="#399de5"] ;
15 -> 16 ;
17 [label=<gini = 0.0<br/>samples = 3<br/>value = [3, 0]<br/>class = no>, fillcolor="#e58139"] ;
15 -> 17 ;
18 [label=<Insulin &le; 36.5<br/>gini = 0.087<br/>samples = 66<br/>value = [63, 3]<br/>class = no>, fillcolor="#e68742"] ;
12 -> 18 ;
19 [label=<BloodPressure &le; 82.5<br/>gini = 0.227<br/>samples = 23<br/>value = [20, 3]<br/>class = no>, fillcolor="#e99457"] ;
18 -> 19 ;
20 [label=<BMI &le; 33.65<br/>gini = 0.165<br/>samples = 22<br/>value = [20, 2]<br/>class = no>, fillcolor="#e88e4d"] ;
19 -> 20 ;
21 [label=<Glucose &le; 102.0<br/>gini = 0.444<br/>samples = 6<br/>value = [4, 2]<br/>class = no>, fillcolor="#f2c09c"] ;
20 -> 21 ;
22 [label=<gini = 0.0<br/>samples = 3<br/>value = [3, 0]<br/>class = no>, fillcolor="#e58139"] ;
21 -> 22 ;
23 [label=<Glucose &le; 119.0<br/>gini = 0.444<br/>samples = 3<br/>value = [1, 2]<br/>class = yes>, fillcolor="#9ccef2"] ;
21 -> 23 ;
24 [label=<gini = 0.0<br/>samples = 2<br/>value = [0, 2]<br/>class = yes>, fillcolor="#399de5"] ;
23 -> 24 ;
25 [label=<gini = 0.0<br/>samples = 1<br/>value = [1, 0]<br/>class = no>, fillcolor="#e58139"] ;
23 -> 25 ;
26 [label=<gini = 0.0<br/>samples = 16<br/>value = [16, 0]<br/>class = no>, fillcolor="#e58139"] ;
20 -> 26 ;
27 [label=<gini = 0.0<br/>samples = 1<br/>value = [0, 1]<br/>class = yes>, fillcolor="#399de5"] ;
19 -> 27 ;
28 [label=<gini = 0.0<br/>samples = 43<br/>value = [43, 0]<br/>class = no>, fillcolor="#e58139"] ;
18 -> 28 ;
29 [label=<BloodPressure &le; 69.0<br/>gini = 0.397<br/>samples = 44<br/>value = [32, 12]<br/>class = no>, fillcolor="#efb083"] ;
11 -> 29 ;
30 [label=<Glucose &le; 88.5<br/>gini = 0.476<br/>samples = 23<br/>value = [14, 9]<br/>class = no>, fillcolor="#f6d2b8"] ;
29 -> 30 ;
31 [label=<gini = 0.0<br/>samples = 8<br/>value = [8, 0]<br/>class = no>, fillcolor="#e58139"] ;
30 -> 31 ;
32 [label=<Glucose &le; 116.0<br/>gini = 0.48<br/>samples = 15<br/>value = [6, 9]<br/>class = yes>, fillcolor="#bddef6"] ;
30 -> 32 ;
33 [label=<BMI &le; 32.25<br/>gini = 0.32<br/>samples = 10<br/>value = [2, 8]<br/>class = yes>, fillcolor="#6ab6ec"] ;
32 -> 33 ;
34 [label=<gini = 0.0<br/>samples = 1<br/>value = [1, 0]<br/>class = no>, fillcolor="#e58139"] ;
33 -> 34 ;
35 [label=<Insulin &le; 99.5<br/>gini = 0.198<br/>samples = 9<br/>value = [1, 8]<br/>class = yes>, fillcolor="#52a9e8"] ;
33 -> 35 ;
36 [label=<gini = 0.0<br/>samples = 6<br/>value = [0, 6]<br/>class = yes>, fillcolor="#399de5"] ;
35 -> 36 ;
37 [label=<Insulin &le; 114.5<br/>gini = 0.444<br/>samples = 3<br/>value = [1, 2]<br/>class = yes>, fillcolor="#9ccef2"] ;
35 -> 37 ;
38 [label=<gini = 0.0<br/>samples = 1<br/>value = [1, 0]<br/>class = no>, fillcolor="#e58139"] ;
37 -> 38 ;
39 [label=<gini = 0.0<br/>samples = 2<br/>value = [0, 2]<br/>class = yes>, fillcolor="#399de5"] ;
37 -> 39 ;
40 [label=<DiabetesPedigreeFunction &le; 0.889<br/>gini = 0.32<br/>samples = 5<br/>value = [4, 1]<br/>class = no>, fillcolor="#eca06a"] ;
32 -> 40 ;
41 [label=<gini = 0.0<br/>samples = 4<br/>value = [4, 0]<br/>class = no>, fillcolor="#e58139"] ;
40 -> 41 ;
42 [label=<gini = 0.0<br/>samples = 1<br/>value = [0, 1]<br/>class = yes>, fillcolor="#399de5"] ;
40 -> 42 ;
43 [label=<Glucose &le; 85.0<br/>gini = 0.245<br/>samples = 21<br/>value = [18, 3]<br/>class = no>, fillcolor="#e9965a"] ;
29 -> 43 ;
44 [label=<gini = 0.0<br/>samples = 1<br/>value = [0, 1]<br/>class = yes>, fillcolor="#399de5"] ;
43 -> 44 ;
45 [label=<SkinThickness &le; 5.5<br/>gini = 0.18<br/>samples = 20<br/>value = [18, 2]<br/>class = no>, fillcolor="#e88f4f"] ;
43 -> 45 ;
46 [label=<Glucose &le; 112.5<br/>gini = 0.444<br/>samples = 6<br/>value = [4, 2]<br/>class = no>, fillcolor="#f2c09c"] ;
45 -> 46 ;
47 [label=<gini = 0.0<br/>samples = 3<br/>value = [3, 0]<br/>class = no>, fillcolor="#e58139"] ;
46 -> 47 ;
48 [label=<BloodPressure &le; 75.0<br/>gini = 0.444<br/>samples = 3<br/>value = [1, 2]<br/>class = yes>, fillcolor="#9ccef2"] ;
46 -> 48 ;
49 [label=<gini = 0.0<br/>samples = 1<br/>value = [1, 0]<br/>class = no>, fillcolor="#e58139"] ;
48 -> 49 ;
50 [label=<gini = 0.0<br/>samples = 2<br/>value = [0, 2]<br/>class = yes>, fillcolor="#399de5"] ;
48 -> 50 ;
51 [label=<gini = 0.0<br/>samples = 14<br/>value = [14, 0]<br/>class = no>, fillcolor="#e58139"] ;
45 -> 51 ;
52 [label=<Insulin &le; 180.0<br/>gini = 0.375<br/>samples = 4<br/>value = [1, 3]<br/>class = yes>, fillcolor="#7bbeee"] ;
2 -> 52 ;
53 [label=<gini = 0.0<br/>samples = 3<br/>value = [0, 3]<br/>class = yes>, fillcolor="#399de5"] ;
52 -> 53 ;
54 [label=<gini = 0.0<br/>samples = 1<br/>value = [1, 0]<br/>class = no>, fillcolor="#e58139"] ;
52 -> 54 ;
55 [label=<BMI &le; 26.35<br/>gini = 0.443<br/>samples = 214<br/>value = [143, 71]<br/>class = no>, fillcolor="#f2c09b"] ;
1 -> 55 ;
56 [label=<BMI &le; 9.65<br/>gini = 0.093<br/>samples = 41<br/>value = [39, 2]<br/>class = no>, fillcolor="#e68743"] ;
55 -> 56 ;
57 [label=<gini = 0.0<br/>samples = 2<br/>value = [0, 2]<br/>class = yes>, fillcolor="#399de5"] ;
56 -> 57 ;
58 [label=<gini = 0.0<br/>samples = 39<br/>value = [39, 0]<br/>class = no>, fillcolor="#e58139"] ;
56 -> 58 ;
59 [label=<Glucose &le; 99.5<br/>gini = 0.48<br/>samples = 173<br/>value = [104, 69]<br/>class = no>, fillcolor="#f6d5bc"] ;
55 -> 59 ;
60 [label=<Glucose &le; 28.5<br/>gini = 0.298<br/>samples = 55<br/>value = [45, 10]<br/>class = no>, fillcolor="#eb9d65"] ;
59 -> 60 ;
61 [label=<gini = 0.0<br/>samples = 2<br/>value = [0, 2]<br/>class = yes>, fillcolor="#399de5"] ;
60 -> 61 ;
62 [label=<DiabetesPedigreeFunction &le; 0.796<br/>gini = 0.256<br/>samples = 53<br/>value = [45, 8]<br/>class = no>, fillcolor="#ea975c"] ;
60 -> 62 ;
63 [label=<Age &le; 42.5<br/>gini = 0.162<br/>samples = 45<br/>value = [41, 4]<br/>class = no>, fillcolor="#e88d4c"] ;
62 -> 63 ;
64 [label=<DiabetesPedigreeFunction &le; 0.171<br/>gini = 0.059<br/>samples = 33<br/>value = [32, 1]<br/>class = no>, fillcolor="#e6853f"] ;
63 -> 64 ;
65 [label=<DiabetesPedigreeFunction &le; 0.159<br/>gini = 0.375<br/>samples = 4<br/>value = [3, 1]<br/>class = no>, fillcolor="#eeab7b"] ;
64 -> 65 ;
66 [label=<gini = 0.0<br/>samples = 3<br/>value = [3, 0]<br/>class = no>, fillcolor="#e58139"] ;
65 -> 66 ;
67 [label=<gini = 0.0<br/>samples = 1<br/>value = [0, 1]<br/>class = yes>, fillcolor="#399de5"] ;
65 -> 67 ;
68 [label=<gini = 0.0<br/>samples = 29<br/>value = [29, 0]<br/>class = no>, fillcolor="#e58139"] ;
64 -> 68 ;
69 [label=<BMI &le; 30.85<br/>gini = 0.375<br/>samples = 12<br/>value = [9, 3]<br/>class = no>, fillcolor="#eeab7b"] ;
63 -> 69 ;
70 [label=<gini = 0.0<br/>samples = 1<br/>value = [0, 1]<br/>class = yes>, fillcolor="#399de5"] ;
69 -> 70 ;
71 [label=<Pregnancies &le; 5.5<br/>gini = 0.298<br/>samples = 11<br/>value = [9, 2]<br/>class = no>, fillcolor="#eb9d65"] ;
69 -> 71 ;
72 [label=<Glucose &le; 81.0<br/>gini = 0.5<br/>samples = 4<br/>value = [2, 2]<br/>class = no>, fillcolor="#ffffff"] ;
71 -> 72 ;
73 [label=<gini = 0.0<br/>samples = 2<br/>value = [2, 0]<br/>class = no>, fillcolor="#e58139"] ;
72 -> 73 ;
74 [label=<gini = 0.0<br/>samples = 2<br/>value = [0, 2]<br/>class = yes>, fillcolor="#399de5"] ;
72 -> 74 ;
75 [label=<gini = 0.0<br/>samples = 7<br/>value = [7, 0]<br/>class = no>, fillcolor="#e58139"] ;
71 -> 75 ;
76 [label=<Pregnancies &le; 3.0<br/>gini = 0.5<br/>samples = 8<br/>value = [4, 4]<br/>class = no>, fillcolor="#ffffff"] ;
62 -> 76 ;
77 [label=<gini = 0.0<br/>samples = 3<br/>value = [3, 0]<br/>class = no>, fillcolor="#e58139"] ;
76 -> 77 ;
78 [label=<Pregnancies &le; 6.0<br/>gini = 0.32<br/>samples = 5<br/>value = [1, 4]<br/>class = yes>, fillcolor="#6ab6ec"] ;
76 -> 78 ;
79 [label=<DiabetesPedigreeFunction &le; 1.11<br/>gini = 0.5<br/>samples = 2<br/>value = [1, 1]<br/>class = no>, fillcolor="#ffffff"] ;
78 -> 79 ;
80 [label=<gini = 0.0<br/>samples = 1<br/>value = [1, 0]<br/>class = no>, fillcolor="#e58139"] ;
79 -> 80 ;
81 [label=<gini = 0.0<br/>samples = 1<br/>value = [0, 1]<br/>class = yes>, fillcolor="#399de5"] ;
79 -> 81 ;
82 [label=<gini = 0.0<br/>samples = 3<br/>value = [0, 3]<br/>class = yes>, fillcolor="#399de5"] ;
78 -> 82 ;
83 [label=<DiabetesPedigreeFunction &le; 0.561<br/>gini = 0.5<br/>samples = 118<br/>value = [59, 59]<br/>class = no>, fillcolor="#ffffff"] ;
59 -> 83 ;
84 [label=<DiabetesPedigreeFunction &le; 0.2<br/>gini = 0.482<br/>samples = 84<br/>value = [50, 34]<br/>class = no>, fillcolor="#f7d7c0"] ;
83 -> 84 ;
85 [label=<BMI &le; 27.65<br/>gini = 0.308<br/>samples = 21<br/>value = [17, 4]<br/>class = no>, fillcolor="#eb9f68"] ;
84 -> 85 ;
86 [label=<gini = 0.0<br/>samples = 1<br/>value = [0, 1]<br/>class = yes>, fillcolor="#399de5"] ;
85 -> 86 ;
87 [label=<SkinThickness &le; 9.5<br/>gini = 0.255<br/>samples = 20<br/>value = [17, 3]<br/>class = no>, fillcolor="#ea975c"] ;
85 -> 87 ;
88 [label=<Glucose &le; 118.5<br/>gini = 0.397<br/>samples = 11<br/>value = [8, 3]<br/>class = no>, fillcolor="#efb083"] ;
87 -> 88 ;
89 [label=<Glucose &le; 103.0<br/>gini = 0.219<br/>samples = 8<br/>value = [7, 1]<br/>class = no>, fillcolor="#e99355"] ;
88 -> 89 ;
90 [label=<BloodPressure &le; 79.0<br/>gini = 0.444<br/>samples = 3<br/>value = [2, 1]<br/>class = no>, fillcolor="#f2c09c"] ;
89 -> 90 ;
91 [label=<gini = 0.0<br/>samples = 2<br/>value = [2, 0]<br/>class = no>, fillcolor="#e58139"] ;
90 -> 91 ;
92 [label=<gini = 0.0<br/>samples = 1<br/>value = [0, 1]<br/>class = yes>, fillcolor="#399de5"] ;
90 -> 92 ;
93 [label=<gini = 0.0<br/>samples = 5<br/>value = [5, 0]<br/>class = no>, fillcolor="#e58139"] ;
89 -> 93 ;
94 [label=<Glucose &le; 126.0<br/>gini = 0.444<br/>samples = 3<br/>value = [1, 2]<br/>class = yes>, fillcolor="#9ccef2"] ;
88 -> 94 ;
95 [label=<gini = 0.0<br/>samples = 2<br/>value = [0, 2]<br/>class = yes>, fillcolor="#399de5"] ;
94 -> 95 ;
96 [label=<gini = 0.0<br/>samples = 1<br/>value = [1, 0]<br/>class = no>, fillcolor="#e58139"] ;
94 -> 96 ;
97 [label=<gini = 0.0<br/>samples = 9<br/>value = [9, 0]<br/>class = no>, fillcolor="#e58139"] ;
87 -> 97 ;
98 [label=<Pregnancies &le; 1.5<br/>gini = 0.499<br/>samples = 63<br/>value = [33, 30]<br/>class = no>, fillcolor="#fdf4ed"] ;
84 -> 98 ;
99 [label=<Glucose &le; 113.0<br/>gini = 0.298<br/>samples = 11<br/>value = [2, 9]<br/>class = yes>, fillcolor="#65b3eb"] ;
98 -> 99 ;
100 [label=<BMI &le; 36.15<br/>gini = 0.444<br/>samples = 3<br/>value = [2, 1]<br/>class = no>, fillcolor="#f2c09c"] ;
99 -> 100 ;
101 [label=<gini = 0.0<br/>samples = 2<br/>value = [2, 0]<br/>class = no>, fillcolor="#e58139"] ;
100 -> 101 ;
102 [label=<gini = 0.0<br/>samples = 1<br/>value = [0, 1]<br/>class = yes>, fillcolor="#399de5"] ;
100 -> 102 ;
103 [label=<gini = 0.0<br/>samples = 8<br/>value = [0, 8]<br/>class = yes>, fillcolor="#399de5"] ;
99 -> 103 ;
104 [label=<BloodPressure &le; 67.0<br/>gini = 0.482<br/>samples = 52<br/>value = [31, 21]<br/>class = no>, fillcolor="#f7d6bf"] ;
98 -> 104 ;
105 [label=<DiabetesPedigreeFunction &le; 0.362<br/>gini = 0.375<br/>samples = 12<br/>value = [3, 9]<br/>class = yes>, fillcolor="#7bbeee"] ;
104 -> 105 ;
106 [label=<gini = 0.0<br/>samples = 7<br/>value = [0, 7]<br/>class = yes>, fillcolor="#399de5"] ;
105 -> 106 ;
107 [label=<BMI &le; 30.05<br/>gini = 0.48<br/>samples = 5<br/>value = [3, 2]<br/>class = no>, fillcolor="#f6d5bd"] ;
105 -> 107 ;
108 [label=<gini = 0.0<br/>samples = 2<br/>value = [0, 2]<br/>class = yes>, fillcolor="#399de5"] ;
107 -> 108 ;
109 [label=<gini = 0.0<br/>samples = 3<br/>value = [3, 0]<br/>class = no>, fillcolor="#e58139"] ;
107 -> 109 ;
110 [label=<BMI &le; 34.45<br/>gini = 0.42<br/>samples = 40<br/>value = [28, 12]<br/>class = no>, fillcolor="#f0b78e"] ;
104 -> 110 ;
111 [label=<BloodPressure &le; 83.0<br/>gini = 0.491<br/>samples = 23<br/>value = [13, 10]<br/>class = no>, fillcolor="#f9e2d1"] ;
110 -> 111 ;
112 [label=<Glucose &le; 120.0<br/>gini = 0.499<br/>samples = 19<br/>value = [9, 10]<br/>class = yes>, fillcolor="#ebf5fc"] ;
111 -> 112 ;
113 [label=<DiabetesPedigreeFunction &le; 0.252<br/>gini = 0.346<br/>samples = 9<br/>value = [2, 7]<br/>class = yes>, fillcolor="#72b9ec"] ;
112 -> 113 ;
114 [label=<gini = 0.0<br/>samples = 2<br/>value = [2, 0]<br/>class = no>, fillcolor="#e58139"] ;
113 -> 114 ;
115 [label=<gini = 0.0<br/>samples = 7<br/>value = [0, 7]<br/>class = yes>, fillcolor="#399de5"] ;
113 -> 115 ;
116 [label=<DiabetesPedigreeFunction &le; 0.239<br/>gini = 0.42<br/>samples = 10<br/>value = [7, 3]<br/>class = no>, fillcolor="#f0b78e"] ;
112 -> 116 ;
117 [label=<gini = 0.0<br/>samples = 2<br/>value = [0, 2]<br/>class = yes>, fillcolor="#399de5"] ;
116 -> 117 ;
118 [label=<Age &le; 30.5<br/>gini = 0.219<br/>samples = 8<br/>value = [7, 1]<br/>class = no>, fillcolor="#e99355"] ;
116 -> 118 ;
119 [label=<gini = 0.0<br/>samples = 1<br/>value = [0, 1]<br/>class = yes>, fillcolor="#399de5"] ;
118 -> 119 ;
120 [label=<gini = 0.0<br/>samples = 7<br/>value = [7, 0]<br/>class = no>, fillcolor="#e58139"] ;
118 -> 120 ;
121 [label=<gini = 0.0<br/>samples = 4<br/>value = [4, 0]<br/>class = no>, fillcolor="#e58139"] ;
111 -> 121 ;
122 [label=<BMI &le; 43.1<br/>gini = 0.208<br/>samples = 17<br/>value = [15, 2]<br/>class = no>, fillcolor="#e89253"] ;
110 -> 122 ;
123 [label=<Pregnancies &le; 11.5<br/>gini = 0.117<br/>samples = 16<br/>value = [15, 1]<br/>class = no>, fillcolor="#e78946"] ;
122 -> 123 ;
124 [label=<gini = 0.0<br/>samples = 15<br/>value = [15, 0]<br/>class = no>, fillcolor="#e58139"] ;
123 -> 124 ;
125 [label=<gini = 0.0<br/>samples = 1<br/>value = [0, 1]<br/>class = yes>, fillcolor="#399de5"] ;
123 -> 125 ;
126 [label=<gini = 0.0<br/>samples = 1<br/>value = [0, 1]<br/>class = yes>, fillcolor="#399de5"] ;
122 -> 126 ;
127 [label=<Pregnancies &le; 6.5<br/>gini = 0.389<br/>samples = 34<br/>value = [9, 25]<br/>class = yes>, fillcolor="#80c0ee"] ;
83 -> 127 ;
128 [label=<Insulin &le; 120.5<br/>gini = 0.49<br/>samples = 21<br/>value = [9, 12]<br/>class = yes>, fillcolor="#cee6f8"] ;
127 -> 128 ;
129 [label=<Age &le; 34.5<br/>gini = 0.463<br/>samples = 11<br/>value = [7, 4]<br/>class = no>, fillcolor="#f4c9aa"] ;
128 -> 129 ;
130 [label=<gini = 0.0<br/>samples = 5<br/>value = [5, 0]<br/>class = no>, fillcolor="#e58139"] ;
129 -> 130 ;
131 [label=<BMI &le; 33.15<br/>gini = 0.444<br/>samples = 6<br/>value = [2, 4]<br/>class = yes>, fillcolor="#9ccef2"] ;
129 -> 131 ;
132 [label=<gini = 0.0<br/>samples = 4<br/>value = [0, 4]<br/>class = yes>, fillcolor="#399de5"] ;
131 -> 132 ;
133 [label=<gini = 0.0<br/>samples = 2<br/>value = [2, 0]<br/>class = no>, fillcolor="#e58139"] ;
131 -> 133 ;
134 [label=<SkinThickness &le; 47.5<br/>gini = 0.32<br/>samples = 10<br/>value = [2, 8]<br/>class = yes>, fillcolor="#6ab6ec"] ;
128 -> 134 ;
135 [label=<Insulin &le; 225.0<br/>gini = 0.198<br/>samples = 9<br/>value = [1, 8]<br/>class = yes>, fillcolor="#52a9e8"] ;
134 -> 135 ;
136 [label=<gini = 0.0<br/>samples = 8<br/>value = [0, 8]<br/>class = yes>, fillcolor="#399de5"] ;
135 -> 136 ;
137 [label=<gini = 0.0<br/>samples = 1<br/>value = [1, 0]<br/>class = no>, fillcolor="#e58139"] ;
135 -> 137 ;
138 [label=<gini = 0.0<br/>samples = 1<br/>value = [1, 0]<br/>class = no>, fillcolor="#e58139"] ;
134 -> 138 ;
139 [label=<gini = 0.0<br/>samples = 13<br/>value = [0, 13]<br/>class = yes>, fillcolor="#399de5"] ;
127 -> 139 ;
140 [label=<BMI &le; 29.95<br/>gini = 0.474<br/>samples = 283<br/>value = [109, 174]<br/>class = yes>, fillcolor="#b5daf5"] ;
0 -> 140 [labeldistance=2.5, labelangle=-45, headlabel="False"] ;
141 [label=<Glucose &le; 145.5<br/>gini = 0.432<br/>samples = 76<br/>value = [52, 24]<br/>class = no>, fillcolor="#f1bb94"] ;
140 -> 141 ;
142 [label=<Insulin &le; 132.5<br/>gini = 0.25<br/>samples = 41<br/>value = [35, 6]<br/>class = no>, fillcolor="#e9975b"] ;
141 -> 142 ;
143 [label=<BMI &le; 28.15<br/>gini = 0.337<br/>samples = 28<br/>value = [22, 6]<br/>class = no>, fillcolor="#eca36f"] ;
142 -> 143 ;
144 [label=<BloodPressure &le; 73.0<br/>gini = 0.227<br/>samples = 23<br/>value = [20, 3]<br/>class = no>, fillcolor="#e99457"] ;
143 -> 144 ;
145 [label=<Glucose &le; 129.5<br/>gini = 0.444<br/>samples = 9<br/>value = [6, 3]<br/>class = no>, fillcolor="#f2c09c"] ;
144 -> 145 ;
146 [label=<gini = 0.0<br/>samples = 1<br/>value = [0, 1]<br/>class = yes>, fillcolor="#399de5"] ;
145 -> 146 ;
147 [label=<BloodPressure &le; 71.0<br/>gini = 0.375<br/>samples = 8<br/>value = [6, 2]<br/>class = no>, fillcolor="#eeab7b"] ;
145 -> 147 ;
148 [label=<Glucose &le; 138.0<br/>gini = 0.245<br/>samples = 7<br/>value = [6, 1]<br/>class = no>, fillcolor="#e9965a"] ;
147 -> 148 ;
149 [label=<gini = 0.0<br/>samples = 5<br/>value = [5, 0]<br/>class = no>, fillcolor="#e58139"] ;
148 -> 149 ;
150 [label=<Glucose &le; 140.0<br/>gini = 0.5<br/>samples = 2<br/>value = [1, 1]<br/>class = no>, fillcolor="#ffffff"] ;
148 -> 150 ;
151 [label=<gini = 0.0<br/>samples = 1<br/>value = [0, 1]<br/>class = yes>, fillcolor="#399de5"] ;
150 -> 151 ;
152 [label=<gini = 0.0<br/>samples = 1<br/>value = [1, 0]<br/>class = no>, fillcolor="#e58139"] ;
150 -> 152 ;
153 [label=<gini = 0.0<br/>samples = 1<br/>value = [0, 1]<br/>class = yes>, fillcolor="#399de5"] ;
147 -> 153 ;
154 [label=<gini = 0.0<br/>samples = 14<br/>value = [14, 0]<br/>class = no>, fillcolor="#e58139"] ;
144 -> 154 ;
155 [label=<BMI &le; 28.55<br/>gini = 0.48<br/>samples = 5<br/>value = [2, 3]<br/>class = yes>, fillcolor="#bddef6"] ;
143 -> 155 ;
156 [label=<gini = 0.0<br/>samples = 2<br/>value = [0, 2]<br/>class = yes>, fillcolor="#399de5"] ;
155 -> 156 ;
157 [label=<Glucose &le; 135.0<br/>gini = 0.444<br/>samples = 3<br/>value = [2, 1]<br/>class = no>, fillcolor="#f2c09c"] ;
155 -> 157 ;
158 [label=<gini = 0.0<br/>samples = 1<br/>value = [0, 1]<br/>class = yes>, fillcolor="#399de5"] ;
157 -> 158 ;
159 [label=<gini = 0.0<br/>samples = 2<br/>value = [2, 0]<br/>class = no>, fillcolor="#e58139"] ;
157 -> 159 ;
160 [label=<gini = 0.0<br/>samples = 13<br/>value = [13, 0]<br/>class = no>, fillcolor="#e58139"] ;
142 -> 160 ;
161 [label=<Age &le; 25.5<br/>gini = 0.5<br/>samples = 35<br/>value = [17, 18]<br/>class = yes>, fillcolor="#f4fafe"] ;
141 -> 161 ;
162 [label=<gini = 0.0<br/>samples = 4<br/>value = [4, 0]<br/>class = no>, fillcolor="#e58139"] ;
161 -> 162 ;
163 [label=<Age &le; 61.0<br/>gini = 0.487<br/>samples = 31<br/>value = [13, 18]<br/>class = yes>, fillcolor="#c8e4f8"] ;
161 -> 163 ;
164 [label=<BMI &le; 27.1<br/>gini = 0.444<br/>samples = 27<br/>value = [9, 18]<br/>class = yes>, fillcolor="#9ccef2"] ;
163 -> 164 ;
165 [label=<Glucose &le; 151.0<br/>gini = 0.153<br/>samples = 12<br/>value = [1, 11]<br/>class = yes>, fillcolor="#4ba6e7"] ;
164 -> 165 ;
166 [label=<gini = 0.0<br/>samples = 1<br/>value = [1, 0]<br/>class = no>, fillcolor="#e58139"] ;
165 -> 166 ;
167 [label=<gini = 0.0<br/>samples = 11<br/>value = [0, 11]<br/>class = yes>, fillcolor="#399de5"] ;
165 -> 167 ;
168 [label=<BloodPressure &le; 82.0<br/>gini = 0.498<br/>samples = 15<br/>value = [8, 7]<br/>class = no>, fillcolor="#fcefe6"] ;
164 -> 168 ;
169 [label=<DiabetesPedigreeFunction &le; 0.397<br/>gini = 0.463<br/>samples = 11<br/>value = [4, 7]<br/>class = yes>, fillcolor="#aad5f4"] ;
168 -> 169 ;
170 [label=<Pregnancies &le; 6.5<br/>gini = 0.219<br/>samples = 8<br/>value = [1, 7]<br/>class = yes>, fillcolor="#55abe9"] ;
169 -> 170 ;
171 [label=<gini = 0.0<br/>samples = 7<br/>value = [0, 7]<br/>class = yes>, fillcolor="#399de5"] ;
170 -> 171 ;
172 [label=<gini = 0.0<br/>samples = 1<br/>value = [1, 0]<br/>class = no>, fillcolor="#e58139"] ;
170 -> 172 ;
173 [label=<gini = 0.0<br/>samples = 3<br/>value = [3, 0]<br/>class = no>, fillcolor="#e58139"] ;
169 -> 173 ;
174 [label=<gini = 0.0<br/>samples = 4<br/>value = [4, 0]<br/>class = no>, fillcolor="#e58139"] ;
168 -> 174 ;
175 [label=<gini = 0.0<br/>samples = 4<br/>value = [4, 0]<br/>class = no>, fillcolor="#e58139"] ;
163 -> 175 ;
176 [label=<Glucose &le; 157.5<br/>gini = 0.399<br/>samples = 207<br/>value = [57, 150]<br/>class = yes>, fillcolor="#84c2ef"] ;
140 -> 176 ;
177 [label=<Age &le; 30.5<br/>gini = 0.476<br/>samples = 115<br/>value = [45, 70]<br/>class = yes>, fillcolor="#b8dcf6"] ;
176 -> 177 ;
178 [label=<BloodPressure &le; 61.0<br/>gini = 0.497<br/>samples = 50<br/>value = [27, 23]<br/>class = no>, fillcolor="#fbece2"] ;
177 -> 178 ;
179 [label=<gini = 0.0<br/>samples = 10<br/>value = [0, 10]<br/>class = yes>, fillcolor="#399de5"] ;
178 -> 179 ;
180 [label=<BMI &le; 41.8<br/>gini = 0.439<br/>samples = 40<br/>value = [27, 13]<br/>class = no>, fillcolor="#f2be98"] ;
178 -> 180 ;
181 [label=<DiabetesPedigreeFunction &le; 1.141<br/>gini = 0.35<br/>samples = 31<br/>value = [24, 7]<br/>class = no>, fillcolor="#eda673"] ;
180 -> 181 ;
182 [label=<Pregnancies &le; 4.5<br/>gini = 0.285<br/>samples = 29<br/>value = [24, 5]<br/>class = no>, fillcolor="#ea9b62"] ;
181 -> 182 ;
183 [label=<BloodPressure &le; 73.0<br/>gini = 0.204<br/>samples = 26<br/>value = [23, 3]<br/>class = no>, fillcolor="#e89153"] ;
182 -> 183 ;
184 [label=<Age &le; 25.5<br/>gini = 0.42<br/>samples = 10<br/>value = [7, 3]<br/>class = no>, fillcolor="#f0b78e"] ;
183 -> 184 ;
185 [label=<Pregnancies &le; 0.5<br/>gini = 0.245<br/>samples = 7<br/>value = [6, 1]<br/>class = no>, fillcolor="#e9965a"] ;
184 -> 185 ;
186 [label=<DiabetesPedigreeFunction &le; 0.183<br/>gini = 0.5<br/>samples = 2<br/>value = [1, 1]<br/>class = no>, fillcolor="#ffffff"] ;
185 -> 186 ;
187 [label=<gini = 0.0<br/>samples = 1<br/>value = [1, 0]<br/>class = no>, fillcolor="#e58139"] ;
186 -> 187 ;
188 [label=<gini = 0.0<br/>samples = 1<br/>value = [0, 1]<br/>class = yes>, fillcolor="#399de5"] ;
186 -> 188 ;
189 [label=<gini = 0.0<br/>samples = 5<br/>value = [5, 0]<br/>class = no>, fillcolor="#e58139"] ;
185 -> 189 ;
190 [label=<BloodPressure &le; 69.0<br/>gini = 0.444<br/>samples = 3<br/>value = [1, 2]<br/>class = yes>, fillcolor="#9ccef2"] ;
184 -> 190 ;
191 [label=<gini = 0.0<br/>samples = 1<br/>value = [1, 0]<br/>class = no>, fillcolor="#e58139"] ;
190 -> 191 ;
192 [label=<gini = 0.0<br/>samples = 2<br/>value = [0, 2]<br/>class = yes>, fillcolor="#399de5"] ;
190 -> 192 ;
193 [label=<gini = 0.0<br/>samples = 16<br/>value = [16, 0]<br/>class = no>, fillcolor="#e58139"] ;
183 -> 193 ;
194 [label=<BMI &le; 35.45<br/>gini = 0.444<br/>samples = 3<br/>value = [1, 2]<br/>class = yes>, fillcolor="#9ccef2"] ;
182 -> 194 ;
195 [label=<gini = 0.0<br/>samples = 2<br/>value = [0, 2]<br/>class = yes>, fillcolor="#399de5"] ;
194 -> 195 ;
196 [label=<gini = 0.0<br/>samples = 1<br/>value = [1, 0]<br/>class = no>, fillcolor="#e58139"] ;
194 -> 196 ;
197 [label=<gini = 0.0<br/>samples = 2<br/>value = [0, 2]<br/>class = yes>, fillcolor="#399de5"] ;
181 -> 197 ;
198 [label=<DiabetesPedigreeFunction &le; 0.373<br/>gini = 0.444<br/>samples = 9<br/>value = [3, 6]<br/>class = yes>, fillcolor="#9ccef2"] ;
180 -> 198 ;
199 [label=<gini = 0.0<br/>samples = 4<br/>value = [0, 4]<br/>class = yes>, fillcolor="#399de5"] ;
198 -> 199 ;
200 [label=<Glucose &le; 142.5<br/>gini = 0.48<br/>samples = 5<br/>value = [3, 2]<br/>class = no>, fillcolor="#f6d5bd"] ;
198 -> 200 ;
201 [label=<gini = 0.0<br/>samples = 2<br/>value = [0, 2]<br/>class = yes>, fillcolor="#399de5"] ;
200 -> 201 ;
202 [label=<gini = 0.0<br/>samples = 3<br/>value = [3, 0]<br/>class = no>, fillcolor="#e58139"] ;
200 -> 202 ;
203 [label=<DiabetesPedigreeFunction &le; 0.429<br/>gini = 0.4<br/>samples = 65<br/>value = [18, 47]<br/>class = yes>, fillcolor="#85c3ef"] ;
177 -> 203 ;
204 [label=<BMI &le; 45.55<br/>gini = 0.497<br/>samples = 28<br/>value = [13, 15]<br/>class = yes>, fillcolor="#e5f2fc"] ;
203 -> 204 ;
205 [label=<DiabetesPedigreeFunction &le; 0.136<br/>gini = 0.491<br/>samples = 23<br/>value = [13, 10]<br/>class = no>, fillcolor="#f9e2d1"] ;
204 -> 205 ;
206 [label=<gini = 0.0<br/>samples = 2<br/>value = [0, 2]<br/>class = yes>, fillcolor="#399de5"] ;
205 -> 206 ;
207 [label=<BMI &le; 32.45<br/>gini = 0.472<br/>samples = 21<br/>value = [13, 8]<br/>class = no>, fillcolor="#f5cfb3"] ;
205 -> 207 ;
208 [label=<gini = 0.0<br/>samples = 5<br/>value = [5, 0]<br/>class = no>, fillcolor="#e58139"] ;
207 -> 208 ;
209 [label=<BMI &le; 33.05<br/>gini = 0.5<br/>samples = 16<br/>value = [8, 8]<br/>class = no>, fillcolor="#ffffff"] ;
207 -> 209 ;
210 [label=<gini = 0.0<br/>samples = 3<br/>value = [0, 3]<br/>class = yes>, fillcolor="#399de5"] ;
209 -> 210 ;
211 [label=<SkinThickness &le; 30.0<br/>gini = 0.473<br/>samples = 13<br/>value = [8, 5]<br/>class = no>, fillcolor="#f5d0b5"] ;
209 -> 211 ;
212 [label=<Age &le; 42.0<br/>gini = 0.346<br/>samples = 9<br/>value = [7, 2]<br/>class = no>, fillcolor="#eca572"] ;
211 -> 212 ;
213 [label=<gini = 0.0<br/>samples = 4<br/>value = [4, 0]<br/>class = no>, fillcolor="#e58139"] ;
212 -> 213 ;
214 [label=<Age &le; 44.5<br/>gini = 0.48<br/>samples = 5<br/>value = [3, 2]<br/>class = no>, fillcolor="#f6d5bd"] ;
212 -> 214 ;
215 [label=<gini = 0.0<br/>samples = 2<br/>value = [0, 2]<br/>class = yes>, fillcolor="#399de5"] ;
214 -> 215 ;
216 [label=<gini = 0.0<br/>samples = 3<br/>value = [3, 0]<br/>class = no>, fillcolor="#e58139"] ;
214 -> 216 ;
217 [label=<Insulin &le; 44.0<br/>gini = 0.375<br/>samples = 4<br/>value = [1, 3]<br/>class = yes>, fillcolor="#7bbeee"] ;
211 -> 217 ;
218 [label=<gini = 0.0<br/>samples = 1<br/>value = [1, 0]<br/>class = no>, fillcolor="#e58139"] ;
217 -> 218 ;
219 [label=<gini = 0.0<br/>samples = 3<br/>value = [0, 3]<br/>class = yes>, fillcolor="#399de5"] ;
217 -> 219 ;
220 [label=<gini = 0.0<br/>samples = 5<br/>value = [0, 5]<br/>class = yes>, fillcolor="#399de5"] ;
204 -> 220 ;
221 [label=<Insulin &le; 333.5<br/>gini = 0.234<br/>samples = 37<br/>value = [5, 32]<br/>class = yes>, fillcolor="#58ace9"] ;
203 -> 221 ;
222 [label=<BMI &le; 40.05<br/>gini = 0.161<br/>samples = 34<br/>value = [3, 31]<br/>class = yes>, fillcolor="#4ca6e8"] ;
221 -> 222 ;
223 [label=<gini = 0.0<br/>samples = 24<br/>value = [0, 24]<br/>class = yes>, fillcolor="#399de5"] ;
222 -> 223 ;
224 [label=<BMI &le; 40.9<br/>gini = 0.42<br/>samples = 10<br/>value = [3, 7]<br/>class = yes>, fillcolor="#8ec7f0"] ;
222 -> 224 ;
225 [label=<gini = 0.0<br/>samples = 3<br/>value = [3, 0]<br/>class = no>, fillcolor="#e58139"] ;
224 -> 225 ;
226 [label=<gini = 0.0<br/>samples = 7<br/>value = [0, 7]<br/>class = yes>, fillcolor="#399de5"] ;
224 -> 226 ;
227 [label=<DiabetesPedigreeFunction &le; 0.581<br/>gini = 0.444<br/>samples = 3<br/>value = [2, 1]<br/>class = no>, fillcolor="#f2c09c"] ;
221 -> 227 ;
228 [label=<gini = 0.0<br/>samples = 1<br/>value = [0, 1]<br/>class = yes>, fillcolor="#399de5"] ;
227 -> 228 ;
229 [label=<gini = 0.0<br/>samples = 2<br/>value = [2, 0]<br/>class = no>, fillcolor="#e58139"] ;
227 -> 229 ;
230 [label=<Insulin &le; 629.5<br/>gini = 0.227<br/>samples = 92<br/>value = [12, 80]<br/>class = yes>, fillcolor="#57ace9"] ;
176 -> 230 ;
231 [label=<DiabetesPedigreeFunction &le; 0.3<br/>gini = 0.199<br/>samples = 89<br/>value = [10, 79]<br/>class = yes>, fillcolor="#52a9e8"] ;
230 -> 231 ;
232 [label=<DiabetesPedigreeFunction &le; 0.288<br/>gini = 0.365<br/>samples = 25<br/>value = [6, 19]<br/>class = yes>, fillcolor="#78bced"] ;
231 -> 232 ;
233 [label=<Age &le; 37.5<br/>gini = 0.287<br/>samples = 23<br/>value = [4, 19]<br/>class = yes>, fillcolor="#63b2ea"] ;
232 -> 233 ;
234 [label=<Age &le; 25.5<br/>gini = 0.444<br/>samples = 9<br/>value = [3, 6]<br/>class = yes>, fillcolor="#9ccef2"] ;
233 -> 234 ;
235 [label=<gini = 0.0<br/>samples = 3<br/>value = [0, 3]<br/>class = yes>, fillcolor="#399de5"] ;
234 -> 235 ;
236 [label=<Glucose &le; 180.5<br/>gini = 0.5<br/>samples = 6<br/>value = [3, 3]<br/>class = no>, fillcolor="#ffffff"] ;
234 -> 236 ;
237 [label=<BMI &le; 32.8<br/>gini = 0.375<br/>samples = 4<br/>value = [3, 1]<br/>class = no>, fillcolor="#eeab7b"] ;
236 -> 237 ;
238 [label=<gini = 0.0<br/>samples = 1<br/>value = [0, 1]<br/>class = yes>, fillcolor="#399de5"] ;
237 -> 238 ;
239 [label=<gini = 0.0<br/>samples = 3<br/>value = [3, 0]<br/>class = no>, fillcolor="#e58139"] ;
237 -> 239 ;
240 [label=<gini = 0.0<br/>samples = 2<br/>value = [0, 2]<br/>class = yes>, fillcolor="#399de5"] ;
236 -> 240 ;
241 [label=<Age &le; 56.5<br/>gini = 0.133<br/>samples = 14<br/>value = [1, 13]<br/>class = yes>, fillcolor="#48a5e7"] ;
233 -> 241 ;
242 [label=<gini = 0.0<br/>samples = 12<br/>value = [0, 12]<br/>class = yes>, fillcolor="#399de5"] ;
241 -> 242 ;
243 [label=<Age &le; 63.0<br/>gini = 0.5<br/>samples = 2<br/>value = [1, 1]<br/>class = no>, fillcolor="#ffffff"] ;
241 -> 243 ;
244 [label=<gini = 0.0<br/>samples = 1<br/>value = [1, 0]<br/>class = no>, fillcolor="#e58139"] ;
243 -> 244 ;
245 [label=<gini = 0.0<br/>samples = 1<br/>value = [0, 1]<br/>class = yes>, fillcolor="#399de5"] ;
243 -> 245 ;
246 [label=<gini = 0.0<br/>samples = 2<br/>value = [2, 0]<br/>class = no>, fillcolor="#e58139"] ;
232 -> 246 ;
247 [label=<Age &le; 44.0<br/>gini = 0.117<br/>samples = 64<br/>value = [4, 60]<br/>class = yes>, fillcolor="#46a4e7"] ;
231 -> 247 ;
248 [label=<gini = 0.0<br/>samples = 47<br/>value = [0, 47]<br/>class = yes>, fillcolor="#399de5"] ;
247 -> 248 ;
249 [label=<Pregnancies &le; 6.5<br/>gini = 0.36<br/>samples = 17<br/>value = [4, 13]<br/>class = yes>, fillcolor="#76bbed"] ;
247 -> 249 ;
250 [label=<Age &le; 51.0<br/>gini = 0.494<br/>samples = 9<br/>value = [4, 5]<br/>class = yes>, fillcolor="#d7ebfa"] ;
249 -> 250 ;
251 [label=<gini = 0.0<br/>samples = 3<br/>value = [3, 0]<br/>class = no>, fillcolor="#e58139"] ;
250 -> 251 ;
252 [label=<Pregnancies &le; 0.5<br/>gini = 0.278<br/>samples = 6<br/>value = [1, 5]<br/>class = yes>, fillcolor="#61b1ea"] ;
250 -> 252 ;
253 [label=<gini = 0.0<br/>samples = 1<br/>value = [1, 0]<br/>class = no>, fillcolor="#e58139"] ;
252 -> 253 ;
254 [label=<gini = 0.0<br/>samples = 5<br/>value = [0, 5]<br/>class = yes>, fillcolor="#399de5"] ;
252 -> 254 ;
255 [label=<gini = 0.0<br/>samples = 8<br/>value = [0, 8]<br/>class = yes>, fillcolor="#399de5"] ;
249 -> 255 ;
256 [label=<BMI &le; 33.4<br/>gini = 0.444<br/>samples = 3<br/>value = [2, 1]<br/>class = no>, fillcolor="#f2c09c"] ;
230 -> 256 ;
257 [label=<gini = 0.0<br/>samples = 1<br/>value = [0, 1]<br/>class = yes>, fillcolor="#399de5"] ;
256 -> 257 ;
258 [label=<gini = 0.0<br/>samples = 2<br/>value = [2, 0]<br/>class = no>, fillcolor="#e58139"] ;
256 -> 258 ;
}
